{"learner":{"attributes":{"best_iteration":"119","best_score":"15.986588968998888"},"feature_names":["glucose","hour","glucose_change","glucose_change_ph","glucose_change_ema_ph","glucose_rsi","glucose_change_trend_intercept","simple_sugars","complex_sugars","fats","dietary_fibers","proteins","fast_insulin","slow_insulin"],"feature_types":["float","int","float","float","float","float","float","float","float","float","float","float","float","float"],"gradient_booster":{"model":{"gbtree_model_param":{"num_parallel_tree":"1","num_trees":"140"},"iteration_indptr":[0,1,2,3,4,5,6,7,8,9,10,11,12,13,14,15,16,17,18,19,20,21,22,23,24,25,26,27,28,29,30,31,32,33,34,35,36,37,38,39,40,41,42,43,44,45,46,47,48,49,50,51,52,53,54,55,56,57,58,59,60,61,62,63,64,65,66,67,68,69,70,71,72,73,74,75,76,77,78,79,80,81,82,83,84,85,86,87,88,89,90,91,92,93,94,95,96,97,98,99,100,101,102,103,104,105,106,107,108,109,110,111,112,113,114,115,116,117,118,119,120,121,122,123,124,125,126,127,128,129,130,131,132,133,134,135,136,137,138,139,140],"tree_info":[0,0,0,0,0,0,0,0,0,0,0,0,0,0,0,0,0,0,0,0,0,0,0,0,0,0,0,0,0,0,0,0,0,0,0,0,0,0,0,0,0,0,0,0,0,0,0,0,0,0,0,0,0,0,0,0,0,0,0,0,0,0,0,0,0,0,0,0,0,0,0,0,0,0,0,0,0,0,0,0,0,0,0,0,0,0,0,0,0,0,0,0,0,0,0,0,0,0,0,0,0,0,0,0,0,0,0,0,0,0,0,0,0,0,0,0,0,0,0,0,0,0,0,0,0,0,0,0,0,0,0,0,0,0,0,0,0,0,0,0],"trees":[{"base_weights":[-3.0567068E-7,9.301735E0,-2.9752415E1,3.5869152E1,4.6834183E0,-2.0449318E1,-6.2901127E1,2.411546E0,4.0858383E1,1.1061556E1,-3.111029E0,-4.986723E1,-1.6361507E1,-8.78815E0,-6.880657E1,-7.247708E1,1.0714642E1,3.9949245E1,4.8923866E1,-8.592523E0,1.2445895E1,-1.1309414E1,6.634683E-1,-7.765562E1,-4.1671276E1,-1.1241942E1,-2.5165169E1,-5.4464962E1,1.6258923E1,-6.1321278E1,-9.849356E1,-5.0975113E0,-2.5479736E1,5.1075635E0,-1.9379948E0,1.5811995E1,9.09311E0,-1.2997458E0,-2.149087E1,5.1273146E0,2.4673767E0,-8.87327E-2,-4.3669257E0,1.1087118E0,-1.3563133E0,-1.7934326E1,-3.390595E1,-1.3375859E1,-3.9365804E0,-4.821046E0,6.911351E-1,-1.1722217E1,-5.5311456E0,4.7782826E0,-1.9105007E1,-1.9613066E0,1.31215515E1,-2.7233511E1,-1.6858461E1,3.6863616E0,-3.0684221E1],"categories":[],"categories_nodes":[],"categories_segments":[],"categories_sizes":[],"default_left":[0,0,0,0,0,0,0,0,0,0,0,0,0,0,0,0,0,0,0,0,0,0,0,0,0,0,0,0,0,0,0,0,0,0,0,0,0,0,0,0,0,0,0,0,0,0,0,0,0,0,0,0,0,0,0,0,0,0,0,0,0],"id":0,"left_children":[1,3,5,7,9,11,13,15,17,19,21,23,25,27,29,31,33,35,-1,37,39,41,43,45,47,49,51,53,55,57,59,-1,-1,-1,-1,-1,-1,-1,-1,-1,-1,-1,-1,-1,-1,-1,-1,-1,-1,-1,-1,-1,-1,-1,-1,-1,-1,-1,-1,-1,-1],"loss_changes":[2.7968262E6,9.444744E5,7.4099775E5,1.9019888E5,3.2615862E5,2.253835E5,1.6780425E5,9.342587E4,1.03711625E5,9.827309E4,9.138745E4,4.8919188E4,7.421931E4,6.1521273E4,9.951275E4,8.923227E3,1.4741507E4,1.19648E5,0E0,6.3608945E4,6.596009E4,3.3289484E4,3.1819635E4,2.5481625E4,1.43111875E4,6.851253E4,5.6082156E4,1.3343547E4,2.2211396E4,5.2584125E4,4.069425E4,0E0,0E0,0E0,0E0,0E0,0E0,0E0,0E0,0E0,0E0,0E0,0E0,0E0,0E0,0E0,0E0,0E0,0E0,0E0,0E0,0E0,0E0,0E0,0E0,0E0,0E0,0E0,0E0,0E0,0E0],"parents":[2147483647,0,0,1,1,2,2,3,3,4,4,5,5,6,6,7,7,8,8,9,9,10,10,11,11,12,12,13,13,14,14,15,15,16,16,17,17,19,19,20,20,21,21,22,22,23,23,24,24,25,25,26,26,27,27,28,28,29,29,30,30],"right_children":[2,4,6,8,10,12,14,16,18,20,22,24,26,28,30,32,34,36,-1,38,40,42,44,46,48,50,52,54,56,58,60,-1,-1,-1,-1,-1,-1,-1,-1,-1,-1,-1,-1,-1,-1,-1,-1,-1,-1,-1,-1,-1,-1,-1,-1,-1,-1,-1,-1,-1,-1],"split_conditions":[3.60364E0,-6.6340313E0,1.193592E1,8.828918E1,0E0,9.0091E1,-3.9468439E0,-1.973002E1,-1.4285715E0,6.846916E1,1.2252376E2,5.585642E1,6.1026945E0,1.081092E2,2.162184E1,3.432038E-1,-7.142935E0,1.1E1,4.8923866E1,-3.4051335E-1,-1.80182E0,6E0,1.80182E0,7.65728E0,1.081092E1,5.0943937E0,3.243276E1,-1.0038712E1,2.6828259E1,-1.6302181E0,3.60364E1,-5.0975113E0,-2.5479736E1,5.1075635E0,-1.9379948E0,1.5811995E1,9.09311E0,-1.2997458E0,-2.149087E1,5.1273146E0,2.4673767E0,-8.87327E-2,-4.3669257E0,1.1087118E0,-1.3563133E0,-1.7934326E1,-3.390595E1,-1.3375859E1,-3.9365804E0,-4.821046E0,6.911351E-1,-1.1722217E1,-5.5311456E0,4.7782826E0,-1.9105007E1,-1.9613066E0,1.31215515E1,-2.7233511E1,-1.6858461E1,3.6863616E0,-3.0684221E1],"split_indices":[2,10,9,0,2,0,6,9,11,0,0,0,10,0,7,6,4,1,0,4,13,1,2,10,2,4,3,6,11,6,3,0,0,0,0,0,0,0,0,0,0,0,0,0,0,0,0,0,0,0,0,0,0,0,0,0,0,0,0,0,0],"split_type":[0,0,0,0,0,0,0,0,0,0,0,0,0,0,0,0,0,0,0,0,0,0,0,0,0,0,0,0,0,0,0,0,0,0,0,0,0,0,0,0,0,0,0,0,0,0,0,0,0,0,0,0,0,0,0,0,0,0,0,0,0],"sum_hessian":[1.0104E4,7.698E3,2.406E3,1.139E3,6.559E3,1.88E3,5.26E2,1.48E2,9.91E2,3.607E3,2.952E3,2.28E2,1.652E3,5.2E1,4.74E2,1.4E1,1.34E2,9.85E2,6E0,2.37E2,3.37E3,9.3E2,2.022E3,5E1,1.78E2,1.046E3,6.06E2,1.8E1,3.4E1,3.81E2,9.3E1,3E0,1.1E1,9.8E1,3.6E1,4.22E2,5.63E2,2.23E2,1.4E1,1.603E3,1.767E3,2.12E2,7.18E2,1.276E3,7.46E2,3.5E1,1.5E1,1.61E2,1.7E1,7.71E2,2.75E2,1.96E2,4.1E2,2E0,1.6E1,1.9E1,1.5E1,5.4E1,3.27E2,3E0,9E1],"tree_param":{"num_deleted":"0","num_feature":"14","num_nodes":"61","size_leaf_vector":"1"}},{"base_weights":[-1.3683423E-2,6.199728E0,-2.218758E1,2.0924532E1,1.8062083E0,-1.579794E1,-4.68267E1,-1.3437142E1,2.2810251E1,6.4064183E0,-2.602044E0,-3.187534E1,-1.1311427E1,-7.794633E0,-5.250948E1,-2.960805E0,-5.8088097E1,3.4167786E1,1.5094563E1,9.293677E-1,1.0158571E1,-3.6718493E0,1.2714787E1,-3.6775383E1,-1.0199099E1,-8.274031E0,-1.9250828E1,-3.244767E1,1.8827394E1,3.5910675E1,-5.4188587E1,-8.531947E0,1.5470693E0,-6.5110555E0,-2.3780663E1,5.647347E0,1.2413088E1,-4.0361276E0,5.0457E0,-4.0525684E0,7.4136055E-1,2.8821042E0,1.1391904E1,-7.2588944E0,-9.0881526E-1,5.962334E0,1.158142E0,-1.6833664E1,-9.887806E0,-1.6569496E0,-1.2695085E1,-1.044584E1,-2.2243452E0,1.6116626E0,-6.2777696E0,4.690682E0,-1.33839245E1,1.1740593E1,6.570961E-1,5.5222244E0,1.28193445E1,-2.6974072E1,-1.4564641E1],"categories":[],"categories_nodes":[],"categories_segments":[],"categories_sizes":[],"default_left":[0,0,0,0,0,0,0,0,0,0,0,0,0,0,0,0,0,0,0,0,0,0,0,0,0,0,0,0,0,0,0,0,0,0,0,0,0,0,0,0,0,0,0,0,0,0,0,0,0,0,0,0,0,0,0,0,0,0,0,0,0,0,0],"id":1,"left_children":[1,3,5,7,9,11,13,15,17,19,21,23,25,27,29,31,33,35,37,39,41,43,45,47,49,51,53,55,57,59,61,-1,-1,-1,-1,-1,-1,-1,-1,-1,-1,-1,-1,-1,-1,-1,-1,-1,-1,-1,-1,-1,-1,-1,-1,-1,-1,-1,-1,-1,-1,-1,-1],"loss_changes":[1.3923594E6,5.1065444E5,3.4750675E5,1.1784719E5,1.2333257E5,1.2644656E5,1.00514625E5,4.4266965E4,1.5020994E5,6.114953E4,5.0941688E4,4.0305094E4,3.3023094E4,3.9333418E4,6.0887375E4,1.6279485E4,1.2151355E4,7.609675E4,5.0736062E4,2.6991318E4,2.6727875E4,3.8219586E4,1.279223E4,2.1173062E4,1.0579303E4,2.2490445E4,1.5785641E4,1.8831088E4,9.712342E3,1.6847363E2,7.4212375E4,0E0,0E0,0E0,0E0,0E0,0E0,0E0,0E0,0E0,0E0,0E0,0E0,0E0,0E0,0E0,0E0,0E0,0E0,0E0,0E0,0E0,0E0,0E0,0E0,0E0,0E0,0E0,0E0,0E0,0E0,0E0,0E0],"parents":[2147483647,0,0,1,1,2,2,3,3,4,4,5,5,6,6,7,7,8,8,9,9,10,10,11,11,12,12,13,13,14,14,15,15,16,16,17,17,18,18,19,19,20,20,21,21,22,22,23,23,24,24,25,25,26,26,27,27,28,28,29,29,30,30],"right_children":[2,4,6,8,10,12,14,16,18,20,22,24,26,28,30,32,34,36,38,40,42,44,46,48,50,52,54,56,58,60,62,-1,-1,-1,-1,-1,-1,-1,-1,-1,-1,-1,-1,-1,-1,-1,-1,-1,-1,-1,-1,-1,-1,-1,-1,-1,-1,-1,-1,-1,-1,-1,-1],"split_conditions":[3.1750686E0,-3.60364E0,1.286274E1,-2.460728E1,0E0,1.1351466E2,-3.1746352E0,6.6924744E0,-8.327645E0,1.4774924E2,3.894768E0,3.243276E1,7.95728E0,1.830182E1,1.982002E1,-4.375849E0,-3.82969E0,1.261274E2,-1.021638E1,-5.2591E0,2.9239538E0,-3.4684865E0,1.0735714E0,5.585642E1,1.3734253E1,-2.460728E1,2.6221256E0,0E0,-1.0038712E1,5.946006E1,1.081092E2,-8.531947E0,1.5470693E0,-6.5110555E0,-2.3780663E1,5.647347E0,1.2413088E1,-4.0361276E0,5.0457E0,-4.0525684E0,7.4136055E-1,2.8821042E0,1.1391904E1,-7.2588944E0,-9.0881526E-1,5.962334E0,1.158142E0,-1.6833664E1,-9.887806E0,-1.6569496E0,-1.2695085E1,-1.044584E1,-2.2243452E0,1.6116626E0,-6.2777696E0,4.690682E0,-1.33839245E1,1.1740593E1,6.570961E-1,5.5222244E0,1.28193445E1,-2.6974072E1,-1.4564641E1],"split_indices":[10,13,10,8,2,0,6,6,10,0,4,3,9,8,3,6,4,0,13,8,4,7,11,0,8,8,4,3,6,0,0,0,0,0,0,0,0,0,0,0,0,0,0,0,0,0,0,0,0,0,0,0,0,0,0,0,0,0,0,0,0,0,0],"split_type":[0,0,0,0,0,0,0,0,0,0,0,0,0,0,0,0,0,0,0,0,0,0,0,0,0,0,0,0,0,0,0,0,0,0,0,0,0,0,0,0,0,0,0,0,0,0,0,0,0,0,0,0,0,0,0,0,0,0,0,0,0,0,0],"sum_hessian":[1.0104E4,7.893E3,2.211E3,1.813E3,6.08E3,1.757E3,4.54E2,9.4E1,1.719E3,2.975E3,3.105E3,3.82E2,1.375E3,5.8E1,3.96E2,7.7E1,1.7E1,6.94E2,1.025E3,1.21E3,1.765E3,2.903E3,2.02E2,3.11E2,7.1E1,9.96E2,3.79E2,3E1,2.8E1,7E0,3.89E2,1.8E1,5.9E1,7E0,1E1,2.23E2,4.71E2,5.8E1,9.67E2,1.16E2,1.094E3,1.732E3,3.3E1,8.7E1,2.816E3,1.11E2,9.1E1,4.9E1,2.62E2,6.3E1,8E0,3E1,9.66E2,2.4E1,3.55E2,6E0,2.4E1,1.2E1,1.6E1,3E0,4E0,5.1E1,3.38E2],"tree_param":{"num_deleted":"0","num_feature":"14","num_nodes":"63","size_leaf_vector":"1"}},{"base_weights":[-1.8108241E-2,6.0721707E0,-1.1619218E1,2.1420527E1,4.109828E0,-7.960212E0,-3.0596724E1,-2.6465128E1,2.4151737E1,-2.680477E0,6.470934E0,-1.417252E1,-3.8117628E0,-6.361441E-1,-3.3585674E1,-3.560914E1,3.2809803E1,2.3246552E1,3.355997E1,-2.525839E1,-2.3552353E0,1.3819449E1,4.7422423E0,-2.067191E1,-9.477852E0,-7.872352E0,-1.0609032E0,-1.4953487E1,1.3174488E1,-2.4728424E1,-4.5567898E1,-5.9319158E0,-1.625053E1,3.2396324E0,1.2334689E1,8.775295E0,3.6399045E0,8.5196847E-1,-1.7967541E0,3.5470593E0,8.741133E0,1.247747E0,5.5000935E0,-3.0459344E0,-7.684673E0,-6.500887E0,-2.2744086E0,-3.6539457E0,-4.2413035E-1,3.398763E-1,-2.8606062E0,-1.1956284E1,1.7209585E-1,1.1590415E1,2.1200557E0,-1.15684805E1,-4.5232844E0,1.1208222E1,-1.4557253E1],"categories":[],"categories_nodes":[],"categories_segments":[],"categories_sizes":[],"default_left":[0,0,0,0,0,0,0,0,0,0,0,0,0,0,0,0,0,0,0,0,0,0,0,0,0,0,0,0,0,0,0,0,0,0,0,0,0,0,0,0,0,0,0,0,0,0,0,0,0,0,0,0,0,0,0,0,0,0,0],"id":2,"left_children":[1,3,5,7,9,11,13,15,17,19,21,23,25,27,29,31,33,35,-1,-1,37,39,41,43,45,47,49,51,53,55,57,-1,-1,-1,-1,-1,-1,-1,-1,-1,-1,-1,-1,-1,-1,-1,-1,-1,-1,-1,-1,-1,-1,-1,-1,-1,-1,-1,-1],"loss_changes":[7.140291E5,1.9950881E5,2.4133406E5,9.8859375E4,9.42411E4,7.514705E4,5.0306125E4,2.3390768E4,5.3851562E4,4.0020105E4,5.5333625E4,3.544267E4,1.9550514E4,1.0479046E4,5.3105375E4,9.509559E3,6.5291943E2,4.6690062E4,0E0,0E0,2.8561777E4,2.5030938E4,2.7914703E4,2.5168594E4,1.5558387E4,1.9651613E4,1.9438871E4,1.0075453E4,3.9255225E3,3.8934984E4,5.4767406E4,0E0,0E0,0E0,0E0,0E0,0E0,0E0,0E0,0E0,0E0,0E0,0E0,0E0,0E0,0E0,0E0,0E0,0E0,0E0,0E0,0E0,0E0,0E0,0E0,0E0,0E0,0E0,0E0],"parents":[2147483647,0,0,1,1,2,2,3,3,4,4,5,5,6,6,7,7,8,8,9,9,10,10,11,11,12,12,13,13,14,14,15,15,16,16,17,17,20,20,21,21,22,22,23,23,24,24,25,25,26,26,27,27,28,28,29,29,30,30],"right_children":[2,4,6,8,10,12,14,16,18,20,22,24,26,28,30,32,34,36,-1,-1,38,40,42,44,46,48,50,52,54,56,58,-1,-1,-1,-1,-1,-1,-1,-1,-1,-1,-1,-1,-1,-1,-1,-1,-1,-1,-1,-1,-1,-1,-1,-1,-1,-1,-1,-1],"split_conditions":[1.80182E0,-8.327645E0,1.158592E1,-2.321184E1,1.0630738E2,1.5135287E2,7.44186E1,2.0000201E2,-1.4285715E0,-1.221638E1,-4.75546E0,-6.006067E-1,1.6302181E0,1.5495651E2,1.696638E1,-4.0350313E0,4.2042465E0,1.4E1,3.355997E1,-2.525839E1,1E1,-3.60364E0,2.7311394E0,1.8087645E0,9.375E1,2.4504752E2,7.9537773E0,1.621638E1,1.1E1,4.0326447E0,-9.094901E0,-5.9319158E0,-1.625053E1,3.2396324E0,1.2334689E1,8.775295E0,3.6399045E0,8.5196847E-1,-1.7967541E0,3.5470593E0,8.741133E0,1.247747E0,5.5000935E0,-3.0459344E0,-7.684673E0,-6.500887E0,-2.2744086E0,-3.6539457E0,-4.2413035E-1,3.398763E-1,-2.8606062E0,-1.1956284E1,1.7209585E-1,1.1590415E1,2.1200557E0,-1.15684805E1,-4.5232844E0,1.1208222E1,-1.4557253E1],"split_indices":[2,10,9,12,0,0,5,0,11,13,10,6,6,0,9,4,6,1,0,0,1,3,4,12,5,0,11,2,1,6,6,0,0,0,0,0,0,0,0,0,0,0,0,0,0,0,0,0,0,0,0,0,0,0,0,0,0,0,0],"split_type":[0,0,0,0,0,0,0,0,0,0,0,0,0,0,0,0,0,0,0,0,0,0,0,0,0,0,0,0,0,0,0,0,0,0,0,0,0,0,0,0,0,0,0,0,0,0,0,0,0,0,0,0,0,0,0,0,0,0,0],"sum_hessian":[1.0104E4,6.626E3,3.478E3,7.5E2,5.876E3,2.917E3,5.61E2,4E1,7.1E2,1.516E3,4.36E3,1.167E3,1.75E3,5.1E1,5.1E2,3.5E1,5E0,7.04E2,6E0,5E0,1.511E3,8.29E2,3.531E3,4.88E2,6.79E2,7.06E2,1.044E3,2.5E1,2.6E1,2.95E2,2.15E2,2E1,1.5E1,2E0,3E0,4.56E2,2.48E2,6.22E2,8.89E2,7.35E2,9.4E1,3.387E3,1.44E2,1.57E2,3.31E2,9E1,5.89E2,4.23E2,2.83E2,8.3E2,2.14E2,9E0,1.6E1,4E0,2.2E1,1.2E2,1.75E2,7E0,2.08E2],"tree_param":{"num_deleted":"0","num_feature":"14","num_nodes":"59","size_leaf_vector":"1"}},{"base_weights":[-1.380571E-2,2.211033E0,-1.612845E1,8.680741E0,-9.359432E-1,-1.2102647E1,-2.5666096E1,-7.9800344E0,1.0142793E1,-3.7930088E0,1.2736855E0,-3.9137966E1,-1.039392E1,-2.178158E0,-3.0034182E1,-3.2789783E0,-3.5675133E1,2.3825151E1,8.695669E0,-2.2884617E0,-1.0938707E1,8.32006E-1,1.7001875E1,3.023583E0,-4.48267E1,-1.5529786E1,-4.63076E0,-1.7051584E1,1.2272092E1,-3.5311783E1,-8.258376E0,-5.0759757E-1,-6.486584E0,-6.925059E0,-1.7050835E1,8.595467E0,-6.5171432E0,1.9556228E0,5.116318E0,-3.6970928E0,-4.1845155E-1,-5.9391427E0,-1.6942288E0,7.303046E-1,-1.0160463E0,9.92163E0,2.1033573E0,-9.298497E-1,5.964311E0,-7.558203E0,-1.8753119E1,2.284029E0,-5.093154E0,1.7810036E0,-2.3345525E0,-1.1345955E1,-1.7444617E0,-5.456816E-1,6.9463754E0,8.122981E0,-1.101555E1,8.358647E0,-5.028641E0],"categories":[],"categories_nodes":[],"categories_segments":[],"categories_sizes":[],"default_left":[0,0,0,0,0,0,0,0,0,0,0,0,0,0,0,0,0,0,0,0,0,0,0,0,0,0,0,0,0,0,0,0,0,0,0,0,0,0,0,0,0,0,0,0,0,0,0,0,0,0,0,0,0,0,0,0,0,0,0,0,0,0,0],"id":3,"left_children":[1,3,5,7,9,11,13,15,17,19,21,23,25,27,29,31,33,35,37,39,41,43,45,47,49,51,53,55,57,59,61,-1,-1,-1,-1,-1,-1,-1,-1,-1,-1,-1,-1,-1,-1,-1,-1,-1,-1,-1,-1,-1,-1,-1,-1,-1,-1,-1,-1,-1,-1,-1,-1],"loss_changes":[3.62325E5,1.8080508E5,4.676372E4,7.086794E4,3.772533E4,3.950653E4,3.7177406E4,3.0479133E4,5.2698594E4,2.7992176E4,2.3396633E4,1.2367664E4,2.4021523E4,1.2674892E4,3.4875188E4,5.8436445E3,7.7473438E3,5.6681016E4,4.3887562E4,1.929917E4,2.1121414E4,2.2174305E4,1.4538961E4,7.841582E2,1.4048148E4,1.4533094E4,1.2866259E4,6.5477256E3,4.6424814E3,2.2583812E4,1.920381E4,0E0,0E0,0E0,0E0,0E0,0E0,0E0,0E0,0E0,0E0,0E0,0E0,0E0,0E0,0E0,0E0,0E0,0E0,0E0,0E0,0E0,0E0,0E0,0E0,0E0,0E0,0E0,0E0,0E0,0E0,0E0,0E0],"parents":[2147483647,0,0,1,1,2,2,3,3,4,4,5,5,6,6,7,7,8,8,9,9,10,10,11,11,12,12,13,13,14,14,15,15,16,16,17,17,18,18,19,19,20,20,21,21,22,22,23,23,24,24,25,25,26,26,27,27,28,28,29,29,30,30],"right_children":[2,4,6,8,10,12,14,16,18,20,22,24,26,28,30,32,34,36,38,40,42,44,46,48,50,52,54,56,58,60,62,-1,-1,-1,-1,-1,-1,-1,-1,-1,-1,-1,-1,-1,-1,-1,-1,-1,-1,-1,-1,-1,-1,-1,-1,-1,-1,-1,-1,-1,-1,-1,-1],"split_conditions":[6.1026945E0,-1.80182E0,1.362184E1,7.387462E1,1.531547E2,6.666734E1,-3.0888343E0,4.347826E0,-1.2921566E1,2.34454E0,1.3985556E1,-5.2591E0,4.684732E1,1.830182E1,2.6666937E2,-3.20728E0,5.40546E0,-7.20728E0,9.4381046E-1,-5.2591E0,1.2642622E0,2.17682E0,1.1E1,5.946006E1,1E1,6.4503175E-1,7.9537773E0,1.4787808E1,5.9090908E1,1.982002E1,5.491261E0,-5.0759757E-1,-6.486584E0,-6.925059E0,-1.7050835E1,8.595467E0,-6.5171432E0,1.9556228E0,5.116318E0,-3.6970928E0,-4.1845155E-1,-5.9391427E0,-1.6942288E0,7.303046E-1,-1.0160463E0,9.92163E0,2.1033573E0,-9.298497E-1,5.964311E0,-7.558203E0,-1.8753119E1,2.284029E0,-5.093154E0,1.7810036E0,-2.3345525E0,-1.1345955E1,-1.7444617E0,-5.456816E-1,6.9463754E0,8.122981E0,-1.101555E1,8.358647E0,-5.028641E0],"split_indices":[10,13,13,0,0,0,6,5,9,13,6,8,3,8,0,13,3,3,6,8,4,10,1,0,1,4,11,11,5,3,6,0,0,0,0,0,0,0,0,0,0,0,0,0,0,0,0,0,0,0,0,0,0,0,0,0,0,0,0,0,0,0,0],"split_type":[0,0,0,0,0,0,0,0,0,0,0,0,0,0,0,0,0,0,0,0,0,0,0,0,0,0,0,0,0,0,0,0,0,0,0,0,0,0,0,0,0,0,0,0,0,0,0,0,0,0,0,0,0,0,0,0,0,0,0,0,0,0,0],"sum_hessian":[1.0104E4,8.879E3,1.225E3,2.905E3,5.974E3,8.63E2,3.62E2,2.34E2,2.671E3,2.605E3,3.369E3,5E1,8.13E2,5.7E1,3.05E2,2.01E2,3.3E1,2.54E2,2.417E3,2.153E3,4.52E2,3.278E3,9.1E1,6E0,4.4E1,4.29E2,3.84E2,2.8E1,2.9E1,2.45E2,6E1,1.86E2,1.5E1,2.2E1,1.1E1,2.3E2,2.4E1,1.919E3,4.98E2,1.75E2,1.978E3,1.68E2,2.84E2,2.376E3,9.02E2,3.4E1,5.7E1,5E0,1E0,2.2E1,2.2E1,2.5E1,4.04E2,8.8E1,2.96E2,9E0,1.9E1,1.3E1,1.6E1,5E0,2.4E2,1.1E1,4.9E1],"tree_param":{"num_deleted":"0","num_feature":"14","num_nodes":"63","size_leaf_vector":"1"}},{"base_weights":[-1.4881356E-2,4.2626915E0,-4.357276E0,1.1847219E1,3.1243925E0,-2.5175428E0,-1.3095231E1,6.2674727E0,2.3796782E1,2.140053E0,1.0485867E1,-8.56237E0,-1.6554444E0,-2.2173716E1,-9.431161E0,1.0654283E1,-1.1348639E1,2.1907257E1,2.2720005E1,-9.741411E0,2.470746E0,1.7909887E1,1.688019E0,1.7486782E0,-1.9245655E1,-1.6864744E1,-1.1973572E0,-1.6680334E1,-3.663129E1,-5.629385E0,-1.7809162E1,-1.8645098E0,3.826829E0,-6.9724026E0,5.6494254E-1,9.213254E0,3.5366147E0,2.5685058E0,-4.151115E0,2.3437323E-1,1.3744986E0,1.4895387E1,4.7465463E0,-2.3607653E-1,4.224719E0,-6.757001E-2,2.6290052E0,-1.1368788E1,-4.060003E0,-1.10253E1,-3.365678E0,-5.800439E-1,9.4361144E-1,-9.895655E0,-3.7804508E0,-1.3761588E1,-7.8124347E0,3.7581198E0,-2.12143E0,-2.0006077E-2,-7.2917814E0],"categories":[],"categories_nodes":[],"categories_segments":[],"categories_sizes":[],"default_left":[0,0,0,0,0,0,0,0,0,0,0,0,0,0,0,0,0,0,0,0,0,0,0,0,0,0,0,0,0,0,0,0,0,0,0,0,0,0,0,0,0,0,0,0,0,0,0,0,0,0,0,0,0,0,0,0,0,0,0,0,0],"id":4,"left_children":[1,3,5,7,9,11,13,15,17,19,21,23,25,27,29,31,33,35,-1,37,39,41,43,45,47,49,51,53,55,57,59,-1,-1,-1,-1,-1,-1,-1,-1,-1,-1,-1,-1,-1,-1,-1,-1,-1,-1,-1,-1,-1,-1,-1,-1,-1,-1,-1,-1,-1,-1],"loss_changes":[1.8771805E5,4.391593E4,8.05857E4,4.41234E4,3.2063688E4,2.1581191E4,2.8797266E4,3.5205363E4,1.9047477E4,1.5375133E4,3.4064406E4,5.698424E4,2.5256754E4,1.9244227E4,1.9743098E4,1.298532E4,1.4363675E4,1.7899242E4,0E0,8.0645312E3,1.3555859E4,1.797114E4,7.373166E3,3.6574084E3,2.654739E4,1.1488752E4,1.1268337E4,1.1754941E4,5.4597188E3,1.1347046E4,2.2360527E4,0E0,0E0,0E0,0E0,0E0,0E0,0E0,0E0,0E0,0E0,0E0,0E0,0E0,0E0,0E0,0E0,0E0,0E0,0E0,0E0,0E0,0E0,0E0,0E0,0E0,0E0,0E0,0E0,0E0,0E0],"parents":[2147483647,0,0,1,1,2,2,3,3,4,4,5,5,6,6,7,7,8,8,9,9,10,10,11,11,12,12,13,13,14,14,15,15,16,16,17,17,19,19,20,20,21,21,22,22,23,23,24,24,25,25,26,26,27,27,28,28,29,29,30,30],"right_children":[2,4,6,8,10,12,14,16,18,20,22,24,26,28,30,32,34,36,-1,38,40,42,44,46,48,50,52,54,56,58,60,-1,-1,-1,-1,-1,-1,-1,-1,-1,-1,-1,-1,-1,-1,-1,-1,-1,-1,-1,-1,-1,-1,-1,-1,-1,-1,-1,-1,-1,-1],"split_conditions":[-4.9107143E-1,-8.6341E0,8.6591E0,1.891911E2,3.0030334E0,8.10819E1,1.2973103E2,-2.522548E1,-7.20728E0,-7.9499044E0,1.4E1,1E1,-2.1927874E1,8.3326235E0,1.646638E1,7.928008E1,-1.191456E1,1.1E1,2.2720005E1,-1.006092E1,1.7657835E2,-7.20728E0,6.262445E-2,2.34454E0,5.765824E1,1.2E1,3.60364E1,9.347016E0,1.1351466E2,3.6281025E0,4.5474505E0,-1.8645098E0,3.826829E0,-6.9724026E0,5.6494254E-1,9.213254E0,3.5366147E0,2.5685058E0,-4.151115E0,2.3437323E-1,1.3744986E0,1.4895387E1,4.7465463E0,-2.3607653E-1,4.224719E0,-6.757001E-2,2.6290052E0,-1.1368788E1,-4.060003E0,-1.10253E1,-3.365678E0,-5.800439E-1,9.4361144E-1,-9.895655E0,-3.7804508E0,-1.3761588E1,-7.8124347E0,3.7581198E0,-2.12143E0,-2.0006077E-2,-7.2917814E0],"split_indices":[10,10,10,0,6,0,0,3,2,7,1,1,8,4,10,0,12,1,0,9,0,13,12,13,0,1,3,10,0,4,6,0,0,0,0,0,0,0,0,0,0,0,0,0,0,0,0,0,0,0,0,0,0,0,0,0,0,0,0,0,0],"split_type":[0,0,0,0,0,0,0,0,0,0,0,0,0,0,0,0,0,0,0,0,0,0,0,0,0,0,0,0,0,0,0,0,0,0,0,0,0,0,0,0,0,0,0,0,0,0,0,0,0,0,0,0,0,0,0,0,0,0,0,0,0],"sum_hessian":[1.0104E4,5.09E3,5.014E3,6.63E2,4.427E3,4.143E3,8.71E2,4.53E2,2.1E2,3.906E3,5.21E2,5.16E2,3.627E3,2.49E2,6.22E2,3.63E2,9E1,2.04E2,6E0,1.05E2,3.801E3,2.82E2,2.39E2,2.63E2,2.53E2,1.05E2,3.522E3,1.82E2,6.7E1,4.29E2,1.93E2,4E1,3.23E2,4.7E1,4.3E1,1.08E2,9.6E1,1.9E1,8.6E1,2.112E3,1.689E3,1.6E1,2.66E2,2E2,3.9E1,2.06E2,5.7E1,5.8E1,1.95E2,2.2E1,8.3E1,3.012E3,5.1E2,3.5E1,1.47E2,3.4E1,3.3E1,3.1E1,3.98E2,5.2E1,1.41E2],"tree_param":{"num_deleted":"0","num_feature":"14","num_nodes":"61","size_leaf_vector":"1"}},{"base_weights":[-1.1717126E-2,1.2971522E0,-7.9787393E0,4.584811E0,-3.55723E-1,-4.474916E0,-1.1870438E1,4.237614E0,3.1373388E1,-1.0778116E0,4.0608387E0,-6.749854E0,1.1717923E1,1.369039E1,-1.27121315E1,-5.7928925E0,5.00789E0,6.1104725E1,-1.1468037E1,-2.5874856E-1,-4.6652584E0,8.199239E0,2.085663E0,-8.333653E0,8.390805E0,8.278121E0,3.6607536E1,8.896075E0,9.912235E0,-1.0065886E1,-2.1024986E1,-8.8807607E-1,-9.141373E0,3.7930515E0,1.2144299E0,6.8006787E0,2.2230404E1,-1.2607776E1,-1.2302322E0,-2.1145916E0,3.5058614E-2,-7.1364846E0,-1.2646112E0,2.1711062E-1,3.3749607E0,-2.4469342E0,9.9913853E-1,-3.059756E0,2.2173758E0,-1.1590674E0,4.809305E0,4.6324954E0,-1.8340996E-1,1.4020181E1,-1.7922509E0,6.6636384E-1,5.338908E0,-5.5776067E0,-2.2545352E0,-1.2380921E1,-4.195255E0],"categories":[],"categories_nodes":[],"categories_segments":[],"categories_sizes":[],"default_left":[0,0,0,0,0,0,0,0,0,0,0,0,0,0,0,0,0,0,0,0,0,0,0,0,0,0,0,0,0,0,0,0,0,0,0,0,0,0,0,0,0,0,0,0,0,0,0,0,0,0,0,0,0,0,0,0,0,0,0,0,0],"id":5,"left_children":[1,3,5,7,9,11,13,15,17,19,21,23,25,27,29,31,33,35,37,39,41,43,45,47,49,51,53,55,-1,57,59,-1,-1,-1,-1,-1,-1,-1,-1,-1,-1,-1,-1,-1,-1,-1,-1,-1,-1,-1,-1,-1,-1,-1,-1,-1,-1,-1,-1,-1,-1],"loss_changes":[1.05383164E5,4.7169535E4,1.9391562E4,2.6876934E4,1.842809E4,2.7781053E4,1.469625E4,2.2187934E4,4.7828867E4,1.4590615E4,6.62024E3,1.5896568E4,7.6591875E3,1.7470483E3,1.4174961E4,1.4240293E4,1.9472195E4,9.309977E3,3.4297085E3,1.0314459E4,7.840492E3,5.966791E3,7.0520654E3,1.7617914E4,5.96037E3,5.29489E3,5.0223877E3,1.0892258E3,0E0,1.0690879E4,2.1801562E4,0E0,0E0,0E0,0E0,0E0,0E0,0E0,0E0,0E0,0E0,0E0,0E0,0E0,0E0,0E0,0E0,0E0,0E0,0E0,0E0,0E0,0E0,0E0,0E0,0E0,0E0,0E0,0E0,0E0,0E0],"parents":[2147483647,0,0,1,1,2,2,3,3,4,4,5,5,6,6,7,7,8,8,9,9,10,10,11,11,12,12,13,13,14,14,15,15,16,16,17,17,18,18,19,19,20,20,21,21,22,22,23,23,24,24,25,25,26,26,27,27,29,29,30,30],"right_children":[2,4,6,8,10,12,14,16,18,20,22,24,26,28,30,32,34,36,38,40,42,44,46,48,50,52,54,56,-1,58,60,-1,-1,-1,-1,-1,-1,-1,-1,-1,-1,-1,-1,-1,-1,-1,-1,-1,-1,-1,-1,-1,-1,-1,-1,-1,-1,-1,-1,-1,-1],"split_conditions":[5.65546E0,-1.80182E0,1.5E1,2.0930555E0,4.375849E0,2.6306573E2,5.0559545E-1,7.027098E1,8E0,2.17682E0,-1.17178015E-1,1.3E1,3.4054398E2,2.367347E-1,1.441456E1,6.864076E-1,-1.1400206E1,2.5405663E2,-2.162184E1,-5.40546E0,4.50455E1,5.8344646E0,6.25E-1,1.9047812E1,7.5373335E0,9E0,1.1E1,1.081092E1,9.912235E0,4.320872E0,1.441456E2,-8.8807607E-1,-9.141373E0,3.7930515E0,1.2144299E0,6.8006787E0,2.2230404E1,-1.2607776E1,-1.2302322E0,-2.1145916E0,3.5058614E-2,-7.1364846E0,-1.2646112E0,2.1711062E-1,3.3749607E0,-2.4469342E0,9.9913853E-1,-3.059756E0,2.2173758E0,-1.1590674E0,4.809305E0,4.6324954E0,-1.8340996E-1,1.4020181E1,-1.7922509E0,6.6636384E-1,5.338908E0,-5.5776067E0,-2.2545352E0,-1.2380921E1,-4.195255E0],"split_indices":[10,13,1,12,6,0,4,0,1,10,9,1,0,4,12,6,10,0,3,8,0,6,9,6,10,1,1,2,0,4,0,0,0,0,0,0,0,0,0,0,0,0,0,0,0,0,0,0,0,0,0,0,0,0,0,0,0,0,0,0,0],"split_type":[0,0,0,0,0,0,0,0,0,0,0,0,0,0,0,0,0,0,0,0,0,0,0,0,0,0,0,0,0,0,0,0,0,0,0,0,0,0,0,0,0,0,0,0,0,0,0,0,0,0,0,0,0,0,0,0,0,0,0,0,0],"sum_hessian":[1.0104E4,8.679E3,1.425E3,2.903E3,5.776E3,7.51E2,6.74E2,2.867E3,3.6E1,4.965E3,8.11E2,6.59E2,9.2E1,2.1E1,6.53E2,2.04E2,2.663E3,2.1E1,1.5E1,4.043E3,9.22E2,2.61E2,5.5E2,5.97E2,6.2E1,8.2E1,1E1,1.8E1,3E0,4.97E2,1.56E2,1.84E2,2E1,2.96E2,2.367E3,6E0,1.5E1,2E0,1.3E1,2.11E2,3.832E3,2E1,9.02E2,7.6E1,1.85E2,5.9E1,4.91E2,5.34E2,6.3E1,2.4E1,3.8E1,4.5E1,3.7E1,8E0,2E0,1.1E1,7E0,1.13E2,3.84E2,3.9E1,1.17E2],"tree_param":{"num_deleted":"0","num_feature":"14","num_nodes":"61","size_leaf_vector":"1"}},{"base_weights":[-6.9325306E-3,1.0866193E0,-4.9228573E0,-5.0554457E0,1.6688004E0,1.2886747E1,-5.397153E0,6.700715E-1,-1.2817232E1,5.347023E0,6.379918E-1,-2.7134361E0,3.6840366E1,-4.1008744E0,-1.1556921E1,1.2392795E0,-2.8300995E1,-5.408123E0,-2.4946915E1,5.1396446E0,1.6012875E1,-1.6407126E0,1.3633081E0,-7.22579E0,3.6332784E0,3.950523E1,-1.6690774E0,-1.0861185E1,-2.475197E0,-1.3281343E1,1.7250694E1,-5.9948406E0,4.8227033E-1,-1.2454337E1,2.267878E0,-9.081936E0,-6.417777E-1,-2.1237919E1,-5.9719186E0,-6.0736904E0,1.6534897E0,4.139503E-1,-1.2190431E0,3.6815864E-1,4.2490935E0,2.155878E0,-3.3915913E0,1.1728648E0,1.3113103E1,-1.4257538E0,-4.946096E0,-3.6085945E-1,-2.4726741E0,1.7013317E0,-4.4056296E0,1.0032376E1,3.53495E0],"categories":[],"categories_nodes":[],"categories_segments":[],"categories_sizes":[],"default_left":[0,0,0,0,0,0,0,0,0,0,0,0,0,0,0,0,0,0,0,0,0,0,0,0,0,0,0,0,0,0,0,0,0,0,0,0,0,0,0,0,0,0,0,0,0,0,0,0,0,0,0,0,0,0,0,0,0],"id":6,"left_children":[1,3,5,7,9,11,13,15,17,19,21,23,25,27,29,31,33,35,37,39,-1,41,43,-1,45,47,-1,49,51,53,55,-1,-1,-1,-1,-1,-1,-1,-1,-1,-1,-1,-1,-1,-1,-1,-1,-1,-1,-1,-1,-1,-1,-1,-1,-1,-1],"loss_changes":[5.4327992E4,2.9569525E4,1.5603625E4,3.1827797E4,2.8630324E4,1.8036645E4,1.4261332E4,6.8456753E3,2.718561E4,1.6189883E4,9.753646E3,4.1568716E3,2.3668047E3,1.6260422E4,1.56785E4,3.2053557E3,4.1045728E3,1.5378492E4,2.516593E4,1.5664203E4,0E0,1.0433861E4,7.7811006E3,0E0,1.355079E3,2.5234219E3,0E0,9.784738E3,8.765858E3,7.9068867E3,1.1993589E3,0E0,0E0,0E0,0E0,0E0,0E0,0E0,0E0,0E0,0E0,0E0,0E0,0E0,0E0,0E0,0E0,0E0,0E0,0E0,0E0,0E0,0E0,0E0,0E0,0E0,0E0],"parents":[2147483647,0,0,1,1,2,2,3,3,4,4,5,5,6,6,7,7,8,8,9,9,10,10,11,11,12,12,13,13,14,14,15,15,16,16,17,17,18,18,19,19,21,21,22,22,24,24,25,25,27,27,28,28,29,29,30,30],"right_children":[2,4,6,8,10,12,14,16,18,20,22,24,26,28,30,32,34,36,38,40,-1,42,44,-1,46,48,-1,50,52,54,56,-1,-1,-1,-1,-1,-1,-1,-1,-1,-1,-1,-1,-1,-1,-1,-1,-1,-1,-1,-1,-1,-1,-1,-1,-1,-1],"split_conditions":[4.05364E0,7.027098E1,3.3333332E1,1E1,-4.90546E0,-1.441456E1,1.740546E1,2.513248E0,6.6666665E0,1.5957035E0,-2.5740285E0,2.0930555E0,2.5766025E2,-1.6302181E0,3.782912E1,-1.7276052E1,5.946006E1,1.1E1,4.144186E1,-6.126188E1,1.6012875E1,1.2E1,3.97864E0,-7.22579E0,-1.3656112E0,2E0,-1.6690774E0,-3.2604363E0,2.1E1,7.727273E1,-1.6473783E1,-5.9948406E0,4.8227033E-1,-1.2454337E1,2.267878E0,-9.081936E0,-6.417777E-1,-2.1237919E1,-5.9719186E0,-6.0736904E0,1.6534897E0,4.139503E-1,-1.2190431E0,3.6815864E-1,4.2490935E0,2.155878E0,-3.3915913E0,1.1728648E0,1.3113103E1,-1.4257538E0,-4.946096E0,-3.6085945E-1,-2.4726741E0,1.7013317E0,-4.4056296E0,1.0032376E1,3.53495E0],"split_indices":[10,0,5,1,10,3,8,4,5,11,6,12,0,6,8,7,0,1,0,8,0,1,10,0,4,1,0,6,1,5,6,0,0,0,0,0,0,0,0,0,0,0,0,0,0,0,0,0,0,0,0,0,0,0,0,0,0],"split_type":[0,0,0,0,0,0,0,0,0,0,0,0,0,0,0,0,0,0,0,0,0,0,0,0,0,0,0,0,0,0,0,0,0,0,0,0,0,0,0,0,0,0,0,0,0,0,0,0,0,0,0,0,0,0,0,0,0],"sum_hessian":[1.0104E4,8.266E3,1.838E3,7.15E2,7.551E3,4.7E1,1.791E3,4.12E2,3.03E2,1.652E3,5.899E3,2.9E1,1.8E1,1.481E3,3.1E2,4.05E2,7E0,1.89E2,1.14E2,1.646E3,6E0,1.424E3,4.475E3,6E0,2.3E1,1.7E1,1E0,2.86E2,1.195E3,2.93E2,1.7E1,6E0,3.99E2,5E0,2E0,2.1E1,1.68E2,1E1,1.04E2,2.3E1,1.623E3,6.34E2,7.9E2,4.429E3,4.6E1,1.9E1,4E0,2E0,1.5E1,1.38E2,1.48E2,9.8E2,2.15E2,2E1,2.73E2,3E0,1.4E1],"tree_param":{"num_deleted":"0","num_feature":"14","num_nodes":"57","size_leaf_vector":"1"}},{"base_weights":[-7.961495E-3,1.9121487E0,-1.7087928E0,1.2174829E0,5.726868E0,-3.7154884E0,-1.4864585E-1,1.7753469E0,-3.9899864E0,9.428343E0,-7.0302355E-1,-2.572567E0,-8.378283E0,-1.8116497E1,4.402413E-2,2.2731432E1,1.5531569E0,-8.99841E0,5.9426217E0,1.9857714E-1,1.2364522E1,-2.9170744E1,7.453491E-1,-4.6099224E0,-8.876059E-2,-7.127564E0,-2.0370676E1,-1.1334404E1,-1.3684951E1,-3.7167106E0,9.197509E-1,-6.6033626E0,9.542559E0,4.0850323E-1,3.5766518E0,-6.254816E0,-2.0599034E0,-8.886347E0,3.0335076E0,2.918479E-1,-6.3428755E0,7.194914E-1,5.1759033E0,-3.3817322E0,-1.4452008E1,-5.333731E-1,3.6010888E0,-1.5626187E0,5.67972E-1,1.7547117E0,-4.7454363E-1,-5.3596187E0,-1.6265471E0,-1.5582641E0,-1.000253E1,-7.7934117E0,6.337121E-1,1.8635211E0,-1.5339676E0,1.0403495E0,-4.8935792E-1],"categories":[],"categories_nodes":[],"categories_segments":[],"categories_sizes":[],"default_left":[0,0,0,0,0,0,0,0,0,0,0,0,0,0,0,0,0,0,0,0,0,0,0,0,0,0,0,0,0,0,0,0,0,0,0,0,0,0,0,0,0,0,0,0,0,0,0,0,0,0,0,0,0,0,0,0,0,0,0,0,0],"id":7,"left_children":[1,3,5,7,9,11,13,15,17,19,21,23,25,27,29,31,33,35,37,39,41,43,45,47,49,51,53,55,-1,57,59,-1,-1,-1,-1,-1,-1,-1,-1,-1,-1,-1,-1,-1,-1,-1,-1,-1,-1,-1,-1,-1,-1,-1,-1,-1,-1,-1,-1,-1,-1],"loss_changes":[3.3004008E4,1.2572363E4,1.6777082E4,1.1676705E4,1.7404488E4,1.2470107E4,1.0441783E4,1.6862168E4,1.9404943E4,1.2572059E4,1.1071883E4,9.533379E3,6.7693965E3,5.451207E3,9.834146E3,1.6133203E4,7.1155107E3,6.40101E3,1.9722611E4,1.8877391E3,1.7107973E4,3.878458E3,7.293677E3,4.040291E3,7.5448765E3,7.5775195E3,8.291592E3,5.3714375E3,0E0,7.8517456E3,1.5748682E4,0E0,0E0,0E0,0E0,0E0,0E0,0E0,0E0,0E0,0E0,0E0,0E0,0E0,0E0,0E0,0E0,0E0,0E0,0E0,0E0,0E0,0E0,0E0,0E0,0E0,0E0,0E0,0E0,0E0,0E0],"parents":[2147483647,0,0,1,1,2,2,3,3,4,4,5,5,6,6,7,7,8,8,9,9,10,10,11,11,12,12,13,13,14,14,15,15,16,16,17,17,18,18,19,19,20,20,21,21,22,22,23,23,24,24,25,25,26,26,27,27,29,29,30,30],"right_children":[2,4,6,8,10,12,14,16,18,20,22,24,26,28,30,32,34,36,38,40,42,44,46,48,50,52,54,56,-1,58,60,-1,-1,-1,-1,-1,-1,-1,-1,-1,-1,-1,-1,-1,-1,-1,-1,-1,-1,-1,-1,-1,-1,-1,-1,-1,-1,-1,-1,-1,-1],"split_conditions":[0E0,1.9734219E0,1.5495651E2,1.25E1,1.5E1,7.131719E0,-3.4038887E1,-1.973002E1,1.891911E2,6E0,-1.762184E1,1.9535714E0,1.3024654E1,3.60364E0,3E0,-2.4140327E1,3.6396765E2,-7.7599335E0,-7.9499044E0,7.8078866E0,1.5675835E2,-2.522548E1,2.8648938E2,2.67682E0,5E-1,6.846916E1,9.52381E1,9.0091E0,-1.3684951E1,3.125E-1,1.5E1,-6.6033626E0,9.542559E0,4.0850323E-1,3.5766518E0,-6.254816E0,-2.0599034E0,-8.886347E0,3.0335076E0,2.918479E-1,-6.3428755E0,7.194914E-1,5.1759033E0,-3.3817322E0,-1.4452008E1,-5.333731E-1,3.6010888E0,-1.5626187E0,5.67972E-1,1.7547117E0,-4.7454363E-1,-5.3596187E0,-1.6265471E0,-1.5582641E0,-1.000253E1,-7.7934117E0,6.337121E-1,1.8635211E0,-1.5339676E0,1.0403495E0,-4.8935792E-1],"split_indices":[2,6,0,5,1,9,8,9,0,1,13,11,4,9,1,11,0,12,7,6,0,2,0,9,10,0,5,3,0,10,1,0,0,0,0,0,0,0,0,0,0,0,0,0,0,0,0,0,0,0,0,0,0,0,0,0,0,0,0,0,0],"split_type":[0,0,0,0,0,0,0,0,0,0,0,0,0,0,0,0,0,0,0,0,0,0,0,0,0,0,0,0,0,0,0,0,0,0,0,0,0,0,0,0,0,0,0,0,0,0,0,0,0,0,0,0,0,0,0,0,0,0,0,0,0],"sum_hessian":[1.0104E4,4.746E3,5.358E3,4.016E3,7.3E2,2.343E3,3.015E3,3.628E3,3.88E2,4.63E2,2.67E2,1.883E3,4.6E2,3.1E1,2.984E3,3.7E1,3.591E3,2.58E2,1.3E2,1.12E2,3.51E2,1.2E1,2.55E2,1.034E3,8.49E2,4.18E2,4.2E1,2.6E1,5E0,5.63E2,2.421E3,6E0,3.1E1,3.527E3,6.4E1,3.8E1,2.2E2,1.3E1,1.17E2,1.09E2,3E0,1.16E2,2.35E2,7E0,5E0,2.09E2,4.6E1,9.47E2,8.7E1,1.7E2,6.79E2,5.6E1,3.62E2,2E1,2.2E1,1.2E1,1.4E1,6.9E1,4.94E2,1.211E3,1.21E3],"tree_param":{"num_deleted":"0","num_feature":"14","num_nodes":"61","size_leaf_vector":"1"}},{"base_weights":[-1.1549354E-2,9.3894976E-1,-1.8221116E0,-3.242588E0,1.3352603E0,-2.6731105E0,8.2960606E-1,-1.8701328E0,-2.7222363E1,8.671185E0,1.1192708E0,-2.4948732E1,-2.518875E0,1.3829276E1,2.8493398E-1,-6.4513063E-1,-8.570798E0,-9.003662E0,-1.3369731E1,1.7458586E1,-5.83958E0,-2.1121935E1,1.2330786E0,-2.9960453E1,8.2396686E-2,-1.58815E0,-6.342289E0,-1.0318155E1,1.9605509E1,9.109522E-1,-1.0173043E1,6.655754E-1,-1.0976131E0,-1.3949739E0,-1.7630196E1,-4.5310917E0,-4.4494346E-1,3.915191E0,1.2085919E1,-5.6819797E0,4.9207788E0,-1.0988718E1,-9.518622E-1,3.4641373E-1,5.625512E0,-9.761384E0,9.186682E-1,-1.9579085E0,1.338231E0,-9.135524E-1,6.6429293E-1,-1.1206815E0,-4.1454234E0,-2.9401565E0,7.297482E0,-6.729281E-1,8.746572E-1,-8.670678E0,5.4083437E-1],"categories":[],"categories_nodes":[],"categories_segments":[],"categories_sizes":[],"default_left":[0,0,0,0,0,0,0,0,0,0,0,0,0,0,0,0,0,0,0,0,0,0,0,0,0,0,0,0,0,0,0,0,0,0,0,0,0,0,0,0,0,0,0,0,0,0,0,0,0,0,0,0,0,0,0,0,0,0,0],"id":8,"left_children":[1,3,5,7,9,11,13,15,17,19,21,23,25,27,29,31,33,-1,35,37,39,41,43,45,47,49,51,-1,53,55,57,-1,-1,-1,-1,-1,-1,-1,-1,-1,-1,-1,-1,-1,-1,-1,-1,-1,-1,-1,-1,-1,-1,-1,-1,-1,-1,-1,-1],"loss_changes":[1.739179E4,1.0986511E4,7.852959E3,1.88401E4,9.582753E3,8.986771E3,5.986211E3,4.4598022E3,7.9679297E2,2.2161512E4,1.4914693E4,2.2605508E3,9.302645E3,1.0144942E4,5.331884E3,3.9865625E3,1.6259178E4,0E0,1.2187073E2,1.0341609E4,1.9541768E4,8.233932E3,8.0137324E3,1.376376E3,1.4485504E2,1.1674566E4,9.925732E3,0E0,4.5405684E3,4.8622275E3,1.0369803E4,0E0,0E0,0E0,0E0,0E0,0E0,0E0,0E0,0E0,0E0,0E0,0E0,0E0,0E0,0E0,0E0,0E0,0E0,0E0,0E0,0E0,0E0,0E0,0E0,0E0,0E0,0E0,0E0],"parents":[2147483647,0,0,1,1,2,2,3,3,4,4,5,5,6,6,7,7,8,8,9,9,10,10,11,11,12,12,13,13,14,14,15,15,16,16,18,18,19,19,20,20,21,21,22,22,23,23,24,24,25,25,26,26,28,28,29,29,30,30],"right_children":[2,4,6,8,10,12,14,16,18,20,22,24,26,28,30,32,34,-1,36,38,40,42,44,46,48,50,52,-1,54,56,58,-1,-1,-1,-1,-1,-1,-1,-1,-1,-1,-1,-1,-1,-1,-1,-1,-1,-1,-1,-1,-1,-1,-1,-1,-1,-1,-1,-1],"split_conditions":[1.80182E0,6.846916E1,2.4144388E2,1.9E1,-1.261274E1,-3.20728E0,-5.0622563E0,0E0,-4.5474505E0,1.1E1,-1.261274E1,2.1E1,1.3734253E1,-1.441456E1,1.982002E1,5.045096E1,3.9636E-1,-9.003662E0,4.50455E1,2.1261476E2,2.2883115E2,-2.1450238E0,3.364751E0,2.3243478E2,1.891911E2,4.118446E0,2E1,-1.0318155E1,5E0,4E0,8.81776E0,6.655754E-1,-1.0976131E0,-1.3949739E0,-1.7630196E1,-4.5310917E0,-4.4494346E-1,3.915191E0,1.2085919E1,-5.6819797E0,4.9207788E0,-1.0988718E1,-9.518622E-1,3.4641373E-1,5.625512E0,-9.761384E0,9.186682E-1,-1.9579085E0,1.338231E0,-9.135524E-1,6.6429293E-1,-1.1206815E0,-4.1454234E0,-2.9401565E0,7.297482E0,-6.729281E-1,8.746572E-1,-8.670678E0,5.4083437E-1],"split_indices":[2,0,0,1,2,13,6,3,6,1,12,1,8,8,8,0,13,0,0,0,0,6,12,0,0,6,1,0,1,1,4,0,0,0,0,0,0,0,0,0,0,0,0,0,0,0,0,0,0,0,0,0,0,0,0,0,0,0,0],"split_type":[0,0,0,0,0,0,0,0,0,0,0,0,0,0,0,0,0,0,0,0,0,0,0,0,0,0,0,0,0,0,0,0,0,0,0,0,0,0,0,0,0,0,0,0,0,0,0,0,0,0,0,0,0,0,0,0,0,0,0],"sum_hessian":[1.0104E4,6.626E3,3.478E3,5.73E2,6.053E3,2.633E3,8.45E2,5.43E2,3E1,1.72E2,5.881E3,1.7E1,2.616E3,3.3E1,8.12E2,4.6E2,8.3E1,2.4E1,6E0,1.07E2,6.5E1,2.9E1,5.852E3,1.4E1,3E0,2.105E3,5.11E2,3E0,3E1,7.67E2,4.5E1,2.36E2,2.24E2,7.8E1,5E0,5E0,1E0,9.1E1,1.6E1,4.1E1,2.4E1,1.5E1,1.4E1,5.827E3,2.5E1,1.3E1,1E0,1E0,2E0,1.522E3,5.83E2,3.8E2,1.31E2,4E0,2.6E1,2.98E2,4.69E2,1.7E1,2.8E1],"tree_param":{"num_deleted":"0","num_feature":"14","num_nodes":"59","size_leaf_vector":"1"}},{"base_weights":[-1.3332692E-2,4.4298854E-1,-2.8486383E0,3.4718094E0,8.98218E-2,-4.2843885E0,3.0724387E0,-1.1582278E1,4.492543E0,-1.26152E1,1.701491E-1,-7.0637107E0,1.2930417E0,7.2083077E0,-6.368316E0,-2.0590017E1,-3.0726345E0,1.0439919E1,2.1836524E0,-1.65507E1,-9.630591E0,-5.8214483E-3,5.47049E0,-1.1601912E1,-5.310412E0,7.7476196E0,-1.8755777E0,3.6372242E1,5.5662875E0,-1.6086768E0,-1.69241E1,-8.722252E0,-3.72293E0,3.719798E0,-3.3092039E0,5.0540123E0,1.7025727E0,-3.1577919E0,1.383956E0,-1.4551E1,-1.7633489E0,5.1074203E-2,-1.540326E0,3.3803036E0,7.028172E-1,-1.7417895E0,-5.0598087E0,-9.6736485E-1,-4.0589213E0,1.3380206E0,4.151018E0,-7.30513E-1,7.908277E0,4.7582326E0,1.1855253E1,1.440685E0,8.153011E0,-9.7865254E-1,5.070462E0,-1.4487166E0,-5.872176E0],"categories":[],"categories_nodes":[],"categories_segments":[],"categories_sizes":[],"default_left":[0,0,0,0,0,0,0,0,0,0,0,0,0,0,0,0,0,0,0,0,0,0,0,0,0,0,0,0,0,0,0,0,0,0,0,0,0,0,0,0,0,0,0,0,0,0,0,0,0,0,0,0,0,0,0,0,0,0,0,0,0],"id":9,"left_children":[1,3,5,7,9,11,13,15,17,19,21,23,25,27,29,31,33,35,37,-1,39,41,43,45,47,49,51,53,55,57,59,-1,-1,-1,-1,-1,-1,-1,-1,-1,-1,-1,-1,-1,-1,-1,-1,-1,-1,-1,-1,-1,-1,-1,-1,-1,-1,-1,-1,-1,-1],"loss_changes":[1.3075213E4,9.311242E3,1.1923328E4,1.4019927E4,7.9594536E3,1.7494797E4,1.0744434E4,4.382589E3,1.1676734E4,5.692004E3,7.2275547E3,5.929879E3,7.704521E3,8.944105E3,4.1930796E3,1.5824658E3,3.953696E3,7.1696426E3,1.9038816E4,0E0,6.5712725E3,6.7741724E3,4.4885327E3,6.2787773E3,9.300061E3,2.4205503E3,4.0609192E3,1.8361328E1,2.874393E3,1.860926E3,7.3876807E2,0E0,0E0,0E0,0E0,0E0,0E0,0E0,0E0,0E0,0E0,0E0,0E0,0E0,0E0,0E0,0E0,0E0,0E0,0E0,0E0,0E0,0E0,0E0,0E0,0E0,0E0,0E0,0E0,0E0,0E0],"parents":[2147483647,0,0,1,1,2,2,3,3,4,4,5,5,6,6,7,7,8,8,9,9,10,10,11,11,12,12,13,13,14,14,15,15,16,16,17,17,18,18,20,20,21,21,22,22,23,23,24,24,25,25,26,26,27,27,28,28,29,29,30,30],"right_children":[2,4,6,8,10,12,14,16,18,20,22,24,26,28,30,32,34,36,38,-1,40,42,44,46,48,50,52,54,56,58,60,-1,-1,-1,-1,-1,-1,-1,-1,-1,-1,-1,-1,-1,-1,-1,-1,-1,-1,-1,-1,-1,-1,-1,-1,-1,-1,-1,-1,-1,-1],"split_conditions":[2.1E1,-6.88228E0,2.8288574E2,7E0,-4.776864E1,2.3E1,3.5676035E2,-5.573235E0,9E0,1.2E1,3.513549E2,-2.8314314E0,1.5495651E2,-8.279933E0,3.60364E1,3E0,1.081092E2,-1.221638E1,-1.191456E1,-1.65507E1,-5.40546E0,1.2340971E1,1.4E1,-5.40546E0,9.113267E0,1.2792922E2,7.7305284E0,2.882912E2,3.4955307E2,3.982022E2,3.585622E2,-8.722252E0,-3.72293E0,3.719798E0,-3.3092039E0,5.0540123E0,1.7025727E0,-3.1577919E0,1.383956E0,-1.4551E1,-1.7633489E0,5.1074203E-2,-1.540326E0,3.3803036E0,7.028172E-1,-1.7417895E0,-5.0598087E0,-9.6736485E-1,-4.0589213E0,1.3380206E0,4.151018E0,-7.30513E-1,7.908277E0,4.7582326E0,1.1855253E1,1.440685E0,8.153011E0,-9.7865254E-1,5.070462E0,-1.4487166E0,-5.872176E0],"split_indices":[1,10,0,1,8,1,0,4,1,1,0,6,0,9,3,1,0,13,12,0,6,4,1,6,10,0,9,0,0,0,0,0,0,0,0,0,0,0,0,0,0,0,0,0,0,0,0,0,0,0,0,0,0,0,0,0,0,0,0,0,0],"split_type":[0,0,0,0,0,0,0,0,0,0,0,0,0,0,0,0,0,0,0,0,0,0,0,0,0,0,0,0,0,0,0,0,0,0,0,0,0,0,0,0,0,0,0,0,0,0,0,0,0,0,0,0,0,0,0,0,0,0,0,0,0],"sum_hessian":[1.0104E4,8.704E3,1.4E3,9.08E2,7.796E3,1.127E3,2.73E2,5.7E1,8.51E2,4.8E1,7.748E3,7.52E2,3.75E2,1.9E2,8.3E1,2.7E1,3E1,2.37E2,6.14E2,2E0,4.6E1,7.5E3,2.48E2,2.08E2,5.44E2,1.23E2,2.52E2,9E0,1.81E2,5.8E1,2.5E1,1.2E1,1.5E1,1E1,2E1,1E2,1.37E2,9.8E1,5.16E2,3E0,4.3E1,7.252E3,2.48E2,8.6E1,1.62E2,1E2,1.08E2,4.35E2,1.09E2,8.1E1,4.2E1,2.48E2,4E0,2E0,7E0,1.76E2,5E0,5.4E1,4E0,5E0,2E1],"tree_param":{"num_deleted":"0","num_feature":"14","num_nodes":"61","size_leaf_vector":"1"}},{"base_weights":[-1.0669467E-2,-5.979503E-1,1.0997244E0,2.2180167E-1,-2.665136E0,1.2977803E0,-1.6957508E1,1.3065383E-1,2.2833984E1,-1.0060277E1,-1.8457651E0,6.7162323E0,6.895072E-1,-1.8639187E1,2.662541E0,-1.2693514E-1,3.3642042E0,-2.359784E0,3.46434E1,-4.206472E0,-1.6886183E1,-2.0667492E1,-1.4354825E0,-2.5370655E0,1.1393702E1,1.4450194E0,-1.6014099E0,-9.081976E0,-1.0747182E1,-7.1182973E-3,-5.643241E0,1.825285E0,-5.5639434E-1,4.5520332E-1,-3.843383E0,1.104936E1,1.2584659E0,-1.7477999E0,5.581534E0,1.7561741E-2,-5.89043E0,1.1395788E-1,-9.774101E0,8.105904E0,-4.926557E-1,-1.3619037E0,6.6663647E0,7.71296E0,2.7420785E0,-4.9236298E-1,8.281887E-1,5.705273E-1,-1.1830454E0,-1.8098471E0,-4.602504E0],"categories":[],"categories_nodes":[],"categories_segments":[],"categories_sizes":[],"default_left":[0,0,0,0,0,0,0,0,0,0,0,0,0,0,0,0,0,0,0,0,0,0,0,0,0,0,0,0,0,0,0,0,0,0,0,0,0,0,0,0,0,0,0,0,0,0,0,0,0,0,0,0,0,0,0],"id":10,"left_children":[1,3,5,7,9,11,13,15,17,19,21,23,25,27,-1,29,31,33,35,37,39,41,43,45,47,49,51,-1,53,-1,-1,-1,-1,-1,-1,-1,-1,-1,-1,-1,-1,-1,-1,-1,-1,-1,-1,-1,-1,-1,-1,-1,-1,-1,-1],"loss_changes":[6.59026E3,1.1201762E4,1.2524893E4,9.754036E3,1.1354859E4,1.1395881E4,1.8162285E3,3.9285105E3,5.7347E3,7.4010234E3,1.3028617E4,1.5134332E4,5.386882E3,2.9800283E3,0E0,8.424362E3,4.951384E3,3.0309152E2,7.114971E2,3.8766794E3,4.0065156E3,9.038794E3,9.784577E3,5.951466E3,7.2494688E3,9.505568E3,6.3415117E3,0E0,4.0562866E2,0E0,0E0,0E0,0E0,0E0,0E0,0E0,0E0,0E0,0E0,0E0,0E0,0E0,0E0,0E0,0E0,0E0,0E0,0E0,0E0,0E0,0E0,0E0,0E0,0E0,0E0],"parents":[2147483647,0,0,1,1,2,2,3,3,4,4,5,5,6,6,7,7,8,8,9,9,10,10,11,11,12,12,13,13,15,15,16,16,17,17,18,18,19,19,20,20,21,21,22,22,23,23,24,24,25,25,26,26,28,28],"right_children":[2,4,6,8,10,12,14,16,18,20,22,24,26,28,-1,30,32,34,36,38,40,42,44,46,48,50,52,-1,54,-1,-1,-1,-1,-1,-1,-1,-1,-1,-1,-1,-1,-1,-1,-1,-1,-1,-1,-1,-1,-1,-1,-1,-1,-1,-1],"split_conditions":[1.1154124E0,2.5E1,2.522548E1,7.7557087E0,-5.2447563E-1,-6.548317E0,2.882912E1,2.4027778E-1,1.4594742E2,1.9E1,4.50455E1,1.5675835E2,2E1,1.0991102E2,2.662541E0,1.035364E1,3.9636E-1,1.0090192E2,7.20728E0,4.97864E0,-5.40546E0,1E1,-4.7848383E-1,2.882912E1,8.333333E0,7E0,3.2604363E0,-9.081976E0,1.1E1,-7.1182973E-3,-5.643241E0,1.825285E0,-5.5639434E-1,4.5520332E-1,-3.843383E0,1.104936E1,1.2584659E0,-1.7477999E0,5.581534E0,1.7561741E-2,-5.89043E0,1.1395788E-1,-9.774101E0,8.105904E0,-4.926557E-1,-1.3619037E0,6.6663647E0,7.71296E0,2.7420785E0,-4.9236298E-1,8.281887E-1,5.705273E-1,-1.1830454E0,-1.8098471E0,-4.602504E0],"split_indices":[6,5,2,11,4,11,2,7,0,1,0,0,1,3,0,8,13,0,2,9,6,1,4,3,5,1,6,0,1,0,0,0,0,0,0,0,0,0,0,0,0,0,0,0,0,0,0,0,0,0,0,0,0,0,0],"split_type":[0,0,0,0,0,0,0,0,0,0,0,0,0,0,0,0,0,0,0,0,0,0,0,0,0,0,0,0,0,0,0,0,0,0,0,0,0,0,0,0,0,0,0,0,0,0,0,0,0,0,0,0,0,0,0],"sum_hessian":[1.0104E4,6.609E3,3.495E3,4.733E3,1.876E3,3.458E3,3.7E1,4.715E3,1.8E1,1.86E2,1.69E3,3.48E2,3.11E3,3.5E1,2E0,4.368E3,3.47E2,6E0,1.2E1,1.01E2,8.5E1,3.5E1,1.655E3,1.17E2,2.31E2,2.339E3,7.71E2,1.3E1,2.2E1,4.345E3,2.3E1,2.28E2,1.19E2,5E0,1E0,1.1E1,1E0,9.5E1,6E0,1.2E1,7.3E1,1.3E1,2.2E1,1.1E1,1.644E3,1.09E2,8E0,3E1,2.01E2,6.99E2,1.64E3,3.09E2,4.62E2,1.2E1,1E1],"tree_param":{"num_deleted":"0","num_feature":"14","num_nodes":"55","size_leaf_vector":"1"}},{"base_weights":[-7.1615567E-3,2.5864702E-1,-2.1657703E0,-2.3854272E-1,1.4645224E0,-1.773842E1,-1.8632046E0,-1.0192661E1,-1.6930275E-1,1.0100921E1,1.2276137E0,-2.4932642E1,1.026961E1,2.5203338E0,-3.0412164E0,-2.0296106E0,-2.9502274E1,2.724022E0,-4.066748E-1,9.875607E-1,1.4257303E1,-5.5806265E0,1.52421E0,8.137493E0,-3.260035E1,-7.166657E-1,1.4031456E1,-7.275824E-1,2.2741049E1,3.3359215E0,-4.0327463E0,-1.5011847E0,6.012522E0,-1.1206824E1,-2.8394923E0,-7.64878E-1,1.6793841E0,-3.9646375E0,-6.80379E-2,-3.6970484E0,2.2744098E0,7.129897E0,2.327904E0,-9.3639725E-1,-3.4527593E0,8.91727E-1,-3.484935E-3,4.7393915E-1,4.1715875E0,-1.0581774E1,-3.3133929E0,1.3043953E0,4.7429852E0,-1.019098E0,5.696892E0,3.470735E0,8.412631E0,-1.2014475E0,3.3013494E0,-3.7555845E0,-8.442855E-1],"categories":[],"categories_nodes":[],"categories_segments":[],"categories_sizes":[],"default_left":[0,0,0,0,0,0,0,0,0,0,0,0,0,0,0,0,0,0,0,0,0,0,0,0,0,0,0,0,0,0,0,0,0,0,0,0,0,0,0,0,0,0,0,0,0,0,0,0,0,0,0,0,0,0,0,0,0,0,0,0,0],"id":11,"left_children":[1,3,5,7,9,11,13,15,17,19,21,23,25,27,29,31,33,35,37,39,41,43,45,47,49,-1,51,53,55,57,59,-1,-1,-1,-1,-1,-1,-1,-1,-1,-1,-1,-1,-1,-1,-1,-1,-1,-1,-1,-1,-1,-1,-1,-1,-1,-1,-1,-1,-1,-1],"loss_changes":[5.798574E3,5.39509E3,5.1875674E3,4.3900024E3,5.362541E3,4.4874624E3,5.6259443E3,6.875637E3,4.3478296E3,2.6374229E3,5.173873E3,4.5760117E3,2.716161E2,1.5187515E4,5.4386924E3,2.2010127E3,1.6922227E3,7.289139E3,1.3475795E4,2.1121504E3,2.7813105E3,1.5241519E3,5.453783E3,1.2932632E2,4.1685254E2,0E0,1.4666748E-1,1.0591182E4,1.5707129E3,6.574068E3,7.647172E3,0E0,0E0,0E0,0E0,0E0,0E0,0E0,0E0,0E0,0E0,0E0,0E0,0E0,0E0,0E0,0E0,0E0,0E0,0E0,0E0,0E0,0E0,0E0,0E0,0E0,0E0,0E0,0E0,0E0,0E0],"parents":[2147483647,0,0,1,1,2,2,3,3,4,4,5,5,6,6,7,7,8,8,9,9,10,10,11,11,12,12,13,13,14,14,15,15,16,16,17,17,18,18,19,19,20,20,21,21,22,22,23,23,24,24,26,26,27,27,28,28,29,29,30,30],"right_children":[2,4,6,8,10,12,14,16,18,20,22,24,26,28,30,32,34,36,38,40,42,44,46,48,50,-1,52,54,56,58,60,-1,-1,-1,-1,-1,-1,-1,-1,-1,-1,-1,-1,-1,-1,-1,-1,-1,-1,-1,-1,-1,-1,-1,-1,-1,-1,-1,-1,-1,-1],"split_conditions":[7.131719E0,1.2870142E0,5E-1,-4.776864E1,1.2E1,2.9189484E2,9E0,1.6036198E2,-4.864914E1,1.5495651E2,1E0,9.549646E1,3.1171487E2,1.7331793E1,7.44186E1,1.351365E2,1.8487577E0,-1.1497328E1,-1.081092E1,-1.441456E1,-1.2329694E1,2.612639E2,1.4E1,2.162184E1,7.47114E0,-7.166657E-1,3.3153488E2,2.5946207E2,2.0901112E2,1.02591E1,2.882912E1,-1.5011847E0,6.012522E0,-1.1206824E1,-2.8394923E0,-7.64878E-1,1.6793841E0,-3.9646375E0,-6.80379E-2,-3.6970484E0,2.2744098E0,7.129897E0,2.327904E0,-9.3639725E-1,-3.4527593E0,8.91727E-1,-3.484935E-3,4.7393915E-1,4.1715875E0,-1.0581774E1,-3.3133929E0,1.3043953E0,4.7429852E0,-1.019098E0,5.696892E0,3.470735E0,8.412631E0,-1.2014475E0,3.3013494E0,-3.7555845E0,-8.442855E-1],"split_indices":[9,6,7,8,5,0,1,0,3,0,1,0,0,6,5,0,4,6,13,2,8,0,1,3,8,0,0,0,0,7,3,0,0,0,0,0,0,0,0,0,0,0,0,0,0,0,0,0,0,0,0,0,0,0,0,0,0,0,0,0,0],"split_type":[0,0,0,0,0,0,0,0,0,0,0,0,0,0,0,0,0,0,0,0,0,0,0,0,0,0,0,0,0,0,0,0,0,0,0,0,0,0,0,0,0,0,0,0,0,0,0,0,0,0,0,0,0,0,0,0,0,0,0,0,0],"sum_hessian":[1.0104E4,8.997E3,1.107E3,6.371E3,2.626E3,2E1,1.087E3,4.3E1,6.328E3,6.9E1,2.557E3,1.6E1,4E0,2.3E2,8.57E2,3.1E1,1.2E1,4.79E2,5.849E3,2.2E1,4.7E1,1.06E2,2.451E3,3E0,1.3E1,1E0,3E0,1.99E2,3.1E1,1.15E2,7.42E2,2.8E1,3E0,8E0,4E0,1.69E2,3.1E2,8E1,5.769E3,7E0,1.5E1,1.8E1,2.9E1,7.6E1,3E1,1.261E3,1.19E3,2E0,1E0,1.1E1,2E0,1E0,2E0,1.76E2,2.3E1,1.1E1,2E1,5.9E1,5.6E1,9.2E1,6.5E2],"tree_param":{"num_deleted":"0","num_feature":"14","num_nodes":"61","size_leaf_vector":"1"}},{"base_weights":[-4.812912E-3,1.1360859E-1,-4.351925E0,-3.4059253E-1,1.3188101E0,-1.4044325E1,-3.694559E0,-2.7702543E-1,-1.3247695E1,-1.2436217E0,3.1246521E0,-7.428807E-1,-8.404174E0,-3.0079702E-2,-3.5852375E0,-1.5187289E1,5.5809793E0,-1.7894633E0,4.5632133E0,7.821954E0,2.4077156E-1,-9.597094E0,5.31809E0,-1.2921818E1,3.413406E0,-1.4276269E-1,5.4409516E-1,8.372366E-1,-2.4128127E0,3.4002366E0,-4.922531E0,-7.7283216E-1,2.7476132E0,-3.792653E0,-4.410212E-1,-5.348636E-1,1.7281281E0,1.7411137E0,4.44371E0,-3.8705745E0,4.4137692E-1,-1.3915021E0,-5.664521E0,5.1490297E0,2.4066748E-1,3.2728487E-1,-5.136061E0,2.567088E-1,2.089656E0],"categories":[],"categories_nodes":[],"categories_segments":[],"categories_sizes":[],"default_left":[0,0,0,0,0,0,0,0,0,0,0,0,0,0,0,0,0,0,0,0,0,0,0,0,0,0,0,0,0,0,0,0,0,0,0,0,0,0,0,0,0,0,0,0,0,0,0,0,0],"id":12,"left_children":[1,3,5,7,9,-1,11,13,15,17,19,21,23,25,27,29,31,33,35,37,39,41,43,45,47,-1,-1,-1,-1,-1,-1,-1,-1,-1,-1,-1,-1,-1,-1,-1,-1,-1,-1,-1,-1,-1,-1,-1,-1],"loss_changes":[5.202463E3,5.3858086E3,7.307828E3,5.859387E3,1.2465331E4,0E0,3.6775925E3,5.8100327E3,1.3629595E3,3.5391138E3,2.1401518E4,8.852119E3,5.489643E3,5.4412007E3,1.40623955E4,1.2223438E3,1.4032925E2,3.513552E3,7.3964185E2,8.393148E3,1.5867419E4,2.9971167E3,5.228443E3,4.372173E3,2.5751273E2,0E0,0E0,0E0,0E0,0E0,0E0,0E0,0E0,0E0,0E0,0E0,0E0,0E0,0E0,0E0,0E0,0E0,0E0,0E0,0E0,0E0,0E0,0E0,0E0],"parents":[2147483647,0,0,1,1,2,2,3,3,4,4,6,6,7,7,8,8,9,9,10,10,11,11,12,12,13,13,14,14,15,15,16,16,17,17,18,18,19,19,20,20,21,21,22,22,23,23,24,24],"right_children":[2,4,6,8,10,-1,12,14,16,18,20,22,24,26,28,30,32,34,36,38,40,42,44,46,48,-1,-1,-1,-1,-1,-1,-1,-1,-1,-1,-1,-1,-1,-1,-1,-1,-1,-1,-1,-1,-1,-1,-1,-1],"split_conditions":[8.468554E1,2.2883115E2,7E0,1.7331793E1,5E0,-1.4044325E1,1.87682E1,2.1081294E2,1.02591E1,3.4054398E2,1.2E1,1.261274E1,1.3874014E2,1.7297472E2,-5.40546E0,-1.1171284E2,2.072093E2,-5.0091E0,-3.063094E1,1.7669734E0,1.3E1,1.3073523E1,9E0,1E2,1.4774924E2,-1.4276269E-1,5.4409516E-1,8.372366E-1,-2.4128127E0,3.4002366E0,-4.922531E0,-7.7283216E-1,2.7476132E0,-3.792653E0,-4.410212E-1,-5.348636E-1,1.7281281E0,1.7411137E0,4.44371E0,-3.8705745E0,4.4137692E-1,-1.3915021E0,-5.664521E0,5.1490297E0,2.4066748E-1,3.2728487E-1,-5.136061E0,2.567088E-1,2.089656E0],"split_indices":[3,0,1,6,1,0,9,0,7,0,1,12,3,0,3,2,0,13,3,12,1,11,1,5,3,0,0,0,0,0,0,0,0,0,0,0,0,0,0,0,0,0,0,0,0,0,0,0,0],"split_type":[0,0,0,0,0,0,0,0,0,0,0,0,0,0,0,0,0,0,0,0,0,0,0,0,0,0,0,0,0,0,0,0,0,0,0,0,0,0,0,0,0,0,0,0,0,0,0,0,0],"sum_hessian":[1.0104E4,9.837E3,2.67E2,7.145E3,2.692E3,3E0,2.64E2,7.111E3,3.4E1,1.113E3,1.579E3,1.63E2,1.01E2,6.618E3,4.93E2,3.1E1,3E0,1.018E3,9.5E1,6E2,9.79E2,6.6E1,9.7E1,7.3E1,2.8E1,5.33E3,1.288E3,2.03E2,2.9E2,1E0,3E1,1E0,2E0,2.8E1,9.9E2,1.5E1,8E1,4.67E2,1.33E2,8.3E1,8.96E2,4.4E1,2.2E1,2.6E1,7.1E1,1.7E1,5.6E1,1.7E1,1.1E1],"tree_param":{"num_deleted":"0","num_feature":"14","num_nodes":"49","size_leaf_vector":"1"}},{"base_weights":[-5.2671414E-3,-8.608314E0,2.9778084E-2,-1.1433581E0,-1.719177E1,-7.5172657E-1,4.0495571E-1,1.779512E0,-9.816976E0,-2.3227737E1,-2.4255037E-1,-2.2086155E-1,-5.865987E0,-8.7713087E-1,1.1047664E0,6.213307E0,-5.3152256E0,8.111707E0,-2.9126953E1,1.00821495E1,-4.17839E0,-4.039714E-1,1.3151679E1,-8.530063E0,2.6144078E-1,-1.9122396E1,-5.443242E-1,2.791865E0,-2.2439262E-1,-9.367931E-1,3.524072E0,-2.6392133E0,1.3744615E0,5.829997E0,-2.1797287E0,-9.507653E0,-3.2601697E0,7.438225E-1,3.536978E0,4.9656355E-1,-5.205397E-1,2.6527812E0,6.7407923E0,-2.0127158E0,-5.392014E0,7.6899395E0,-7.190329E-1,-1.1825651E0,-6.9074492E0,-1.450336E-1,-1.0884353E1,7.012337E-1,3.311478E0,-6.123624E0,-3.266871E-2],"categories":[],"categories_nodes":[],"categories_segments":[],"categories_sizes":[],"default_left":[0,0,0,0,0,0,0,0,0,0,0,0,0,0,0,0,0,0,0,0,0,0,0,0,0,0,0,0,0,0,0,0,0,0,0,0,0,0,0,0,0,0,0,0,0,0,0,0,0,0,0,0,0,0,0],"id":13,"left_children":[1,3,5,7,9,11,13,15,-1,17,19,21,23,25,27,29,31,33,35,37,-1,39,41,43,45,47,49,51,53,-1,-1,-1,-1,-1,-1,-1,-1,-1,-1,-1,-1,-1,-1,-1,-1,-1,-1,-1,-1,-1,-1,-1,-1,-1,-1],"loss_changes":[3.0468706E3,2.6074236E3,2.9513933E3,2.1812217E3,1.9381602E3,8.863121E3,6.1029473E3,7.2507056E2,0E0,2.824564E3,9.8821063E2,7.2508506E3,5.013677E3,1.4574884E4,9.867286E3,7.599411E2,3.504639E2,6.6349133E2,2.1767578E2,2.2703125E1,0E0,8.0068955E3,1.4073276E3,3.5594404E3,6.4011226E3,2.4566016E3,5.116929E3,7.240259E3,5.7382153E3,0E0,0E0,0E0,0E0,0E0,0E0,0E0,0E0,0E0,0E0,0E0,0E0,0E0,0E0,0E0,0E0,0E0,0E0,0E0,0E0,0E0,0E0,0E0,0E0,0E0,0E0],"parents":[2147483647,0,0,1,1,2,2,3,3,4,4,5,5,6,6,7,7,9,9,10,10,11,11,12,12,13,13,14,14,15,15,16,16,17,17,18,18,19,19,21,21,22,22,23,23,24,24,25,25,26,26,27,27,28,28],"right_children":[2,4,6,8,10,12,14,16,-1,18,20,22,24,26,28,30,32,34,36,38,-1,40,42,44,46,48,50,52,54,-1,-1,-1,-1,-1,-1,-1,-1,-1,-1,-1,-1,-1,-1,-1,-1,-1,-1,-1,-1,-1,-1,-1,-1,-1,-1],"split_conditions":[-6.126188E1,1.351365E2,1.2973103E2,2.625509E1,1.8487577E0,1.2E1,7E0,-2.5336962E0,-9.816976E0,-2.3629713E1,2.70273E1,1.095728E1,1.982002E1,-3.60364E1,1.5E1,9.369464E1,2E1,1.4774924E2,3.1892215E2,1.441456E1,-4.17839E0,1E1,6.8644915E0,1.740546E1,2.162184E1,-1.0553517E1,8.10819E1,2.9009302E2,-1.762184E1,-9.367931E-1,3.524072E0,-2.6392133E0,1.3744615E0,5.829997E0,-2.1797287E0,-9.507653E0,-3.2601697E0,7.438225E-1,3.536978E0,4.9656355E-1,-5.205397E-1,2.6527812E0,6.7407923E0,-2.0127158E0,-5.392014E0,7.6899395E0,-7.190329E-1,-1.1825651E0,-6.9074492E0,-1.450336E-1,-1.0884353E1,7.012337E-1,3.311478E0,-6.123624E0,-3.266871E-2],"split_indices":[8,0,0,6,4,8,1,4,0,7,3,7,8,3,1,0,1,0,0,3,0,1,9,8,8,6,3,0,13,0,0,0,0,0,0,0,0,0,0,0,0,0,0,0,0,0,0,0,0,0,0,0,0,0,0],"split_type":[0,0,0,0,0,0,0,0,0,0,0,0,0,0,0,0,0,0,0,0,0,0,0,0,0,0,0,0,0,0,0,0,0,0,0,0,0,0,0,0,0,0,0,0,0,0,0,0,0,0,0,0,0,0,0],"sum_hessian":[1.0104E4,4E1,1.0064E4,2.2E1,1.8E1,3.264E3,6.8E3,2.1E1,1E0,1.3E1,5E0,2.958E3,3.06E2,2.401E3,4.399E3,1.3E1,8E0,2E0,1.1E1,3E0,2E0,2.919E3,3.9E1,2.13E2,9.3E1,4.2E1,2.359E3,1.938E3,2.461E3,5E0,8E0,6E0,2E0,1E0,1E0,9E0,2E0,1E0,2E0,1.146E3,1.773E3,2.8E1,1.1E1,1.8E2,3.3E1,8E0,8.5E1,9E0,3.3E1,2.356E3,3E0,1.838E3,1E2,1.3E1,2.448E3],"tree_param":{"num_deleted":"0","num_feature":"14","num_nodes":"55","size_leaf_vector":"1"}},{"base_weights":[-6.639564E-3,8.743654E-2,-3.4600503E0,6.125502E-2,1.3614548E1,-8.929368E0,-1.5558355E0,-3.1405112E-1,8.2636356E-1,-8.3283156E-1,1.8833815E1,-2.9825602E1,-6.089058E0,6.8211865E0,-4.246087E0,-2.6522204E-1,-1.5573294E1,-1.2712604E0,1.2664611E0,6.767296E0,-3.2066176E0,5.882048E0,1.3176974E0,-1.6626493E1,-1.2056648E1,-8.577851E0,9.520263E0,1.2243064E1,2.979228E0,-7.5487714E0,-5.528882E-2,-8.772592E-2,7.5817313E0,-1.0657643E0,-6.8092213E0,9.5081025E-1,-6.830511E-1,7.8631413E-1,7.424178E-2,-7.2292274E-1,3.1888669E0,-3.789224E-1,-6.7287593E0,-7.3376274E-1,-4.5262337E0,-2.2364037E0,7.3773456E0,4.461357E0,1.0896721E0,-3.5130963E0,1.5135349E0,-2.5282924E0,5.784862E0,-4.170746E0,3.7931088E-1],"categories":[],"categories_nodes":[],"categories_segments":[],"categories_sizes":[],"default_left":[0,0,0,0,0,0,0,0,0,0,0,0,0,0,0,0,0,0,0,0,0,0,0,0,0,0,0,0,0,0,0,0,0,0,0,0,0,0,0,0,0,0,0,0,0,0,0,0,0,0,0,0,0,0,0],"id":14,"left_children":[1,3,5,7,9,11,13,15,17,19,21,23,25,27,29,31,33,35,37,39,-1,-1,-1,-1,41,43,45,47,49,51,53,-1,-1,-1,-1,-1,-1,-1,-1,-1,-1,-1,-1,-1,-1,-1,-1,-1,-1,-1,-1,-1,-1,-1,-1],"loss_changes":[3.2832495E3,3.483396E3,2.7772625E3,2.8200718E3,1.4483748E3,3.9136636E3,4.536222E3,4.905298E3,2.9852607E3,5.2177E2,7.0168945E1,2.9703198E3,2.490262E3,9.842261E2,2.1033975E3,4.5699883E3,1.7177456E3,2.5123003E3,3.6875332E3,1.6739091E2,0E0,0E0,0E0,0E0,6.4341144E2,2.118598E3,2.485766E3,3.9859058E2,9.6948865E2,2.166937E3,1.2601805E3,0E0,0E0,0E0,0E0,0E0,0E0,0E0,0E0,0E0,0E0,0E0,0E0,0E0,0E0,0E0,0E0,0E0,0E0,0E0,0E0,0E0,0E0,0E0,0E0],"parents":[2147483647,0,0,1,1,2,2,3,3,4,4,5,5,6,6,7,7,8,8,9,9,10,10,11,11,12,12,13,13,14,14,15,15,16,16,17,17,18,18,19,19,24,24,25,25,26,26,27,27,28,28,29,29,30,30],"right_children":[2,4,6,8,10,12,14,16,18,20,22,24,26,28,30,32,34,36,38,40,-1,-1,-1,-1,42,44,46,48,50,52,54,-1,-1,-1,-1,-1,-1,-1,-1,-1,-1,-1,-1,-1,-1,-1,-1,-1,-1,-1,-1,-1,-1,-1,-1],"split_conditions":[8.468554E1,2.6828259E1,1.261274E1,1.1154124E0,5.9090908E1,8E0,1.621638E1,1.1937982E1,4E0,1.2252376E2,5.1480573E-1,8.648736E1,3.225258E2,9E0,1.7331793E1,1.1108641E1,9.6296295E1,-1.3552566E0,1.4E1,9.189282E1,-3.2066176E0,5.882048E0,1.3176974E0,-1.6626493E1,2.1802022E2,9.549646E1,1.261274E1,1.0991102E2,1E1,1.0270374E2,1.5539841E1,-8.772592E-2,7.5817313E0,-1.0657643E0,-6.8092213E0,9.5081025E-1,-6.830511E-1,7.8631413E-1,7.424178E-2,-7.2292274E-1,3.1888669E0,-3.789224E-1,-6.7287593E0,-7.3376274E-1,-4.5262337E0,-2.2364037E0,7.3773456E0,4.461357E0,1.0896721E0,-3.5130963E0,1.5135349E0,-2.5282924E0,5.784862E0,-4.170746E0,3.7931088E-1],"split_indices":[3,11,12,6,5,1,11,4,1,0,6,3,0,1,6,4,5,10,1,0,0,0,0,0,0,3,2,3,1,2,9,0,0,0,0,0,0,0,0,0,0,0,0,0,0,0,0,0,0,0,0,0,0,0,0],"split_type":[0,0,0,0,0,0,0,0,0,0,0,0,0,0,0,0,0,0,0,0,0,0,0,0,0,0,0,0,0,0,0,0,0,0,0,0,0,0,0,0,0,0,0,0,0,0,0,0,0,0,0,0,0,0,0],"sum_hessian":[1.0104E4,9.837E3,2.67E2,9.819E3,1.8E1,6.8E1,1.99E2,6.588E3,3.231E3,5E0,1.3E1,7E0,6.1E1,4.8E1,1.51E2,6.568E3,2E1,5.6E2,2.671E3,3E0,2E0,1.2E1,1E0,2E0,5E0,5.3E1,8E0,1.9E1,2.9E1,8.4E1,6.7E1,6.562E3,6E0,8E0,1.2E1,1.03E2,4.57E2,1.146E3,1.525E3,1E0,2E0,3E0,2E0,2.8E1,2.5E1,4E0,4E0,1.4E1,5E0,3E0,2.6E1,8.2E1,2E0,5E0,6.2E1],"tree_param":{"num_deleted":"0","num_feature":"14","num_nodes":"55","size_leaf_vector":"1"}},{"base_weights":[-5.9965583E-3,-3.5476828E0,6.514522E-2,-2.2701664E0,-1.8017391E1,-1.8132956E1,7.984418E-2,-1.0104169E1,-3.6215135E-1,-3.9971588E0,-1.0174419E1,-7.579429E0,-1.4054873E0,6.020164E0,2.6565054E-2,-4.1929703E0,-2.3157532E1,8.216853E0,-2.2424033E0,-1.0597705E1,1.1063621E1,-2.4971199E1,4.950777E-2,-4.779728E0,2.1022353E0,-3.1568081E0,-7.974078E0,-1.378628E0,3.6289005E0,6.255986E0,-8.980718E-1,5.84208E0,-3.922485E0,3.678223E0,-1.0371529E1,-8.363237E0,-2.581722E-1,-2.3567438E0,2.4564495E-2],"categories":[],"categories_nodes":[],"categories_segments":[],"categories_sizes":[],"default_left":[0,0,0,0,0,0,0,0,0,0,0,0,0,0,0,0,0,0,0,0,0,0,0,0,0,0,0,0,0,0,0,0,0,0,0,0,0,0,0],"id":15,"left_children":[1,3,5,7,9,11,13,15,17,-1,-1,-1,-1,19,21,23,25,27,29,31,33,35,37,-1,-1,-1,-1,-1,-1,-1,-1,-1,-1,-1,-1,-1,-1,-1,-1],"loss_changes":[2.5463057E3,3.6376702E3,2.651502E3,2.7466611E3,7.41959E2,6.489043E2,3.1331404E3,2.6806985E3,2.421898E3,0E0,0E0,0E0,0E0,7.492661E3,5.6291543E3,3.5303032E3,1.9600537E2,1.3976228E3,2.1963257E3,1.8189907E3,4.13879E3,6.066543E2,2.509996E3,0E0,0E0,0E0,0E0,0E0,0E0,0E0,0E0,0E0,0E0,0E0,0E0,0E0,0E0,0E0,0E0],"parents":[2147483647,0,0,1,1,2,2,3,3,4,4,5,5,6,6,7,7,8,8,13,13,14,14,15,15,16,16,17,17,18,18,19,19,20,20,21,21,22,22],"right_children":[2,4,6,8,10,12,14,16,18,-1,-1,-1,-1,20,22,24,26,28,30,32,34,36,38,-1,-1,-1,-1,-1,-1,-1,-1,-1,-1,-1,-1,-1,-1,-1,-1],"split_conditions":[-3.4038887E1,3.97864E0,-1.2252376E2,-2.70273E1,1.081092E1,-7.7591E0,-1.6492994E1,1.531547E2,-1.261274E1,-3.9971588E0,-1.0174419E1,-7.579429E0,-1.4054873E0,1.2252376E2,-1.798113E1,8.828918E1,-1.1883575E1,-4.36192E0,4.864914E1,-3.0849905E1,-1.441456E1,2E1,-1.7276052E1,-4.779728E0,2.1022353E0,-3.1568081E0,-7.974078E0,-1.378628E0,3.6289005E0,6.255986E0,-8.980718E-1,5.84208E0,-3.922485E0,3.678223E0,-1.0371529E1,-8.363237E0,-2.581722E-1,-2.3567438E0,2.4564495E-2],"split_indices":[8,9,3,3,2,7,9,0,3,0,0,0,0,0,12,0,4,4,0,8,3,1,7,0,0,0,0,0,0,0,0,0,0,0,0,0,0,0,0],"split_type":[0,0,0,0,0,0,0,0,0,0,0,0,0,0,0,0,0,0,0,0,0,0,0,0,0,0,0,0,0,0,0,0,0,0,0,0,0,0,0],"sum_hessian":[1.0104E4,1.98E2,9.906E3,1.83E2,1.5E1,7E0,9.899E3,3.5E1,1.48E2,1.3E1,2E0,4E0,3E0,8.7E1,9.812E3,2.5E1,1E1,2.6E1,1.22E2,2E1,6.7E1,8E0,9.804E3,1.2E1,1.3E1,3E0,7E0,6E0,2E1,3E0,1.19E2,1E0,1.9E1,6.6E1,1E0,7E0,1E0,3.9E1,9.765E3],"tree_param":{"num_deleted":"0","num_feature":"14","num_nodes":"39","size_leaf_vector":"1"}},{"base_weights":[-8.659127E-3,2.1619698E-1,-9.3554515E-1,3.110275E-1,-4.5723114E0,-4.127265E0,-2.470984E-1,1.7626747E-1,5.105945E0,-1.1254065E0,-2.5829296E1,-1.1045287E1,-3.7707213E-1,2.0475494E1,-5.313466E-1,5.165534E-2,3.1209056E0,-1.4950931E-1,1.0660288E1,-1.1129913E1,1.5466677E0,-2.9495756E1,-7.464182E0,-1.3421307E1,1.0091898E1,1.314098E1,-1.2555635E0,2.9385936E0,3.028668E1,7.6584187E0,-1.0178378E0,9.756731E-3,7.130355E0,1.1640482E0,-2.3080292E0,4.736585E-1,-6.0891676E0,8.07284E-2,4.2624907E0,-6.8066363E0,-1.6938341E0,-3.3998528E0,9.7705275E-1,-1.1130912E1,-3.6723056E0,5.160763E-1,-3.0571065E0,-5.460942E-1,-5.1385584E0,5.1616817E0,-1.4193456E0,-2.3233087E0,5.18017E0,-4.6642908E-1,6.1218486E0,3.8973582E0,-3.8624866E0,9.5571387E-1,1.036141E1,-1.3362617E0,4.04697E0,2.0532918E0,-3.9735222E-1],"categories":[],"categories_nodes":[],"categories_segments":[],"categories_sizes":[],"default_left":[0,0,0,0,0,0,0,0,0,0,0,0,0,0,0,0,0,0,0,0,0,0,0,0,0,0,0,0,0,0,0,0,0,0,0,0,0,0,0,0,0,0,0,0,0,0,0,0,0,0,0,0,0,0,0,0,0,0,0,0,0,0,0],"id":16,"left_children":[1,3,5,7,9,11,13,15,17,19,21,23,25,27,29,31,33,35,37,39,41,43,45,47,49,51,53,55,57,59,61,-1,-1,-1,-1,-1,-1,-1,-1,-1,-1,-1,-1,-1,-1,-1,-1,-1,-1,-1,-1,-1,-1,-1,-1,-1,-1,-1,-1,-1,-1,-1,-1],"loss_changes":[2.1062458E3,3.6945906E3,4.334311E3,5.152898E3,1.1547718E4,9.076207E3,9.576825E3,2.8469077E3,6.3651436E3,3.679606E3,1.261208E3,6.312796E3,2.7241118E3,3.6962715E3,6.3945444E3,3.3774678E3,2.616265E3,3.9670142E3,3.9041963E3,1.7101064E3,2.4377664E3,1.9085322E3,1.427218E2,4.7426465E3,1.452211E3,1.340219E3,1.4251824E3,1.5979666E3,1.5029922E3,6.4171943E3,3.6594421E3,0E0,0E0,0E0,0E0,0E0,0E0,0E0,0E0,0E0,0E0,0E0,0E0,0E0,0E0,0E0,0E0,0E0,0E0,0E0,0E0,0E0,0E0,0E0,0E0,0E0,0E0,0E0,0E0,0E0,0E0,0E0,0E0],"parents":[2147483647,0,0,1,1,2,2,3,3,4,4,5,5,6,6,7,7,8,8,9,9,10,10,11,11,12,12,13,13,14,14,15,15,16,16,17,17,18,18,19,19,20,20,21,21,22,22,23,23,24,24,25,25,26,26,27,27,28,28,29,29,30,30],"right_children":[2,4,6,8,10,12,14,16,18,20,22,24,26,28,30,32,34,36,38,40,42,44,46,48,50,52,54,56,58,60,62,-1,-1,-1,-1,-1,-1,-1,-1,-1,-1,-1,-1,-1,-1,-1,-1,-1,-1,-1,-1,-1,-1,-1,-1,-1,-1,-1,-1,-1,-1,-1,-1],"split_conditions":[4.00364E0,1.3734253E1,4.77864E0,4.6603746E0,2.5405663E2,8.823529E1,1.7669734E0,3.80182E0,2.22682E0,1.402989E1,1.081092E1,2.3063297E2,1.081092E2,1.21182E0,4.8E1,4.0000403E2,1.94818E0,3.8558948E2,1.5495651E2,-1.80182E0,7.747826E1,1.485364E1,3.3874216E2,3.85364E0,2.6666937E2,3.60364E0,9.419407E0,1.3153287E2,1.4774924E2,-8.408493E0,4.05364E0,9.756731E-3,7.130355E0,1.1640482E0,-2.3080292E0,4.736585E-1,-6.0891676E0,8.07284E-2,4.2624907E0,-6.8066363E0,-1.6938341E0,-3.3998528E0,9.7705275E-1,-1.1130912E1,-3.6723056E0,5.160763E-1,-3.0571065E0,-5.460942E-1,-5.1385584E0,5.1616817E0,-1.4193456E0,-2.3233087E0,5.18017E0,-4.6642908E-1,6.1218486E0,3.8973582E0,-3.8624866E0,9.5571387E-1,1.036141E1,-1.3362617E0,4.04697E0,2.0532918E0,-3.9735222E-1],"split_indices":[9,8,9,4,0,5,12,11,10,8,6,0,0,12,5,0,7,0,0,3,0,7,0,10,0,11,13,0,0,6,10,0,0,0,0,0,0,0,0,0,0,0,0,0,0,0,0,0,0,0,0,0,0,0,0,0,0,0,0,0,0,0,0],"split_type":[0,0,0,0,0,0,0,0,0,0,0,0,0,0,0,0,0,0,0,0,0,0,0,0,0,0,0,0,0,0,0,0,0,0,0,0,0,0,0,0,0,0,0,0,0,0,0,0,0,0,0,0,0,0,0,0,0,0,0,0,0,0,0],"sum_hessian":[1.0104E4,8.132E3,1.972E3,7.975E3,1.57E2,3.49E2,1.623E3,7.758E3,2.17E2,1.36E2,2.1E1,1.22E2,2.27E2,2.1E1,1.602E3,7.444E3,3.14E2,1.12E2,1.05E2,2.8E1,1.08E2,1.7E1,4E0,1.1E2,1.2E1,1.3E1,2.14E2,8E0,1.3E1,8.9E1,1.513E3,7.439E3,5E0,2.94E2,2E1,1.04E2,8E0,2.7E1,7.8E1,8E0,2E1,1.2E1,9.6E1,1.1E1,6E0,1E0,3E0,2.7E1,8.3E1,8E0,4E0,2E0,1.1E1,2.12E2,2E0,5E0,3E0,2E0,1.1E1,2.9E1,6E1,5.6E1,1.457E3],"tree_param":{"num_deleted":"0","num_feature":"14","num_nodes":"63","size_leaf_vector":"1"}},{"base_weights":[-6.1856015E-3,-1.8867274E-1,1.1545328E0,2.6551992E-2,-1.674429E0,1.4251544E1,9.010633E-1,-5.6466126E-1,1.011485E0,-3.32112E0,1.5923963E0,3.389059E0,3.1292614E1,-1.2365184E1,1.2433838E0,-1.6552612E-1,-4.773058E0,-7.5186815E0,1.310261E0,-2.5905292E0,-1.1648048E1,5.7758465E0,-5.0574964E-1,7.510551E0,-1.1883429E1,3.8185518E0,1.03027725E1,-1.4190668E1,7.1813693E0,2.5766811E0,-1.0140402E0,1.400406E0,-1.0420902E-1,-6.1886925E-2,-2.0969975E0,-1.38318E0,-1.3274893E1,3.0634224E-1,2.8553379E0,-3.3764527E0,-5.509745E-1,-4.6475277E0,5.439858E-1,2.5860627E0,7.488365E-1,-6.59879E-1,1.6434319E0,-1.8140883E0,2.7055762E0,-4.2747145E0,-7.1798515E-1,-3.1841073E0,-6.7649937E0,8.902167E-1,-3.768108E0,-5.8776245E0,-1.15438215E-1],"categories":[],"categories_nodes":[],"categories_segments":[],"categories_sizes":[],"default_left":[0,0,0,0,0,0,0,0,0,0,0,0,0,0,0,0,0,0,0,0,0,0,0,0,0,0,0,0,0,0,0,0,0,0,0,0,0,0,0,0,0,0,0,0,0,0,0,0,0,0,0,0,0,0,0,0,0],"id":17,"left_children":[1,3,5,7,9,11,13,15,17,19,21,23,25,27,29,31,33,35,37,39,41,43,45,47,49,-1,-1,51,-1,53,55,-1,-1,-1,-1,-1,-1,-1,-1,-1,-1,-1,-1,-1,-1,-1,-1,-1,-1,-1,-1,-1,-1,-1,-1,-1,-1],"loss_changes":[2.14062E3,2.7926091E3,4.5450957E3,4.442979E3,5.949583E3,4.706764E3,6.1370566E3,8.0081104E3,7.3039727E3,4.441255E3,3.2593691E3,1.1593235E3,1.2906934E2,2.592899E3,3.960523E3,3.8301914E3,4.1798604E3,1.0157195E4,6.553897E3,4.401791E3,3.080838E3,1.1352451E3,2.525712E3,3.407682E2,5.5698303E1,0E0,0E0,7.473965E2,0E0,4.9282812E3,5.7089497E3,0E0,0E0,0E0,0E0,0E0,0E0,0E0,0E0,0E0,0E0,0E0,0E0,0E0,0E0,0E0,0E0,0E0,0E0,0E0,0E0,0E0,0E0,0E0,0E0,0E0,0E0],"parents":[2147483647,0,0,1,1,2,2,3,3,4,4,5,5,6,6,7,7,8,8,9,9,10,10,11,11,12,12,13,13,14,14,15,15,16,16,17,17,18,18,19,19,20,20,21,21,22,22,23,23,24,24,27,27,29,29,30,30],"right_children":[2,4,6,8,10,12,14,16,18,20,22,24,26,28,30,32,34,36,38,40,42,44,46,48,50,-1,-1,52,-1,54,56,-1,-1,-1,-1,-1,-1,-1,-1,-1,-1,-1,-1,-1,-1,-1,-1,-1,-1,-1,-1,-1,-1,-1,-1,-1,-1],"split_conditions":[2.774803E2,2.1E1,-1.186274E1,1.3E1,2.3E1,-2.70273E1,-8.81092E0,1.2E1,-9.80546E0,2.5766025E2,1.5495651E2,3.4775125E2,2.8648938E2,1.5358371E1,9.4818E-1,-1.081092E1,-1.261274E1,3.1030104E0,2.4144388E2,7.928008E1,-1.0296115E0,5.75E-1,8.05182E0,-6.126188E1,3.585622E2,3.8185518E0,1.03027725E1,-7.20728E0,7.1813693E0,9.0091E0,2.2916667E-1,1.400406E0,-1.0420902E-1,-6.1886925E-2,-2.0969975E0,-1.38318E0,-1.3274893E1,3.0634224E-1,2.8553379E0,-3.3764527E0,-5.509745E-1,-4.6475277E0,5.439858E-1,2.5860627E0,7.488365E-1,-6.59879E-1,1.6434319E0,-1.8140883E0,2.7055762E0,-4.2747145E0,-7.1798515E-1,-3.1841073E0,-6.7649937E0,8.902167E-1,-3.768108E0,-5.8776245E0,-1.15438215E-1],"split_indices":[0,1,9,1,1,3,12,1,7,0,0,0,0,6,9,2,8,11,0,0,6,10,8,8,0,0,0,2,0,7,10,0,0,0,0,0,0,0,0,0,0,0,0,0,0,0,0,0,0,0,0,0,0,0,0,0,0],"split_type":[0,0,0,0,0,0,0,0,0,0,0,0,0,0,0,0,0,0,0,0,0,0,0,0,0,0,0,0,0,0,0,0,0,0,0,0,0,0,0,0,0,0,0,0,0,0,0,0,0,0,0,0,0,0,0,0,0],"sum_hessian":[1.0104E4,8.732E3,1.372E3,7.628E3,1.104E3,2.5E1,1.347E3,4.767E3,2.861E3,7.34E2,3.7E2,1.6E1,9E0,3.3E1,1.314E3,4.355E3,4.12E2,9.6E1,2.765E3,6.76E2,5.8E1,1.23E2,2.47E2,1.3E1,3E0,2E0,7E0,3.2E1,1E0,8.26E2,4.88E2,1.57E2,4.198E3,1.35E2,2.77E2,9E1,6E0,2.672E3,9.3E1,5.3E1,6.23E2,4.5E1,1.3E1,6.5E1,5.8E1,1.93E2,5.4E1,1E0,1.2E1,2E0,1E0,2.4E1,8E0,8.06E2,2E1,1.5E1,4.73E2],"tree_param":{"num_deleted":"0","num_feature":"14","num_nodes":"57","size_leaf_vector":"1"}},{"base_weights":[-6.0805236E-3,-1.3311361E0,1.0937786E-1,1.2734065E0,-4.5579553E0,2.0776494E0,-7.8233E-2,-1.0714624E-1,9.430936E0,-1.6098639E1,-1.5871297E0,2.7263103E0,-9.833049E0,-2.8803089E0,8.9341596E-2,-6.878038E0,1.1148407E0,1.1351394E1,-2.430919E0,-2.7740677E1,-6.5680223E0,6.1055794E0,-4.716258E0,2.1332433E0,1.832404E1,-1.9369484E1,-3.2194943E0,-5.324023E0,1.9794738E0,1.3554536E0,-2.2962417E-1,2.9570842E-4,-4.5092974E0,2.2760127E0,1.2342391E-1,1.5635173E0,5.530504E0,-1.0769245E1,-3.7291207E0,-4.3947525E0,2.2438266E0,-3.2966864E0,1.9969593E0,-3.607015E-1,-3.9740274E0,7.9409385E-1,-3.1713426E0,-6.864819E0,6.209317E0,-1.9259783E0,-7.7547746E0,-5.9101405E0,8.129465E-1,-3.5120738E-1,-3.8969452E0,9.607858E-1,-5.043085E0,2.4567272E-1,4.1733594E0,-3.482993E0,-3.7653096E-2],"categories":[],"categories_nodes":[],"categories_segments":[],"categories_sizes":[],"default_left":[0,0,0,0,0,0,0,0,0,0,0,0,0,0,0,0,0,0,0,0,0,0,0,0,0,0,0,0,0,0,0,0,0,0,0,0,0,0,0,0,0,0,0,0,0,0,0,0,0,0,0,0,0,0,0,0,0,0,0,0,0],"id":18,"left_children":[1,3,5,7,9,11,13,15,17,19,21,23,25,27,29,31,33,35,-1,37,39,41,43,45,47,49,51,53,55,57,59,-1,-1,-1,-1,-1,-1,-1,-1,-1,-1,-1,-1,-1,-1,-1,-1,-1,-1,-1,-1,-1,-1,-1,-1,-1,-1,-1,-1,-1,-1],"loss_changes":[1.5460973E3,6.8133584E3,3.432888E3,5.0576035E3,1.238575E4,6.277147E3,3.9858552E3,3.1931355E3,2.280746E3,8.0285273E3,6.985452E3,7.0652944E3,2.5865686E3,5.6991025E3,3.2351204E3,3.3089915E3,1.4855435E3,2.4698965E3,0E0,3.674918E3,4.877387E3,8.64282E2,6.159024E3,4.864268E3,3.2123535E3,1.2605205E3,2.5941282E3,1.0141302E4,3.7540369E3,1.0848194E4,7.580412E3,0E0,0E0,0E0,0E0,0E0,0E0,0E0,0E0,0E0,0E0,0E0,0E0,0E0,0E0,0E0,0E0,0E0,0E0,0E0,0E0,0E0,0E0,0E0,0E0,0E0,0E0,0E0,0E0,0E0,0E0],"parents":[2147483647,0,0,1,1,2,2,3,3,4,4,5,5,6,6,7,7,8,8,9,9,10,10,11,11,12,12,13,13,14,14,15,15,16,16,17,17,19,19,20,20,21,21,22,22,23,23,24,24,25,25,26,26,27,27,28,28,29,29,30,30],"right_children":[2,4,6,8,10,12,14,16,18,20,22,24,26,28,30,32,34,36,-1,38,40,42,44,46,48,50,52,54,56,58,60,-1,-1,-1,-1,-1,-1,-1,-1,-1,-1,-1,-1,-1,-1,-1,-1,-1,-1,-1,-1,-1,-1,-1,-1,-1,-1,-1,-1,-1,-1],"split_conditions":[7.027098E1,1E1,9.189282E1,2.34454E0,1.1E1,1.402989E1,1.0090192E2,-5.287534E0,4.7946277E0,5.225278E1,-5.319659E0,6.016217E0,1.830182E1,-2.5740287E-1,-4.6232486E0,-6.486552E1,-5.2591E0,4.864914E1,-2.430919E0,4.4292572E-1,-2.4024267E0,-5.225278E1,3.53125E0,8.6591E0,7E0,4.4244833E0,-4.7190523E0,1.6E1,7.9037933E0,-3.3351138E0,-7.7591E0,2.9570842E-4,-4.5092974E0,2.2760127E0,1.2342391E-1,1.5635173E0,5.530504E0,-1.0769245E1,-3.7291207E0,-4.3947525E0,2.2438266E0,-3.2966864E0,1.9969593E0,-3.607015E-1,-3.9740274E0,7.9409385E-1,-3.1713426E0,-6.864819E0,6.209317E0,-1.9259783E0,-7.7547746E0,-5.9101405E0,8.129465E-1,-3.5120738E-1,-3.8969452E0,9.607858E-1,-5.043085E0,2.4567272E-1,4.1733594E0,-3.482993E0,-3.7653096E-2],"split_indices":[0,1,0,13,1,8,0,11,4,0,6,4,8,6,9,3,8,0,0,9,6,3,8,10,1,4,6,1,12,11,7,0,0,0,0,0,0,0,0,0,0,0,0,0,0,0,0,0,0,0,0,0,0,0,0,0,0,0,0,0,0],"split_type":[0,0,0,0,0,0,0,0,0,0,0,0,0,0,0,0,0,0,0,0,0,0,0,0,0,0,0,0,0,0,0,0,0,0,0,0,0,0,0,0,0,0,0,0,0,0,0,0,0,0,0,0,0,0,0,0,0,0,0,0,0],"sum_hessian":[1.0104E4,8.09E2,9.295E3,4.48E2,3.61E2,8.08E2,8.487E3,3.84E2,6.4E1,7.3E1,2.88E2,7.67E2,4.1E1,4.78E2,8.009E3,5.8E1,3.26E2,5.8E1,6E0,3.2E1,4.1E1,8.3E1,2.05E2,7.4E2,2.7E1,1.6E1,2.5E1,3.18E2,1.6E2,1.611E3,6.398E3,3.2E1,2.6E1,3.1E1,2.95E2,3.2E1,2.6E1,2E1,1.2E1,2.6E1,1.5E1,2E0,8.1E1,1.46E2,5.9E1,7.12E2,2.8E1,1E0,2.6E1,6E0,1E1,6E0,1.9E1,2.07E2,1.11E2,1.51E2,9E0,1.546E3,6.5E1,5.7E1,6.341E3],"tree_param":{"num_deleted":"0","num_feature":"14","num_nodes":"61","size_leaf_vector":"1"}},{"base_weights":[-8.7070335E-3,-2.2963881E-2,9.5829315E0,2.9577857E-2,-2.8211117E0,2.504828E0,1.5463168E1,-2.3755506E-2,4.169451E0,6.3444343E0,-4.2181334E0,2.0381455E0,-2.0724285E0,6.2972736E0,-7.467098E-1,-2.8234702E-3,-2.0476166E1,1.4533193E1,1.8373791E0,-2.815857E0,1.3742939E1,-1.6834152E1,-2.5242274E0,1.411539E0,-1.7475584E0,1.0575423E-2,-2.3150682E0,-6.4847636E0,-1.5328137E0,7.513012E-1,6.6261444E0,-1.7815545E0,1.0936155E0,1.0857292E0,-4.9771624E0,6.10278E0,1.2711582E0,-2.06798E0,-5.9676285E0,3.462701E0,-1.1671344E0],"categories":[],"categories_nodes":[],"categories_segments":[],"categories_sizes":[],"default_left":[0,0,0,0,0,0,0,0,0,0,0,0,0,0,0,0,0,0,0,0,0,0,0,0,0,0,0,0,0,0,0,0,0,0,0,0,0,0,0,0,0],"id":19,"left_children":[1,3,5,7,9,11,13,15,17,19,21,-1,-1,-1,23,25,27,29,31,33,35,37,39,-1,-1,-1,-1,-1,-1,-1,-1,-1,-1,-1,-1,-1,-1,-1,-1,-1,-1],"loss_changes":[1.3820438E3,1.4836577E3,5.855813E2,2.1872783E3,2.4083926E3,3.6990778E2,7.3250635E2,4.187292E3,3.0185898E3,1.7330095E3,3.4195042E3,0E0,0E0,0E0,1.10469536E2,2.8704287E3,6.469385E1,2.0345918E3,1.4837698E3,1.1237162E3,7.920901E2,4.4045215E2,2.8123008E3,0E0,0E0,0E0,0E0,0E0,0E0,0E0,0E0,0E0,0E0,0E0,0E0,0E0,0E0,0E0,0E0,0E0,0E0],"parents":[2147483647,0,0,1,1,2,2,3,3,4,4,5,5,6,6,7,7,8,8,9,9,10,10,14,14,15,15,16,16,17,17,18,18,19,19,20,20,21,21,22,22],"right_children":[2,4,6,8,10,12,14,16,18,20,22,-1,-1,-1,24,26,28,30,32,34,36,38,40,-1,-1,-1,-1,-1,-1,-1,-1,-1,-1,-1,-1,-1,-1,-1,-1,-1,-1],"split_conditions":[3.243276E1,1.82682E1,1.891911E2,1.485364E1,2.882912E1,1.621638E2,1.0991102E2,1.621638E1,1.3153287E2,1.261274E1,5.946006E1,2.0381455E0,-2.0724285E0,6.2972736E0,2.0000201E2,2.3080456E1,2.1E1,1.5539841E1,7.2976966E0,2.330406E0,1.3E1,8E0,1.1937982E1,1.411539E0,-1.7475584E0,1.0575423E-2,-2.3150682E0,-6.4847636E0,-1.5328137E0,7.513012E-1,6.6261444E0,-1.7815545E0,1.0936155E0,1.0857292E0,-4.9771624E0,6.10278E0,1.2711582E0,-2.06798E0,-5.9676285E0,3.462701E0,-1.1671344E0],"split_indices":[2,10,0,7,3,0,3,12,0,3,3,0,0,0,0,6,1,9,9,4,1,1,4,0,0,0,0,0,0,0,0,0,0,0,0,0,0,0,0,0,0],"split_type":[0,0,0,0,0,0,0,0,0,0,0,0,0,0,0,0,0,0,0,0,0,0,0,0,0,0,0,0,0,0,0,0,0,0,0,0,0,0,0,0,0],"sum_hessian":[1.0104E4,1.009E4,1.4E1,9.905E3,1.85E2,7E0,7E0,9.78E3,1.25E2,2.4E1,1.61E2,5E0,2E0,5E0,2E0,9.771E3,9E0,2.2E1,1.03E2,1.1E1,1.3E1,1.8E1,1.43E2,1E0,1E0,9.724E3,4.7E1,8E0,1E0,9E0,1.3E1,1.9E1,8.4E1,8E0,3E0,7E0,6E0,5E0,1.3E1,1.2E1,1.31E2],"tree_param":{"num_deleted":"0","num_feature":"14","num_nodes":"41","size_leaf_vector":"1"}},{"base_weights":[-6.091204E-3,-2.5182718E-1,5.634761E-1,-6.933627E-2,-4.238645E0,3.7770286E0,2.4319318E-1,-3.8012826E0,5.1630244E-2,6.8042564E0,-7.501437E0,9.890771E0,7.162648E-1,-7.439371E0,4.861313E-1,-1.4574761E1,-2.7265542E0,-1.9534912E0,2.3311538E-1,1.0461217E1,-3.43E-1,-1.1845228E1,-2.6346028E0,2.307813E1,2.1236346E0,-1.0242007E0,1.0939144E1,-1.0386137E1,-4.936751E0,6.14854E0,2.2365066E-1,-4.095049E-1,-7.217327E0,1.6657122E0,-1.0814431E0,-2.5144187E-1,-2.7714326E0,2.3256981E0,4.0597502E-2,4.866481E0,9.5339394E-1,-2.2309437E0,6.865319E-1,-4.2035494E0,3.623827E0,1.9120609E0,-1.2837166E0,5.2625785E0,1.3797029E1,-4.6631203E0,1.2142048E0,-5.22451E0,-1.2144263E-2,3.962543E0,-3.4855E0,-2.405003E0,2.6216137E0,3.3855867E0,6.7881095E-1,6.829743E0,5.388649E-2],"categories":[],"categories_nodes":[],"categories_segments":[],"categories_sizes":[],"default_left":[0,0,0,0,0,0,0,0,0,0,0,0,0,0,0,0,0,0,0,0,0,0,0,0,0,0,0,0,0,0,0,0,0,0,0,0,0,0,0,0,0,0,0,0,0,0,0,0,0,0,0,0,0,0,0,0,0,0,0,0,0],"id":20,"left_children":[1,3,5,7,9,11,13,15,17,19,21,23,25,27,29,31,33,35,37,39,41,43,45,47,49,51,53,-1,55,57,59,-1,-1,-1,-1,-1,-1,-1,-1,-1,-1,-1,-1,-1,-1,-1,-1,-1,-1,-1,-1,-1,-1,-1,-1,-1,-1,-1,-1,-1,-1],"loss_changes":[1.4144697E3,5.136265E3,3.134165E3,3.0483228E3,1.1184526E4,5.1576265E3,5.1753765E3,2.4149172E3,2.3807234E3,1.859332E3,5.021377E3,9.374368E3,3.302829E3,5.6111216E3,3.99224E3,2.347252E3,1.430593E3,4.404083E3,4.410055E3,1.9202979E3,4.8366943E2,6.70049E3,1.7160068E3,3.5059863E3,2.0681423E3,2.563009E3,1.5356011E3,0E0,3.3974897E3,2.3497725E3,2.5456665E3,0E0,0E0,0E0,0E0,0E0,0E0,0E0,0E0,0E0,0E0,0E0,0E0,0E0,0E0,0E0,0E0,0E0,0E0,0E0,0E0,0E0,0E0,0E0,0E0,0E0,0E0,0E0,0E0,0E0,0E0],"parents":[2147483647,0,0,1,1,2,2,3,3,4,4,5,5,6,6,7,7,8,8,9,9,10,10,11,11,12,12,13,13,14,14,15,15,16,16,17,17,18,18,19,19,20,20,21,21,22,22,23,23,24,24,25,25,26,26,28,28,29,29,30,30],"right_children":[2,4,6,8,10,12,14,16,18,20,22,24,26,28,30,32,34,36,38,40,42,44,46,48,50,52,54,-1,56,58,60,-1,-1,-1,-1,-1,-1,-1,-1,-1,-1,-1,-1,-1,-1,-1,-1,-1,-1,-1,-1,-1,-1,-1,-1,-1,-1,-1,-1,-1,-1],"split_conditions":[2.1982204E2,2.1081294E2,-6.0091E0,1E0,-1.081092E1,2.5045297E2,-3.063094E1,-6.81092E0,-7.7591E0,1E1,8.9655174E1,9E0,3.585622E2,-1.261274E1,-3.92011E0,-5.40546E0,-5.287534E0,-1.2506527E0,-7.20728E0,-4.0350313E0,-8.81092E0,3.6666667E0,2.6221256E0,-5.082529E0,-2.460728E1,-1.1497328E1,-7.20728E0,-1.0386137E1,-5.287534E0,-4.2900476E0,-1.1497328E1,-4.095049E-1,-7.217327E0,1.6657122E0,-1.0814431E0,-2.5144187E-1,-2.7714326E0,2.3256981E0,4.0597502E-2,4.866481E0,9.5339394E-1,-2.2309437E0,6.865319E-1,-4.2035494E0,3.623827E0,1.9120609E0,-1.2837166E0,5.2625785E0,1.3797029E1,-4.6631203E0,1.2142048E0,-5.22451E0,-1.2144263E-2,3.962543E0,-3.4855E0,-2.405003E0,2.6216137E0,3.3855867E0,6.7881095E-1,6.829743E0,5.388649E-2],"split_indices":[0,0,8,1,3,0,3,13,7,1,5,1,0,12,4,8,11,4,7,4,12,8,4,12,8,6,8,0,11,6,6,0,0,0,0,0,0,0,0,0,0,0,0,0,0,0,0,0,0,0,0,0,0,0,0,0,0,0,0,0,0],"split_type":[0,0,0,0,0,0,0,0,0,0,0,0,0,0,0,0,0,0,0,0,0,0,0,0,0,0,0,0,0,0,0,0,0,0,0,0,0,0,0,0,0,0,0,0,0,0,0,0,0,0,0,0,0,0,0,0,0,0,0,0,0],"sum_hessian":[1.0104E4,7.059E3,3.045E3,6.751E3,3.08E2,2.75E2,2.77E3,2.11E2,6.54E3,7E1,2.38E2,9.1E1,1.84E2,8.4E1,2.686E3,1.8E1,1.93E2,5.42E2,5.998E3,4.6E1,2.4E1,1.25E2,1.13E2,3.3E1,5.8E1,1.58E2,2.6E1,6E0,7.8E1,1.18E2,2.568E3,8E0,1E1,1.8E1,1.75E2,4.71E2,7.1E1,7.6E1,5.922E3,2.5E1,2.1E1,6E0,1.8E1,1.15E2,1E1,1.7E1,9.6E1,2.8E1,5E0,5E0,5.3E1,8E0,1.5E2,2.4E1,2E0,6.4E1,1.4E1,5E1,6.8E1,4E0,2.564E3],"tree_param":{"num_deleted":"0","num_feature":"14","num_nodes":"61","size_leaf_vector":"1"}},{"base_weights":[-3.4469157E-3,-9.973165E-1,1.0873453E-1,-7.6493835E0,-3.331798E-1,1.6195135E0,-4.202722E-2,-5.8123004E-1,-1.5175831E1,-5.5288583E-1,1.0865928E1,1.9215441E0,-1.3753127E1,-7.061352E0,4.5751758E-2,-1.0206705E1,1.8396695E0,-2.0476562E1,1.1075609E0,1.8730167E-1,-4.2165885E0,7.331917E0,7.8276033E0,3.48651E-1,3.9220269E0,-7.75145E0,-2.0362219E1,-1.2486332E1,-2.7305677E0,-1.4844306E0,2.6562995E-1,-5.756897E0,-1.084647E0,-2.0206516E0,1.865376E0,-6.7791014E0,-2.0445015E0,-1.6325302E0,3.4094923E0,-1.1092742E-1,1.5683081E0,-7.085158E0,-7.232348E-1,2.9861577E0,-2.2043347E0,1.9046687E-1,-6.3388925E0,-1.3341655E0,1.4720087E0,2.4595613E0,-3.130386E0,-6.9626436E0,-4.923998E-1,-7.843937E-1,-7.0931263E0,-2.5218253E0,2.081621E0,3.6036909E0,-5.1719135E-1,1.0392394E0,1.7063443E-2],"categories":[],"categories_nodes":[],"categories_segments":[],"categories_sizes":[],"default_left":[0,0,0,0,0,0,0,0,0,0,0,0,0,0,0,0,0,0,0,0,0,0,0,0,0,0,0,0,0,0,0,0,0,0,0,0,0,0,0,0,0,0,0,0,0,0,0,0,0,0,0,0,0,0,0,0,0,0,0,0,0],"id":21,"left_children":[1,3,5,7,9,11,13,15,17,19,21,23,25,27,29,31,33,35,37,39,41,43,-1,45,47,49,51,53,55,57,59,-1,-1,-1,-1,-1,-1,-1,-1,-1,-1,-1,-1,-1,-1,-1,-1,-1,-1,-1,-1,-1,-1,-1,-1,-1,-1,-1,-1,-1,-1],"loss_changes":[1.1267526E3,4.5257803E3,2.0684265E3,4.938602E3,2.301665E3,3.8522651E3,5.0884824E3,1.1605901E3,3.9068037E3,2.4848232E3,7.7726E2,2.5441875E3,4.7681348E2,2.3623354E3,2.7448472E3,5.2270544E2,1.543651E3,8.3093164E2,8.679955E2,2.1442837E3,5.3382573E3,6.8896783E2,0E0,2.8045684E3,2.9555938E3,5.1351385E2,3.3494165E2,4.8945947E3,3.2412688E3,3.3345476E3,4.7624565E3,0E0,0E0,0E0,0E0,0E0,0E0,0E0,0E0,0E0,0E0,0E0,0E0,0E0,0E0,0E0,0E0,0E0,0E0,0E0,0E0,0E0,0E0,0E0,0E0,0E0,0E0,0E0,0E0,0E0,0E0],"parents":[2147483647,0,0,1,1,2,2,3,3,4,4,5,5,6,6,7,7,8,8,9,9,10,10,11,11,12,12,13,13,14,14,15,15,16,16,17,17,18,18,19,19,20,20,21,21,23,23,24,24,25,25,26,26,27,27,28,28,29,29,30,30],"right_children":[2,4,6,8,10,12,14,16,18,20,22,24,26,28,30,32,34,36,38,40,42,44,-1,46,48,50,52,54,56,58,60,-1,-1,-1,-1,-1,-1,-1,-1,-1,-1,-1,-1,-1,-1,-1,-1,-1,-1,-1,-1,-1,-1,-1,-1,-1,-1,-1,-1,-1,-1],"split_conditions":[-6.6066732E0,7E0,-4.0350313E0,1.5675835E2,6.524524E0,-1.80182E0,-1.021638E1,-5.585642E1,-8.1777775E-1,-1.7261534E0,-8.408493E0,1.3E1,8.288372E1,1.8558746E2,-3.2303915E0,1E0,7.027098E1,2.4504752E2,6.01182E0,-3.5714285E0,-1.12682E0,-9.094901E0,7.8276033E0,-3.1888888E0,9.369464E1,-6.0918674E0,1.1351466E2,-1.371638E1,3.4146343E1,-1.1305529E1,-2.857143E0,-5.756897E0,-1.084647E0,-2.0206516E0,1.865376E0,-6.7791014E0,-2.0445015E0,-1.6325302E0,3.4094923E0,-1.1092742E-1,1.5683081E0,-7.085158E0,-7.232348E-1,2.9861577E0,-2.2043347E0,1.9046687E-1,-6.3388925E0,-1.3341655E0,1.4720087E0,2.4595613E0,-3.130386E0,-6.9626436E0,-4.923998E-1,-7.843937E-1,-7.0931263E0,-2.5218253E0,2.081621E0,3.6036909E0,-5.1719135E-1,1.0392394E0,1.7063443E-2],"split_indices":[6,1,4,0,4,2,13,3,12,11,6,1,0,0,9,1,0,0,13,11,9,6,0,12,0,6,0,12,5,9,11,0,0,0,0,0,0,0,0,0,0,0,0,0,0,0,0,0,0,0,0,0,0,0,0,0,0,0,0,0,0],"split_type":[0,0,0,0,0,0,0,0,0,0,0,0,0,0,0,0,0,0,0,0,0,0,0,0,0,0,0,0,0,0,0,0,0,0,0,0,0,0,0,0,0,0,0,0,0,0,0,0,0,0,0,0,0,0,0,0,0,0,0,0,0],"sum_hessian":[1.0104E4,1.024E3,9.08E3,9.2E1,9.32E2,8.23E2,8.257E3,4.8E1,4.4E1,9.15E2,1.7E1,8.08E2,1.5E1,1.01E2,8.156E3,9E0,3.9E1,3.3E1,1.1E1,7.62E2,1.53E2,1.5E1,2E0,4.53E2,3.55E2,9E0,6E0,4.4E1,5.7E1,1.024E3,7.132E3,3E0,6E0,1.3E1,2.6E1,2.8E1,5E0,7E0,4E0,6.87E2,7.5E1,1.2E1,1.41E2,1.3E1,2E0,4.48E2,5E0,3.7E1,3.18E2,1E0,8E0,5E0,1E0,2.4E1,2E1,3.6E1,2.1E1,1.7E1,1.007E3,4.36E2,6.696E3],"tree_param":{"num_deleted":"0","num_feature":"14","num_nodes":"61","size_leaf_vector":"1"}},{"base_weights":[-5.391214E-3,-3.4585903E0,2.2163276E-2,5.048183E-1,-9.419478E0,1.0223909E1,1.7718425E-3,1.21904125E1,-4.053602E0,-2.7393051E1,-5.0764823E0,-7.153751E0,1.2552191E1,-1.4222977E0,7.272865E-2,-4.199247E0,1.7042068E1,-1.6140792E0,-1.885583E1,9.427128E-2,-9.899207E0,2.0348175E0,-1.1825175E1,-3.9583284E-1,-2.8233552E0,5.1918836E0,2.3860693E0,-1.7130468E0,5.478323E0,4.5566244E0,4.927765E-3,-2.4234524E-1,-1.5181354E0,3.3443232E0,7.3710613E0,-4.3494403E-2,-7.073417E0,-1.9863259E0,-7.441589E0,-1.0344242E0,3.7780948E0,-3.8171606E0,-2.1325566E-2,1.0465229E0,-8.4725344E-1,2.776128E-1,3.2471046E0,-7.36296E-1,3.955631E-2],"categories":[],"categories_nodes":[],"categories_segments":[],"categories_sizes":[],"default_left":[0,0,0,0,0,0,0,0,0,0,0,0,0,0,0,0,0,0,0,0,0,0,0,0,0,0,0,0,0,0,0,0,0,0,0,0,0,0,0,0,0,0,0,0,0,0,0,0,0],"id":22,"left_children":[1,3,5,7,9,11,13,15,17,19,21,23,25,27,29,31,33,35,37,-1,-1,39,41,-1,-1,-1,-1,43,-1,45,47,-1,-1,-1,-1,-1,-1,-1,-1,-1,-1,-1,-1,-1,-1,-1,-1,-1,-1],"loss_changes":[9.615789E2,1.8947903E3,2.0856729E3,2.6595396E3,2.3588328E3,8.989971E2,1.011285E3,1.1848022E3,1.2695386E3,9.420498E2,1.3198456E3,2.7094147E1,2.5587451E2,2.74967E3,2.8981248E3,7.594925E0,2.1420361E2,1.029133E3,1.9971313E2,0E0,0E0,8.5392584E2,1.4698181E2,0E0,0E0,0E0,0E0,2.720438E3,0E0,3.2215125E3,2.9319792E3,0E0,0E0,0E0,0E0,0E0,0E0,0E0,0E0,0E0,0E0,0E0,0E0,0E0,0E0,0E0,0E0,0E0,0E0],"parents":[2147483647,0,0,1,1,2,2,3,3,4,4,5,5,6,6,7,7,8,8,9,9,10,10,11,11,12,12,13,13,14,14,15,15,16,16,17,17,18,18,21,21,22,22,27,27,29,29,30,30],"right_children":[2,4,6,8,10,12,14,16,18,20,22,24,26,28,30,32,34,36,38,-1,-1,40,42,-1,-1,-1,-1,44,-1,46,48,-1,-1,-1,-1,-1,-1,-1,-1,-1,-1,-1,-1,-1,-1,-1,-1,-1,-1],"split_conditions":[-1.798113E1,-2.1927874E1,-1.621638E1,3.432038E-1,8E0,-1.171183E2,-1.441456E1,-6.126188E1,2.0360567E2,4.144186E1,1.4E1,2.3964206E2,-1.762184E1,3.6396765E2,-1.2329694E1,1.2252376E2,-5.40546E1,2.625509E1,-1.982002E1,9.427128E-2,-9.899207E0,2.973003E2,-3.4292483E0,-3.9583284E-1,-2.8233552E0,5.1918836E0,2.3860693E0,9.0091E1,5.478323E0,-2.4882276E0,-7.7599335E0,-2.4234524E-1,-1.5181354E0,3.3443232E0,7.3710613E0,-4.3494403E-2,-7.073417E0,-1.9863259E0,-7.441589E0,-1.0344242E0,3.7780948E0,-3.8171606E0,-2.1325566E-2,1.0465229E0,-8.4725344E-1,2.776128E-1,3.2471046E0,-7.36296E-1,3.955631E-2],"split_indices":[12,8,2,6,1,3,8,8,0,0,1,0,13,0,8,0,3,6,2,0,0,0,4,0,0,0,0,0,0,6,12,0,0,0,0,0,0,0,0,0,0,0,0,0,0,0,0,0,0],"split_type":[0,0,0,0,0,0,0,0,0,0,0,0,0,0,0,0,0,0,0,0,0,0,0,0,0,0,0,0,0,0,0,0,0,0,0,0,0,0,0,0,0,0,0,0,0,0,0,0,0],"sum_hessian":[1.0104E4,7.9E1,1.0025E4,4.8E1,3.1E1,1.9E1,1.0006E4,1.3E1,3.5E1,5E0,2.6E1,2E0,1.7E1,4.74E2,9.532E3,3E0,1E1,3.1E1,4E0,1E0,4E0,1.3E1,1.3E1,1E0,1E0,7E0,1E1,4.68E2,6E0,1.41E2,9.391E3,1E0,2E0,7E0,3E0,3E1,1E0,2E0,2E0,9E0,4E0,1.2E1,1E0,8.2E1,3.86E2,9E1,5.1E1,4.6E2,8.931E3],"tree_param":{"num_deleted":"0","num_feature":"14","num_nodes":"49","size_leaf_vector":"1"}},{"base_weights":[-4.3305284E-3,5.6077387E-2,-1.2210734E0,-6.059057E-2,2.4468641E0,-4.073457E0,3.5215077E-1,8.2763255E-2,-5.1820936E0,5.3808327E0,-8.446329E-1,-1.0044761E0,-9.540907E0,6.9068613E0,-1.8155097E0,5.9056498E-2,1.4171704E1,-8.161761E0,-6.309749E-1,-2.4135035E1,5.862382E0,2.2445442E1,-1.7493937E0,6.7880607E-1,-9.645629E0,-1.5577629E1,1.86863E0,2.8002214E0,1.7724558E1,2.0546E0,-3.4563155E0,6.4829416E-3,2.3362134E0,5.6127234E0,-3.0642462E0,-3.4329727E0,5.692393E-1,1.378342E0,-3.1399949E0,4.194463E-1,-9.933645E0,1.6186959E-1,2.773757E0,7.6226526E-1,7.4777904E0,-5.784876E0,-1.6779448E-1,-3.0292708E-1,4.4384565E0,-5.349144E0,-1.5378107E0,4.1280303E0,-5.2451487E0,4.9053564E0,-3.8360354E-1,-6.7468762E0,1.6993278E0,7.7202706E0,4.4761664E-1,-1.3014971E0,9.960096E-1,-2.308169E0,-2.001975E-1],"categories":[],"categories_nodes":[],"categories_segments":[],"categories_sizes":[],"default_left":[0,0,0,0,0,0,0,0,0,0,0,0,0,0,0,0,0,0,0,0,0,0,0,0,0,0,0,0,0,0,0,0,0,0,0,0,0,0,0,0,0,0,0,0,0,0,0,0,0,0,0,0,0,0,0,0,0,0,0,0,0,0,0],"id":23,"left_children":[1,3,5,7,9,11,13,15,17,19,21,23,25,27,29,31,33,35,37,39,41,43,45,47,49,51,53,55,57,59,61,-1,-1,-1,-1,-1,-1,-1,-1,-1,-1,-1,-1,-1,-1,-1,-1,-1,-1,-1,-1,-1,-1,-1,-1,-1,-1,-1,-1,-1,-1,-1,-1],"loss_changes":[7.427951E2,2.685669E3,2.1464302E3,6.741E3,4.3309473E3,2.8429312E3,4.4029307E3,2.982479E3,3.3850547E3,3.5100542E3,4.5065186E3,1.6065524E3,4.230558E3,3.3710444E3,1.4866741E3,2.5807014E3,1.850814E3,5.0060957E3,5.1876694E3,9.631533E2,4.209261E3,3.3165576E2,4.266802E3,2.2316724E3,5.744597E2,2.4775215E3,1.0236915E3,4.256196E3,2.691962E3,5.8069006E2,1.9331113E3,0E0,0E0,0E0,0E0,0E0,0E0,0E0,0E0,0E0,0E0,0E0,0E0,0E0,0E0,0E0,0E0,0E0,0E0,0E0,0E0,0E0,0E0,0E0,0E0,0E0,0E0,0E0,0E0,0E0,0E0,0E0,0E0],"parents":[2147483647,0,0,1,1,2,2,3,3,4,4,5,5,6,6,7,7,8,8,9,9,10,10,11,11,12,12,13,13,14,14,15,15,16,16,17,17,18,18,19,19,20,20,21,21,22,22,23,23,24,24,25,25,26,26,27,27,28,28,29,29,30,30],"right_children":[2,4,6,8,10,12,14,16,18,20,22,24,26,28,30,32,34,36,38,40,42,44,46,48,50,52,54,56,58,60,62,-1,-1,-1,-1,-1,-1,-1,-1,-1,-1,-1,-1,-1,-1,-1,-1,-1,-1,-1,-1,-1,-1,-1,-1,-1,-1,-1,-1,-1,-1,-1,-1],"split_conditions":[1.5593946E1,1.02591E1,1.261274E1,9.0091E0,1.2031074E1,1.6937108E2,1.696638E1,9.0091E0,9.347016E0,7E0,4.200611E0,6.4025908E0,6.126188E1,1.5539841E1,9.52381E1,8.45728E0,1.441456E1,9.70728E0,1.0096634E1,5E0,4.5877066E0,-3.423458E1,5.0943937E0,7.9037933E0,1.3E1,-3.3462372E0,1.1154124E1,6.846916E1,1.3024654E1,9.189282E1,9.91001E1,6.4829416E-3,2.3362134E0,5.6127234E0,-3.0642462E0,-3.4329727E0,5.692393E-1,1.378342E0,-3.1399949E0,4.194463E-1,-9.933645E0,1.6186959E-1,2.773757E0,7.6226526E-1,7.4777904E0,-5.784876E0,-1.6779448E-1,-3.0292708E-1,4.4384565E0,-5.349144E0,-1.5378107E0,4.1280303E0,-5.2451487E0,4.9053564E0,-3.8360354E-1,-6.7468762E0,1.6993278E0,7.7202706E0,4.4761664E-1,-1.3014971E0,9.960096E-1,-2.308169E0,-2.001975E-1],"split_indices":[8,7,12,2,11,0,9,13,10,1,4,4,3,9,5,9,6,12,10,1,4,3,4,12,1,6,6,0,4,0,3,0,0,0,0,0,0,0,0,0,0,0,0,0,0,0,0,0,0,0,0,0,0,0,0,0,0,0,0,0,0,0,0],"split_type":[0,0,0,0,0,0,0,0,0,0,0,0,0,0,0,0,0,0,0,0,0,0,0,0,0,0,0,0,0,0,0,0,0,0,0,0,0,0,0,0,0,0,0,0,0,0,0,0,0,0,0,0,0,0,0,0,0,0,0,0,0,0,0],"sum_hessian":[1.0104E4,9.627E3,4.77E2,9.18E3,4.47E2,1.69E2,3.08E2,8.931E3,2.49E2,2.36E2,2.11E2,1.09E2,6E1,7.6E1,2.32E2,8.917E3,1.4E1,1.5E2,9.9E1,3E0,2.33E2,7E0,2.04E2,9.2E1,1.7E1,3.9E1,2.1E1,5.6E1,2E1,6.9E1,1.63E2,8.875E3,4.2E1,1.2E1,2E0,1.13E2,3.7E1,6.5E1,3.4E1,1E0,2E0,9.1E1,1.42E2,1E0,6E0,1.2E1,1.92E2,8.3E1,9E0,5E0,1.2E1,2E0,3.7E1,3E0,1.8E1,5E0,5.1E1,1.3E1,7E0,1.1E1,5.8E1,6.4E1,9.9E1],"tree_param":{"num_deleted":"0","num_feature":"14","num_nodes":"63","size_leaf_vector":"1"}},{"base_weights":[-3.3347735E-3,5.874056E-1,-1.3597001E-1,-6.27773E-3,2.619263E0,-3.199844E0,2.6250124E-2,1.217737E0,-2.1820285E0,6.0177946E0,8.1778526E-1,-1.8884666E0,-1.2121167E1,2.4926507E0,-5.868942E-2,-3.0314088E0,2.3001006E0,3.5621753E0,-3.9461973E0,1.1269449E1,2.1781626E0,-8.4327114E-1,6.9132338E0,-1.1633176E1,-1.4785984E-1,-3.1003126E1,-8.573845E0,4.872946E0,-1.5161353E0,-4.555944E0,5.1007443E-3,-1.3508856E0,1.1168929E0,5.1989394E-1,3.3423934E0,-1.6620525E1,1.3522038E0,-2.6149418E0,-8.461442E-2,6.286756E0,1.0425292E0,-7.2153172E0,8.330212E-1,2.0293157E0,-5.20878E-1,2.4067135E0,-4.939473E0,-5.474919E0,-1.6533173E0,1.0810064E0,-7.170276E-1,-1.0211413E1,-1.4638038E0,-9.2135423E-1,-3.9219708E0,-6.7769694E-1,3.185698E0,3.8767896E0,-8.829498E-1,1.5143694E0,-2.274724E0,-1.7486811E0,1.3790691E-2],"categories":[],"categories_nodes":[],"categories_segments":[],"categories_sizes":[],"default_left":[0,0,0,0,0,0,0,0,0,0,0,0,0,0,0,0,0,0,0,0,0,0,0,0,0,0,0,0,0,0,0,0,0,0,0,0,0,0,0,0,0,0,0,0,0,0,0,0,0,0,0,0,0,0,0,0,0,0,0,0,0,0,0],"id":24,"left_children":[1,3,5,7,9,11,13,15,17,19,21,23,25,27,29,31,33,35,37,39,41,43,45,47,49,51,53,55,57,59,61,-1,-1,-1,-1,-1,-1,-1,-1,-1,-1,-1,-1,-1,-1,-1,-1,-1,-1,-1,-1,-1,-1,-1,-1,-1,-1,-1,-1,-1,-1,-1,-1],"loss_changes":[7.918369E2,2.2352532E3,4.1020073E3,3.8242786E3,2.5603557E3,4.832286E3,1.6423772E3,4.2335645E3,5.2532036E3,2.899294E3,2.7901726E3,6.15538E3,3.284145E3,2.4978745E3,2.1742915E3,1.8754269E3,3.6559797E3,7.0488945E3,6.919227E3,4.53263E3,1.401296E3,1.4859456E3,1.6619417E3,2.1273271E3,2.60764E3,4.6818555E2,1.0987473E3,6.7447803E3,2.0572805E3,3.1192422E3,1.7822694E3,0E0,0E0,0E0,0E0,0E0,0E0,0E0,0E0,0E0,0E0,0E0,0E0,0E0,0E0,0E0,0E0,0E0,0E0,0E0,0E0,0E0,0E0,0E0,0E0,0E0,0E0,0E0,0E0,0E0,0E0,0E0,0E0],"parents":[2147483647,0,0,1,1,2,2,3,3,4,4,5,5,6,6,7,7,8,8,9,9,10,10,11,11,12,12,13,13,14,14,15,15,16,16,17,17,18,18,19,19,20,20,21,21,22,22,23,23,24,24,25,25,26,26,27,27,28,28,29,29,30,30],"right_children":[2,4,6,8,10,12,14,16,18,20,22,24,26,28,30,32,34,36,38,40,42,44,46,48,50,52,54,56,58,60,62,-1,-1,-1,-1,-1,-1,-1,-1,-1,-1,-1,-1,-1,-1,-1,-1,-1,-1,-1,-1,-1,-1,-1,-1,-1,-1,-1,-1,-1,-1,-1,-1],"split_conditions":[-4.20728E0,2.1802022E2,-3.063094E1,-3.3432794E0,2.5045297E2,-4.930462E0,-5.293391E0,8.648736E1,9.189282E1,9E0,1.5115255E-1,-1.081092E1,-4.8554406E0,2.432457E2,-3.60364E0,-2.70273E1,-2.40546E0,-2.70273E1,1.3E1,-7.20728E0,-2.3629713E1,1E0,4.10364E0,-1.80182E0,9.549646E1,6.30637E1,1.3874014E2,1.5856017E2,-1.1305529E1,-7.548317E0,-7.20728E0,-1.3508856E0,1.1168929E0,5.1989394E-1,3.3423934E0,-1.6620525E1,1.3522038E0,-2.6149418E0,-8.461442E-2,6.286756E0,1.0425292E0,-7.2153172E0,8.330212E-1,2.0293157E0,-5.20878E-1,2.4067135E0,-4.939473E0,-5.474919E0,-1.6533173E0,1.0810064E0,-7.170276E-1,-1.0211413E1,-1.4638038E0,-9.2135423E-1,-3.9219708E0,-6.7769694E-1,3.185698E0,3.8767896E0,-8.829498E-1,1.5143694E0,-2.274724E0,-1.7486811E0,1.3790691E-2],"split_indices":[8,0,3,4,0,4,12,0,0,1,4,11,4,0,7,3,12,3,1,13,7,1,7,8,0,0,0,0,9,9,13,0,0,0,0,0,0,0,0,0,0,0,0,0,0,0,0,0,0,0,0,0,0,0,0,0,0,0,0,0,0,0,0],"split_type":[0,0,0,0,0,0,0,0,0,0,0,0,0,0,0,0,0,0,0,0,0,0,0,0,0,0,0,0,0,0,0,0,0,0,0,0,0,0,0,0,0,0,0,0,0,0,0,0,0,0,0,0,0,0,0,0,0,0,0,0,0,0,0],"sum_hessian":[1.0104E4,1.852E3,8.252E3,1.434E3,4.18E2,4.14E2,7.838E3,9.18E2,5.16E2,1.44E2,2.74E2,3.62E2,5.2E1,2.6E2,7.578E3,1.86E2,7.32E2,1.21E2,3.95E2,6E1,8.4E1,2.16E2,5.8E1,5.4E1,3.08E2,7E0,4.5E1,1.63E2,9.7E1,1.05E2,7.473E3,1.53E2,3.3E1,6.89E2,4.3E1,1E0,1.2E2,1.71E2,2.24E2,2.6E1,3.4E1,1E0,8.3E1,2.2E1,1.94E2,5.6E1,2E0,2.5E1,2.9E1,1.15E2,1.93E2,6E0,1E0,2.1E1,2.4E1,7.3E1,9E1,8E0,8.9E1,2.5E1,8E1,5.1E1,7.422E3],"tree_param":{"num_deleted":"0","num_feature":"14","num_nodes":"63","size_leaf_vector":"1"}},{"base_weights":[-5.7677035E-3,-8.7996787E-1,8.2834296E-2,4.6676677E-1,-3.3071187E0,-1.2915899E-1,6.173412E-1,-6.910005E0,1.3467045E0,-9.544204E0,-1.9520271E0,-1.6525312E-1,1.0622915E1,1.5366062E0,-8.2743835E-1,-8.673013E0,6.5151715E0,5.6773156E-1,4.501333E0,-1.4097587E1,-7.0289073E0,9.706794E0,-2.33916E0,-1.4671303E-1,-1.2173099E1,-2.898658E-1,1.4733325E1,1.8996599E0,-3.7337778E0,-7.5018353E0,-3.848812E-1,-3.6220443E0,1.1487849E-2,8.9828545E-1,3.4155667E0,1.77986E0,-3.1316623E-2,2.5685298E0,3.6024135E-2,-6.839041E-1,-4.5852113E0,-2.4379861E0,-4.866679E-1,-3.1475473E-2,4.389041E0,-3.058197E0,-4.2274252E-1,-1.3884812E-2,-1.0002421E0,9.347294E-1,-1.0869089E0,6.9819207E0,2.620767E0,5.491563E-1,1.0674713E1,5.9552884E-1,-2.8142545E0,-3.0332427E0,9.931293E-1,-1.4828417E0,5.398151E-2],"categories":[],"categories_nodes":[],"categories_segments":[],"categories_sizes":[],"default_left":[0,0,0,0,0,0,0,0,0,0,0,0,0,0,0,0,0,0,0,0,0,0,0,0,0,0,0,0,0,0,0,0,0,0,0,0,0,0,0,0,0,0,0,0,0,0,0,0,0,0,0,0,0,0,0,0,0,0,0,0,0],"id":25,"left_children":[1,3,5,7,9,11,13,15,17,19,21,23,25,27,29,31,33,35,37,39,41,43,45,47,-1,49,51,53,55,57,59,-1,-1,-1,-1,-1,-1,-1,-1,-1,-1,-1,-1,-1,-1,-1,-1,-1,-1,-1,-1,-1,-1,-1,-1,-1,-1,-1,-1,-1,-1],"loss_changes":[7.827646E2,3.0414607E3,1.0398296E3,3.8974749E3,2.7873745E3,2.551873E3,3.4623918E3,1.571302E3,1.3145947E3,5.766426E2,1.2594087E3,4.9015493E3,9.9110254E2,3.0551904E3,2.9922686E3,1.6889453E3,1.0308453E2,1.5548123E3,1.884689E3,2.455852E2,2.2421631E2,4.3629285E2,1.9288015E3,2.095954E3,0E0,9.0749176E1,6.1615405E2,3.407085E3,3.3449946E3,1.8106326E3,2.4517227E3,0E0,0E0,0E0,0E0,0E0,0E0,0E0,0E0,0E0,0E0,0E0,0E0,0E0,0E0,0E0,0E0,0E0,0E0,0E0,0E0,0E0,0E0,0E0,0E0,0E0,0E0,0E0,0E0,0E0,0E0],"parents":[2147483647,0,0,1,1,2,2,3,3,4,4,5,5,6,6,7,7,8,8,9,9,10,10,11,11,12,12,13,13,14,14,15,15,16,16,17,17,18,18,19,19,20,20,21,21,22,22,23,23,25,25,26,26,27,27,28,28,29,29,30,30],"right_children":[2,4,6,8,10,12,14,16,18,20,22,24,26,28,30,32,34,36,38,40,42,44,46,48,-1,50,52,54,56,58,60,-1,-1,-1,-1,-1,-1,-1,-1,-1,-1,-1,-1,-1,-1,-1,-1,-1,-1,-1,-1,-1,-1,-1,-1,-1,-1,-1,-1,-1,-1],"split_conditions":[2E0,9.444444E1,1.616674E0,-5.15546E0,5.1480573E-1,9.347016E0,7.131719E0,-2.9913793E0,3.9636E-1,2.2916667E0,9.91001E1,9.2591E0,1.3E1,3.675713E2,7.58228E0,1.7297472E2,1.1892012E2,9.369464E1,2.20182E0,3.125E-1,2.5740287E-1,9.549646E1,1.9535714E0,3.85364E0,-1.2173099E1,1.081092E1,1.1469883E1,3.6576947E2,5.0943937E0,2.3063297E2,4.320872E0,-3.6220443E0,1.1487849E-2,8.9828545E-1,3.4155667E0,1.77986E0,-3.1316623E-2,2.5685298E0,3.6024135E-2,-6.839041E-1,-4.5852113E0,-2.4379861E0,-4.866679E-1,-3.1475473E-2,4.389041E0,-3.058197E0,-4.2274252E-1,-1.3884812E-2,-1.0002421E0,9.347294E-1,-1.0869089E0,6.9819207E0,2.620767E0,5.491563E-1,1.0674713E1,5.9552884E-1,-2.8142545E0,-3.0332427E0,9.931293E-1,-1.4828417E0,5.398151E-2],"split_indices":[1,5,4,10,6,10,9,4,13,9,0,10,1,0,9,0,0,0,9,10,6,0,11,10,0,2,11,0,4,0,4,0,0,0,0,0,0,0,0,0,0,0,0,0,0,0,0,0,0,0,0,0,0,0,0,0,0,0,0,0,0],"split_type":[0,0,0,0,0,0,0,0,0,0,0,0,0,0,0,0,0,0,0,0,0,0,0,0,0,0,0,0,0,0,0,0,0,0,0,0,0,0,0,0,0,0,0,0,0,0,0,0,0,0,0,0,0,0,0,0,0,0,0,0,0],"sum_hessian":[1.0104E4,9.29E2,9.175E3,5.98E2,3.31E2,6.57E3,2.605E3,6.3E1,5.35E2,5.8E1,2.73E2,6.549E3,2.1E1,1.592E3,1.013E3,5.6E1,7E0,4.3E2,1.05E2,1.9E1,3.9E1,8E0,2.65E2,6.547E3,2E0,6E0,1.5E1,1.49E3,1.02E2,6.2E1,9.51E2,4E1,1.6E1,5E0,2E0,4.7E1,3.83E2,5.4E1,5.1E1,2E0,1.7E1,3.2E1,7E0,3E0,5E0,2.7E1,2.38E2,6.348E3,1.99E2,3E0,3E0,5E0,1E1,1.488E3,2E0,5.1E1,5.1E1,5E1,1.2E1,1.04E2,8.47E2],"tree_param":{"num_deleted":"0","num_feature":"14","num_nodes":"61","size_leaf_vector":"1"}},{"base_weights":[-4.082851E-3,-5.6224037E-2,1.3232076E0,-3.7582442E-2,-4.9357786E0,5.8318895E-1,1.1867347E1,-3.2840436E0,-1.3613186E-2,7.657547E0,-8.673853E0,1.6518105E0,-5.209231E0,2.087169E1,1.9501308E0,5.8597994E0,-6.500062E0,4.123294E0,-3.5662584E-2,6.537919E0,5.055335E-1,1.9907106E0,-1.005366E1,2.1319773E0,-1.0169898E1,-4.062892E0,-1.8299847E0,2.8902678E1,2.0055275E0,-2.7265563E0,6.1705785E0,3.3022687E0,-2.1384835E0,-2.3420196E0,5.364002E0,-9.409228E-1,2.0068243E0,-5.000749E-1,8.3227595E-3,-1.8909504E-1,1.0980953E0,-1.4025912E0,-3.3190503E0,8.9519125E-1,-1.0414705E0,-4.6103625E0,3.163997E0,-2.801864E0,-1.5826745E-1,-1.7650938E-1,9.959922E0,6.4579004E-1,3.4978015E0],"categories":[],"categories_nodes":[],"categories_segments":[],"categories_sizes":[],"default_left":[0,0,0,0,0,0,0,0,0,0,0,0,0,0,0,0,0,0,0,0,0,0,0,0,0,0,0,0,0,0,0,0,0,0,0,0,0,0,0,0,0,0,0,0,0,0,0,0,0,0,0,0,0],"id":26,"left_children":[1,3,5,7,9,11,13,15,17,19,21,23,25,27,29,31,33,35,37,-1,39,-1,41,43,45,-1,47,49,-1,-1,51,-1,-1,-1,-1,-1,-1,-1,-1,-1,-1,-1,-1,-1,-1,-1,-1,-1,-1,-1,-1,-1,-1],"loss_changes":[6.9940607E2,8.843355E2,2.9737715E3,7.538295E2,1.8081876E3,2.2245908E3,2.1917476E3,2.1259692E3,8.774656E2,8.9885956E2,6.7931616E2,1.7416287E3,1.5522755E3,1.2879043E3,6.6172614E2,1.3487961E3,1.8279895E3,9.7107336E2,9.896629E2,0E0,2.7390694E1,0E0,9.491943E1,1.4044204E3,1.4542894E3,0E0,3.9607953E2,1.0333315E3,0E0,0E0,1.9543704E2,0E0,0E0,0E0,0E0,0E0,0E0,0E0,0E0,0E0,0E0,0E0,0E0,0E0,0E0,0E0,0E0,0E0,0E0,0E0,0E0,0E0,0E0],"parents":[2147483647,0,0,1,1,2,2,3,3,4,4,5,5,6,6,7,7,8,8,9,9,10,10,11,11,12,12,13,13,14,14,15,15,16,16,17,17,18,18,20,20,22,22,23,23,24,24,26,26,27,27,30,30],"right_children":[2,4,6,8,10,12,14,16,18,20,22,24,26,28,30,32,34,36,38,-1,40,-1,42,44,46,-1,48,50,-1,-1,52,-1,-1,-1,-1,-1,-1,-1,-1,-1,-1,-1,-1,-1,-1,-1,-1,-1,-1,-1,-1,-1,-1],"split_conditions":[3.4775125E2,3.423458E2,1.080182E1,-1.762184E1,1.1E1,2.3E1,1.281046E1,-6.126188E1,-1.6492994E1,-5.40546E0,-5.0661755E0,4.0000403E2,3.7297675E2,1.3073523E1,9.419407E0,-2.079818E1,2.7567847E2,-1.0381915E1,-1.7550613E1,6.537919E0,3.441476E2,1.9907106E0,-1.081092E1,7.70728E0,1.7E1,-4.062892E0,0E0,2.90182E0,2.0055275E0,-2.7265563E0,3.873913E2,3.3022687E0,-2.1384835E0,-2.3420196E0,5.364002E0,-9.409228E-1,2.0068243E0,-5.000749E-1,8.3227595E-3,-1.8909504E-1,1.0980953E0,-1.4025912E0,-3.3190503E0,8.9519125E-1,-1.0414705E0,-4.6103625E0,3.163997E0,-2.801864E0,-1.5826745E-1,-1.7650938E-1,9.959922E0,6.4579004E-1,3.4978015E0],"split_indices":[0,0,8,13,1,1,8,3,9,2,4,0,0,11,13,8,0,6,8,0,0,0,2,7,1,0,2,7,0,0,0,0,0,0,0,0,0,0,0,0,0,0,0,0,0,0,0,0,0,0,0,0,0],"split_type":[0,0,0,0,0,0,0,0,0,0,0,0,0,0,0,0,0,0,0,0,0,0,0,0,0,0,0,0,0,0,0,0,0,0,0,0,0,0,0,0,0,0,0,0,0,0,0,0,0,0,0,0,0],"sum_hessian":[1.0104E4,9.723E3,3.81E2,9.687E3,3.6E1,3.57E2,2.4E1,7E1,9.617E3,8E0,2.8E1,3.02E2,5.5E1,1.2E1,1.2E1,1.8E1,5.2E1,5E1,9.567E3,2E0,6E0,2E0,2.6E1,2.91E2,1.1E1,1.5E1,4E1,7E0,5E0,3E0,9E0,1.3E1,5E0,5E1,2E0,1.3E1,3.7E1,3.57E2,9.21E3,5E0,1E0,5E0,2.1E1,2.53E2,3.8E1,9E0,2E0,5E0,3.5E1,1E0,6E0,6E0,3E0],"tree_param":{"num_deleted":"0","num_feature":"14","num_nodes":"53","size_leaf_vector":"1"}},{"base_weights":[-1.466254E-3,-8.295151E0,5.9264987E-3,1.6954995E0,-1.0744961E1,3.0333307E0,-1.4598866E-2,-4.1044145E0,-1.3164582E0,4.328753E0,-1.4473383E0,-1.1652783E1,-2.9836132E-3,2.0171933E0,6.3206024E0,-4.4149895E0,2.7468548E0,-5.287249E0,-2.3870757E0,-9.36764E-1,6.0290124E-2,-1.5057019E-2,2.6750507E0,-1.0191537E-1,2.3349807E0,-1.5464014E-1,2.420899E0,-1.2926851E-1,-2.6008208E0,1.6102048E0,5.6066127E-3],"categories":[],"categories_nodes":[],"categories_segments":[],"categories_sizes":[],"default_left":[0,0,0,0,0,0,0,0,0,0,0,0,0,0,0,0,0,0,0,0,0,0,0,0,0,0,0,0,0,0,0],"id":27,"left_children":[1,3,5,-1,7,9,11,-1,-1,13,15,17,19,21,23,-1,25,-1,-1,27,29,-1,-1,-1,-1,-1,-1,-1,-1,-1,-1],"loss_changes":[6.196186E2,3.6823035E2,6.2745746E2,0E0,8.92926E1,4.0096155E2,1.3558252E3,0E0,0E0,2.3127692E2,9.308881E2,8.0460205E1,5.92135E2,3.713169E2,2.7541528E2,0E0,2.2990092E2,0E0,0E0,2.4841064E3,2.072152E3,0E0,0E0,0E0,0E0,0E0,0E0,0E0,0E0,0E0,0E0],"parents":[2147483647,0,0,1,1,2,2,4,4,5,5,6,6,9,9,10,10,11,11,12,12,13,13,14,14,16,16,19,19,20,20],"right_children":[2,4,6,-1,8,10,12,-1,-1,14,16,18,20,22,24,-1,26,-1,-1,28,30,-1,-1,-1,-1,-1,-1,-1,-1,-1,-1],"split_conditions":[-1.2252376E2,-1.1171284E2,-8.288372E1,1.6954995E0,-7.7591E0,1.711729E2,-1.3002206E1,-4.1044145E0,-1.3164582E0,-1.340546E1,2.0901112E2,8.828918E1,-7.7599335E0,1.4955106E2,-1.371638E1,-4.4149895E0,-8.828918E1,-5.287249E0,-2.3870757E0,-1.7375051E0,-7.20728E0,-1.5057019E-2,2.6750507E0,-1.0191537E-1,2.3349807E0,-1.5464014E-1,2.420899E0,-1.2926851E-1,-2.6008208E0,1.6102048E0,5.6066127E-3],"split_indices":[3,2,3,0,7,0,4,0,0,13,0,0,12,0,12,0,3,0,0,4,2,0,0,0,0,0,0,0,0,0,0],"split_type":[0,0,0,0,0,0,0,0,0,0,0,0,0,0,0,0,0,0,0,0,0,0,0,0,0,0,0,0,0,0,0],"sum_hessian":[1.0104E4,8E0,1.0096E4,1E0,7E0,6.7E1,1.0029E4,4E0,3E0,5.2E1,1.5E1,9E0,1.002E4,2.5E1,2.7E1,3E0,1.2E1,2E0,7E0,6.35E2,9.385E3,2E1,5E0,5E0,2.2E1,8E0,4E0,5.97E2,3.8E1,7.2E1,9.313E3],"tree_param":{"num_deleted":"0","num_feature":"14","num_nodes":"31","size_leaf_vector":"1"}},{"base_weights":[-1.9931726E-3,5.235121E-1,-1.1649203E-1,1.5608613E-1,3.3187056E0,-5.3075805E0,-6.531235E-2,-9.232306E-1,9.078942E-1,4.3415837E0,-2.0007967E1,-8.583481E0,3.8679478E0,2.585448E-1,-5.5270684E-1,5.799634E-1,-2.6599658E0,-7.2798634E0,1.1571839E0,7.0134206E0,-1.3977253E0,5.010304E-1,-6.8779464E0,-1.2440852E1,-4.0310893E0,5.8761663E0,-3.2428477E0,-5.1630422E-2,2.4429898E0,-3.9136205E0,-2.921263E-1,-1.0330875E0,7.844916E-1,-3.5870616E0,-2.7599967E-1,-2.6790729E0,7.796979E-2,1.7004381E0,1.7736128E-1,1.8363159E0,7.6876006E0,-2.0683029E0,1.1450014E0,-6.633968E0,-3.080798E0,-4.6790104E0,-9.183021E-1,3.2576382E0,1.0474114E0,-3.0207977E0,9.027603E-3,5.8723366E-1,4.81819E0,-1.6301677E0,1.1014676E0,1.0431702E0,-1.7431554E-1],"categories":[],"categories_nodes":[],"categories_segments":[],"categories_sizes":[],"default_left":[0,0,0,0,0,0,0,0,0,0,0,0,0,0,0,0,0,0,0,0,0,0,0,0,0,0,0,0,0,0,0,0,0,0,0,0,0,0,0,0,0,0,0,0,0,0,0,0,0,0,0,0,0,0,0,0,0],"id":28,"left_children":[1,3,5,7,9,11,13,15,17,19,21,23,25,27,29,31,33,35,37,39,41,-1,-1,43,45,47,-1,49,51,53,55,-1,-1,-1,-1,-1,-1,-1,-1,-1,-1,-1,-1,-1,-1,-1,-1,-1,-1,-1,-1,-1,-1,-1,-1,-1,-1],"loss_changes":[6.0807635E2,1.8563463E3,2.2042517E3,1.2983291E3,5.097537E3,2.4679082E3,1.2973229E3,1.7167395E3,1.9332034E3,3.1073713E3,6.077007E2,1.0034658E3,7.119796E2,3.3459214E3,2.8723193E3,2.8993818E3,4.9227744E3,3.507379E2,2.3352903E3,2.1351426E3,1.8893137E3,0E0,0E0,4.450337E2,2.776267E2,1.9973877E2,0E0,3.5410527E3,4.0283132E3,2.7413933E3,3.3193096E3,0E0,0E0,0E0,0E0,0E0,0E0,0E0,0E0,0E0,0E0,0E0,0E0,0E0,0E0,0E0,0E0,0E0,0E0,0E0,0E0,0E0,0E0,0E0,0E0,0E0,0E0],"parents":[2147483647,0,0,1,1,2,2,3,3,4,4,5,5,6,6,7,7,8,8,9,9,10,10,11,11,12,12,13,13,14,14,15,15,16,16,17,17,18,18,19,19,20,20,23,23,24,24,25,25,27,27,28,28,29,29,30,30],"right_children":[2,4,6,8,10,12,14,16,18,20,22,24,26,28,30,32,34,36,38,40,42,-1,-1,44,46,48,-1,50,52,54,56,-1,-1,-1,-1,-1,-1,-1,-1,-1,-1,-1,-1,-1,-1,-1,-1,-1,-1,-1,-1,-1,-1,-1,-1,-1,-1],"split_conditions":[-4.81092E0,2E1,-5.40546E1,1.351365E2,3.063094E1,1.9639838E2,1.5E1,-4.2042465E0,-1.2355337E1,1.8198383E2,-3.7381416E1,-5.862529E0,2.4684933E2,1.3E1,7.928008E1,7.928008E1,-3.0888343E0,-6.486552E1,-7.8936877E0,2.342366E1,2.162184E2,5.010304E-1,-6.8779464E0,9E0,-9.019752E0,-1.6473783E1,-3.2428477E0,-8.485851E0,5.045096E1,7.15182E0,9.0091E1,-1.0330875E0,7.844916E-1,-3.5870616E0,-2.7599967E-1,-2.6790729E0,7.796979E-2,1.7004381E0,1.7736128E-1,1.8363159E0,7.6876006E0,-2.0683029E0,1.1450014E0,-6.633968E0,-3.080798E0,-4.6790104E0,-9.183021E-1,3.2576382E0,1.0474114E0,-3.0207977E0,9.027603E-3,5.8723366E-1,4.81819E0,-1.6301677E0,1.1014676E0,1.0431702E0,-1.7431554E-1],"split_indices":[8,1,3,0,3,0,1,6,6,0,8,7,0,1,0,0,6,3,6,3,0,0,0,1,4,6,0,9,3,8,0,0,0,0,0,0,0,0,0,0,0,0,0,0,0,0,0,0,0,0,0,0,0,0,0,0,0],"split_type":[0,0,0,0,0,0,0,0,0,0,0,0,0,0,0,0,0,0,0,0,0,0,0,0,0,0,0,0,0,0,0,0,0,0,0,0,0,0,0,0,0,0,0,0,0,0,0,0,0,0,0,0,0,0,0,0,0],"sum_hessian":[1.0104E4,1.807E3,8.297E3,1.598E3,2.09E2,8E1,8.217E3,6.56E2,9.42E2,2.01E2,8E0,5.9E1,2.1E1,4.937E3,3.28E3,3.52E2,3.04E2,2.7E1,9.15E2,1.37E2,6.4E1,1E0,7E0,3.1E1,2.8E1,1.9E1,2E0,4.324E3,6.13E2,2.35E2,3.045E3,1.18E2,2.34E2,4.7E1,2.57E2,2.2E1,5E0,1.01E2,8.14E2,1.32E2,5E0,3.1E1,3.3E1,4E0,2.7E1,1E0,2.7E1,5E0,1.4E1,3.4E1,4.29E3,5.93E2,2E1,1.96E2,3.9E1,2.16E2,2.829E3],"tree_param":{"num_deleted":"0","num_feature":"14","num_nodes":"57","size_leaf_vector":"1"}},{"base_weights":[-2.7931763E-3,5.1943626E-2,-1.1053102E0,-1.4863333E-2,2.3763347E0,-3.4623826E0,6.931419E-2,6.654642E-2,-1.923171E0,9.782715E0,9.2386967E-1,-1.9111344E0,-1.1324108E1,3.9581964E0,-1.3768485E0,-9.2189135E-3,3.2146215E0,6.613545E0,-3.1660843E0,1.180714E1,-8.369229E0,-4.0486197E0,3.3713226E0,9.8957413E-1,-8.072857E0,-1.7629997E1,-3.6620653E0,6.85076E-1,1.1611092E1,1.8204217E-1,-3.5804574E0,-1.6993811E-2,1.2306993E0,4.4477234E0,3.1681943E-1,7.2623506E-2,4.7520204E0,-3.9314387E0,-5.551022E-1,4.0716887E0,4.640408E-1,-3.420169E0,-7.6444554E-1,7.4873524E0,-1.4333602E0,1.3552861E0,-9.7629917E-1,-2.6074748E0,7.234808E-1,-6.718612E-1,-3.7792761E0,-5.9647374E0,1.7477976E0,1.1634469E0,-1.8935843E0,-5.3559494E0,7.8733534E-1,5.0050774E0,5.27916E-2,3.465889E-1,-1.6853768E0,-2.0996687E0,5.733895E-1],"categories":[],"categories_nodes":[],"categories_segments":[],"categories_sizes":[],"default_left":[0,0,0,0,0,0,0,0,0,0,0,0,0,0,0,0,0,0,0,0,0,0,0,0,0,0,0,0,0,0,0,0,0,0,0,0,0,0,0,0,0,0,0,0,0,0,0,0,0,0,0,0,0,0,0,0,0,0,0,0,0,0,0],"id":29,"left_children":[1,3,5,7,9,11,13,15,17,19,21,23,25,27,29,31,33,35,37,39,41,43,45,47,49,51,53,55,57,59,61,-1,-1,-1,-1,-1,-1,-1,-1,-1,-1,-1,-1,-1,-1,-1,-1,-1,-1,-1,-1,-1,-1,-1,-1,-1,-1,-1,-1,-1,-1,-1,-1],"loss_changes":[6.098765E2,1.495124E3,1.3236665E3,1.4542494E3,2.8847317E3,1.9174404E3,1.8051158E3,2.141417E3,4.0847207E3,1.7156958E3,2.7640542E3,2.4030188E3,1.1916536E3,2.1712954E3,8.044851E2,1.7099834E3,5.272693E3,2.8767034E3,4.356478E3,7.034487E2,5.9177795E1,1.7057114E3,1.1691375E3,1.2875138E3,1.1067375E3,8.5550635E2,2.8422778E2,2.2759158E3,1.5051843E3,7.854783E2,1.8343798E3,0E0,0E0,0E0,0E0,0E0,0E0,0E0,0E0,0E0,0E0,0E0,0E0,0E0,0E0,0E0,0E0,0E0,0E0,0E0,0E0,0E0,0E0,0E0,0E0,0E0,0E0,0E0,0E0,0E0,0E0,0E0,0E0],"parents":[2147483647,0,0,1,1,2,2,3,3,4,4,5,5,6,6,7,7,8,8,9,9,10,10,11,11,12,12,13,13,14,14,15,15,16,16,17,17,18,18,19,19,20,20,21,21,22,22,23,23,24,24,25,25,26,26,27,27,28,28,