{"learner":{"attributes":{"best_iteration":"116","best_score":"16.461879763190364"},"feature_names":["glucose","hour","glucose_change","glucose_change_ph","glucose_change_ema_ph","glucose_rsi","glucose_change_trend_intercept","simple_sugars","complex_sugars","fats","dietary_fibers","proteins","fast_insulin","slow_insulin"],"feature_types":["float","int","float","float","float","float","float","float","float","float","float","float","float","float"],"gradient_booster":{"model":{"gbtree_model_param":{"num_parallel_tree":"1","num_trees":"137"},"iteration_indptr":[0,1,2,3,4,5,6,7,8,9,10,11,12,13,14,15,16,17,18,19,20,21,22,23,24,25,26,27,28,29,30,31,32,33,34,35,36,37,38,39,40,41,42,43,44,45,46,47,48,49,50,51,52,53,54,55,56,57,58,59,60,61,62,63,64,65,66,67,68,69,70,71,72,73,74,75,76,77,78,79,80,81,82,83,84,85,86,87,88,89,90,91,92,93,94,95,96,97,98,99,100,101,102,103,104,105,106,107,108,109,110,111,112,113,114,115,116,117,118,119,120,121,122,123,124,125,126,127,128,129,130,131,132,133,134,135,136,137],"tree_info":[0,0,0,0,0,0,0,0,0,0,0,0,0,0,0,0,0,0,0,0,0,0,0,0,0,0,0,0,0,0,0,0,0,0,0,0,0,0,0,0,0,0,0,0,0,0,0,0,0,0,0,0,0,0,0,0,0,0,0,0,0,0,0,0,0,0,0,0,0,0,0,0,0,0,0,0,0,0,0,0,0,0,0,0,0,0,0,0,0,0,0,0,0,0,0,0,0,0,0,0,0,0,0,0,0,0,0,0,0,0,0,0,0,0,0,0,0,0,0,0,0,0,0,0,0,0,0,0,0,0,0,0,0,0,0,0,0],"trees":[{"base_weights":[2.691056E-7,1.2673974E1,-2.162686E1,2.814274E1,6.5683265E0,-1.3049491E1,-4.6083515E1,2.3780624E1,5.9010204E1,5.4926343E0,2.9077814E1,-3.2194187E1,-1.115777E1,-5.011267E1,2.8615208E1,-8.077918E0,2.7042847E1,3.2597824E1,8.585847E1,9.380574E0,-1.2616619E0,4.5314636E1,1.5744819E1,-7.387743E1,-2.7479155E1,-1.830696E1,-6.4388194E0,-3.8841278E1,-7.164779E1,5.91047E1,-1.1490293E1,-1.1138127E0,-2.7894272E1,-4.829069E-1,8.7394495E0,-9.563201E0,1.29012375E1,1.1611324E1,2.7096209E1,-1.3912323E1,2.9002745E0,-1.1559668E1,-4.5254987E-2,8.249945E0,1.821025E1,1.6460386E1,3.296321E0,-1.0462792E0,-2.3035868E1,-1.5800261E1,-6.960701E0,-1.0949083E1,-4.721573E0,-1.0428616E0,-5.2993236E0,-1.2441104E1,2.9967906E0,3.746819E0,-2.3745316E1,1.1416451E1,2.323091E1,3.5009813E0,-1.3872186E1],"categories":[],"categories_nodes":[],"categories_segments":[],"categories_sizes":[],"default_left":[0,0,0,0,0,0,0,0,0,0,0,0,0,0,0,0,0,0,0,0,0,0,0,0,0,0,0,0,0,0,0,0,0,0,0,0,0,0,0,0,0,0,0,0,0,0,0,0,0,0,0,0,0,0,0,0,0,0,0,0,0,0,0],"id":0,"left_children":[1,3,5,7,9,11,13,15,17,19,21,23,25,27,29,31,33,35,37,39,41,43,45,47,49,51,53,55,57,59,61,-1,-1,-1,-1,-1,-1,-1,-1,-1,-1,-1,-1,-1,-1,-1,-1,-1,-1,-1,-1,-1,-1,-1,-1,-1,-1,-1,-1,-1,-1,-1,-1],"loss_changes":[2.7009642E6,5.866133E5,7.6318475E5,2.35307E5,1.0773464E5,9.731647E4,2.858535E5,1.60478E5,1.5108169E5,1.1172314E5,4.3233094E4,4.5532062E4,8.2739375E4,2.149465E5,6.0596152E4,5.302396E4,8.377025E4,7.584608E4,1.901825E4,4.3654E4,6.4372094E4,2.3274062E4,2.0427777E4,4.6461875E3,2.2370016E4,4.502322E4,4.9192355E4,7.6286125E4,1.9479862E5,7.8577812E3,1.8245785E4,0E0,0E0,0E0,0E0,0E0,0E0,0E0,0E0,0E0,0E0,0E0,0E0,0E0,0E0,0E0,0E0,0E0,0E0,0E0,0E0,0E0,0E0,0E0,0E0,0E0,0E0,0E0,0E0,0E0,0E0,0E0,0E0],"parents":[2147483647,0,0,1,1,2,2,3,3,4,4,5,5,6,6,7,7,8,8,9,9,10,10,11,11,12,12,13,13,14,14,15,15,16,16,17,17,18,18,19,19,20,20,21,21,22,22,23,23,24,24,25,25,26,26,27,27,28,28,29,29,30,30],"right_children":[2,4,6,8,10,12,14,16,18,20,22,24,26,28,30,32,34,36,38,40,42,44,46,48,50,52,54,56,58,60,62,-1,-1,-1,-1,-1,-1,-1,-1,-1,-1,-1,-1,-1,-1,-1,-1,-1,-1,-1,-1,-1,-1,-1,-1,-1,-1,-1,-1,-1,-1,-1,-1],"split_conditions":[1.80182E0,-3.60364E0,9.0091E0,2.792821E2,2.5496128E0,-3.45728E0,3.063094E1,8.288372E1,1.1154124E0,0E0,-1.2696086E0,-8.665896E0,1.5495651E2,1.386274E1,-8.923299E0,7.035678E0,-2.4557375E1,-5.590891E1,-4.396121E1,-5.590891E1,-1.9780987E1,2.882912E2,-2.00364E0,1E1,-4.21818E0,7.20728E1,6.220307E0,3.441476E2,4.1172E0,1.8198383E2,4.324368E1,-1.1138127E0,-2.7894272E1,-4.829069E-1,8.7394495E0,-9.563201E0,1.29012375E1,1.1611324E1,2.7096209E1,-1.3912323E1,2.9002745E0,-1.1559668E1,-4.5254987E-2,8.249945E0,1.821025E1,1.6460386E1,3.296321E0,-1.0462792E0,-2.3035868E1,-1.5800261E1,-6.960701E0,-1.0949083E1,-4.721573E0,-1.0428616E0,-5.2993236E0,-1.2441104E1,2.9967906E0,3.746819E0,-2.3745316E1,1.1416451E1,2.323091E1,3.5009813E0,-1.3872186E1],"split_indices":[2,2,2,0,4,8,2,0,6,2,9,6,0,9,6,6,8,8,8,8,8,0,12,1,13,0,11,0,4,0,3,0,0,0,0,0,0,0,0,0,0,0,0,0,0,0,0,0,0,0,0,0,0,0,0,0,0,0,0,0,0,0,0],"split_type":[0,0,0,0,0,0,0,0,0,0,0,0,0,0,0,0,0,0,0,0,0,0,0,0,0,0,0,0,0,0,0,0,0,0,0,0,0,0,0,0,0,0,0,0,0,0,0,0,0,0,0,0,0,0,0,0,0,0,0,0,0,0,0],"sum_hessian":[9.852E3,6.212E3,3.64E3,1.757E3,4.455E3,2.696E3,9.44E2,1.541E3,2.16E2,4.253E3,2.02E2,2.41E2,2.455E3,8.96E2,4.8E1,1.43E2,1.398E3,1.1E2,1.06E2,2.699E3,1.554E3,9E1,1.12E2,2.3E1,2.18E2,9.75E2,1.48E3,5.9E2,3.06E2,2.7E1,2.1E1,1.37E2,6E0,9.5E1,1.303E3,1.5E1,9.5E1,1E1,9.6E1,1.3E1,2.686E3,4.4E1,1.51E3,4.3E1,4.7E1,1.1E1,1.01E2,1E0,2.2E1,3E1,1.88E2,1.19E2,8.56E2,1.172E3,3.08E2,5.6E2,3E1,2.5E1,2.81E2,1.4E1,1.3E1,1.3E1,8E0],"tree_param":{"num_deleted":"0","num_feature":"14","num_nodes":"63","size_leaf_vector":"1"}},{"base_weights":[-2.9560484E-3,7.020054E0,-2.0065948E1,2.9736618E1,4.4872365E0,-1.5011154E1,-3.962945E1,1.6617348E1,4.8049114E1,1.1598039E1,1.0670767E0,-3.9468372E1,-1.3222179E1,-4.6451668E1,1.8214287E1,-1.9781752E1,2.3911795E1,4.674116E1,4.5365726E1,-2.8776815E1,1.2265748E1,-1.3525238E0,7.9496427E0,-3.3937653E1,-5.746351E1,-1.6658514E1,-3.225361E0,-5.2489334E1,-8.117732E0,4.2610695E1,-5.968946E0,-1.0965989E1,2.8573956E0,1.8533125E0,7.954494E0,1.1467751E1,1.9138247E1,-4.19838E-1,-1.4088523E1,-1.5736554E0,3.987826E0,-5.8785377E0,-1.3452458E-1,1.5229968E0,7.230497E0,-2.1758183E1,-9.16351E0,-2.1743504E1,-5.605357E0,-3.7004046E0,-7.8772483E0,-1.8095021E0,8.464745E0,3.7225988E0,-1.698299E1,-5.456694E0,1.5035139E0,9.304886E0,1.9092459E1,-9.99052E0,3.0508358E0],"categories":[],"categories_nodes":[],"categories_segments":[],"categories_sizes":[],"default_left":[0,0,0,0,0,0,0,0,0,0,0,0,0,0,0,0,0,0,0,0,0,0,0,0,0,0,0,0,0,0,0,0,0,0,0,0,0,0,0,0,0,0,0,0,0,0,0,0,0,0,0,0,0,0,0,0,0,0,0,0,0],"id":1,"left_children":[1,3,5,7,9,11,13,15,17,19,21,23,25,27,29,31,33,-1,35,37,39,41,43,45,47,49,51,53,55,57,59,-1,-1,-1,-1,-1,-1,-1,-1,-1,-1,-1,-1,-1,-1,-1,-1,-1,-1,-1,-1,-1,-1,-1,-1,-1,-1,-1,-1,-1,-1],"loss_changes":[1.388454E6,4.198284E5,2.5206775E5,1.7506206E5,1.5972189E5,8.838494E4,2.0762831E5,1.1411187E5,8.1121875E4,5.7855844E4,7.3883734E4,1.17844375E4,6.5044094E4,1.0812281E5,3.3293445E4,3.573714E4,1.6317141E4,0E0,3.6902938E4,1.7359217E4,3.78185E4,5.4138695E4,5.342846E4,1.1923992E4,1.6695836E4,5.8197312E4,4.3051793E4,1.09007875E5,8.686101E3,4.8536055E3,1.3130775E4,0E0,0E0,0E0,0E0,0E0,0E0,0E0,0E0,0E0,0E0,0E0,0E0,0E0,0E0,0E0,0E0,0E0,0E0,0E0,0E0,0E0,0E0,0E0,0E0,0E0,0E0,0E0,0E0,0E0,0E0],"parents":[2147483647,0,0,1,1,2,2,3,3,4,4,5,5,6,6,7,7,8,8,9,9,10,10,11,11,12,12,13,13,14,14,15,15,16,16,18,18,19,19,20,20,21,21,22,22,23,23,24,24,25,25,26,26,27,27,28,28,29,29,30,30],"right_children":[2,4,6,8,10,12,14,16,18,20,22,24,26,28,30,32,34,-1,36,38,40,42,44,46,48,50,52,54,56,58,60,-1,-1,-1,-1,-1,-1,-1,-1,-1,-1,-1,-1,-1,-1,-1,-1,-1,-1,-1,-1,-1,-1,-1,-1,-1,-1,-1,-1,-1,-1],"split_conditions":[3.60364E0,-8.381651E0,1.168592E1,2.1261476E2,-1.80182E0,7.928008E1,2.882912E1,-1.982002E1,-3.3283554E1,-4.776864E1,2.1081294E2,7.5884867E0,6.6924744E0,3.225258E2,-8.923299E0,1.441456E2,8.828918E1,4.674116E1,4.2042465E0,1.6756926E2,7.027098E1,-1.80182E1,6.4350715E0,-2.4536684E0,9.323947E0,6.0094266E0,3.4594943E2,9.0091E0,3.4955307E2,2.0000201E2,1.6036198E2,-1.0965989E1,2.8573956E0,1.8533125E0,7.954494E0,1.1467751E1,1.9138247E1,-4.19838E-1,-1.4088523E1,-1.5736554E0,3.987826E0,-5.8785377E0,-1.3452458E-1,1.5229968E0,7.230497E0,-2.1758183E1,-9.16351E0,-2.1743504E1,-5.605357E0,-3.7004046E0,-7.8772483E0,-1.8095021E0,8.464745E0,3.7225988E0,-1.698299E1,-5.456694E0,1.5035139E0,9.304886E0,1.9092459E1,-9.99052E0,3.0508358E0],"split_indices":[2,10,9,0,2,0,2,13,9,8,0,13,6,0,6,0,0,0,6,0,0,8,6,4,11,10,0,3,0,0,0,0,0,0,0,0,0,0,0,0,0,0,0,0,0,0,0,0,0,0,0,0,0,0,0,0,0,0,0,0,0],"split_type":[0,0,0,0,0,0,0,0,0,0,0,0,0,0,0,0,0,0,0,0,0,0,0,0,0,0,0,0,0,0,0,0,0,0,0,0,0,0,0,0,0,0,0,0,0,0,0,0,0,0,0,0,0,0,0,0,0,0,0,0,0],"sum_hessian":[9.852E3,7.298E3,2.554E3,7.31E2,6.567E3,2.031E3,5.23E2,4.27E2,3.04E2,2.132E3,4.435E3,1.37E2,1.894E3,4.68E2,5.5E1,7.1E1,3.56E2,6E0,2.98E2,3.4E1,2.098E3,3.282E3,1.153E3,1.07E2,3E1,1.409E3,4.85E2,4.04E2,6.4E1,2.7E1,2.8E1,4.5E1,2.6E1,4.6E1,3.1E2,2.17E2,8.1E1,1.4E1,2E1,1.16E2,1.982E3,1.54E2,3.128E3,9.8E2,1.73E2,7E0,1E2,2.1E1,9E0,9.73E2,4.36E2,4.46E2,3.9E1,2.4E1,3.8E2,3.6E1,2.8E1,1.9E1,8E0,1E1,1.8E1],"tree_param":{"num_deleted":"0","num_feature":"14","num_nodes":"61","size_leaf_vector":"1"}},{"base_weights":[-9.788384E-4,6.449453E0,-1.1007991E1,2.2013382E1,4.6456847E0,-5.822742E0,-2.1117449E1,-8.520162E0,2.710851E1,-2.8949243E-1,7.518545E0,-7.684413E0,8.5858345E0,-2.250117E1,1.8689602E1,5.6923957E0,-3.7128902E1,2.028212E1,4.938841E1,2.5829725E0,-6.4111285E0,6.587026E0,1.9676468E1,-2.2014605E1,-6.9761024E0,4.11747E1,6.287822E0,-1.6120981E1,-3.370303E1,-1.491502E1,2.830647E1,3.6162097E0,-4.1244874E0,-7.4703894E0,-2.075118E1,-3.3553653E0,6.5346746E0,1.35632305E1,3.472201E1,-3.3334506E0,1.135848E0,-1.0054443E1,-1.1760273E0,-1.4023606E1,2.029472E0,7.186544E0,-1.6806816E0,-9.977031E0,-3.2993019E0,-1.0803697E0,-3.069032E0,8.014501E0,1.4384309E1,2.2329967E0,-1.3102902E1,-8.6558075E0,-3.7579472E0,-1.1908979E1,-3.3364217E0,2.8361945E0,-8.012835E0,1.1984304E1,4.9158435E0],"categories":[],"categories_nodes":[],"categories_segments":[],"categories_sizes":[],"default_left":[0,0,0,0,0,0,0,0,0,0,0,0,0,0,0,0,0,0,0,0,0,0,0,0,0,0,0,0,0,0,0,0,0,0,0,0,0,0,0,0,0,0,0,0,0,0,0,0,0,0,0,0,0,0,0,0,0,0,0,0,0,0,0],"id":2,"left_children":[1,3,5,7,9,11,13,15,17,19,21,23,25,27,29,31,33,35,37,39,41,43,45,47,49,51,53,55,57,59,61,-1,-1,-1,-1,-1,-1,-1,-1,-1,-1,-1,-1,-1,-1,-1,-1,-1,-1,-1,-1,-1,-1,-1,-1,-1,-1,-1,-1,-1,-1,-1,-1],"loss_changes":[6.9963375E5,1.7431972E5,1.907385E5,1.0057509E5,7.895988E4,6.465825E4,6.83915E4,3.802546E4,8.310475E4,3.6064145E4,3.973558E4,2.1496852E4,2.0410645E4,8.4720375E4,1.3995382E4,7.9572207E3,1.0423152E4,2.0305312E4,3.052525E4,2.304399E4,4.4091785E4,3.1347547E4,2.7174086E4,1.2019668E4,2.2300234E4,4.8191406E2,1.5278104E4,3.4510734E4,5.8027344E4,3.1266946E3,3.9247246E3,0E0,0E0,0E0,0E0,0E0,0E0,0E0,0E0,0E0,0E0,0E0,0E0,0E0,0E0,0E0,0E0,0E0,0E0,0E0,0E0,0E0,0E0,0E0,0E0,0E0,0E0,0E0,0E0,0E0,0E0,0E0,0E0],"parents":[2147483647,0,0,1,1,2,2,3,3,4,4,5,5,6,6,7,7,8,8,9,9,10,10,11,11,12,12,13,13,14,14,15,15,16,16,17,17,18,18,19,19,20,20,21,21,22,22,23,23,24,24,25,25,26,26,27,27,28,28,29,29,30,30],"right_children":[2,4,6,8,10,12,14,16,18,20,22,24,26,28,30,32,34,36,38,40,42,44,46,48,50,52,54,56,58,60,62,-1,-1,-1,-1,-1,-1,-1,-1,-1,-1,-1,-1,-1,-1,-1,-1,-1,-1,-1,-1,-1,-1,-1,-1,-1,-1,-1,-1,-1,-1,-1,-1],"split_conditions":[1.80182E0,-8.6841E0,6.5287085E0,-2.4557375E1,1.3874014E2,5.1618295E0,3.113094E1,6.6066732E0,2.612639E2,-1.7951534E0,7.035678E0,-1.2948755E0,1.716019E0,1.206092E1,1.6036198E2,-1.581092E1,-3.9046265E1,-1.942366E1,-7.20728E0,-1.081092E1,-2.70273E1,-7.3566475E1,9.375E-1,-6.006067E-1,3.60364E0,1.9459656E2,2.0689713E1,-7.722086E-1,2.8468756E2,4.324368E1,-1.1154124E1,3.6162097E0,-4.1244874E0,-7.4703894E0,-2.075118E1,-3.3553653E0,6.5346746E0,1.35632305E1,3.472201E1,-3.3334506E0,1.135848E0,-1.0054443E1,-1.1760273E0,-1.4023606E1,2.029472E0,7.186544E0,-1.6806816E0,-9.977031E0,-3.2993019E0,-1.0803697E0,-3.069032E0,8.014501E0,1.4384309E1,2.2329967E0,-1.3102902E1,-8.6558075E0,-3.7579472E0,-1.1908979E1,-3.3364217E0,2.8361945E0,-8.012835E0,1.1984304E1,4.9158435E0],"split_indices":[2,10,10,8,0,4,12,6,0,12,6,7,6,9,0,9,8,12,2,8,3,8,9,6,2,0,8,6,0,3,6,0,0,0,0,0,0,0,0,0,0,0,0,0,0,0,0,0,0,0,0,0,0,0,0,0,0,0,0,0,0,0,0],"split_type":[0,0,0,0,0,0,0,0,0,0,0,0,0,0,0,0,0,0,0,0,0,0,0,0,0,0,0,0,0,0,0,0,0,0,0,0,0,0,0,0,0,0,0,0,0,0,0,0,0,0,0,0,0,0,0,0,0,0,0,0,0,0,0],"sum_hessian":[9.852E3,6.212E3,3.64E3,6.44E2,5.568E3,2.407E3,1.233E3,9.2E1,5.52E2,2.049E3,3.519E3,2.132E3,2.75E2,1.192E3,4.1E1,6.2E1,3E1,4.24E2,1.28E2,1.395E3,6.54E2,3.27E3,2.49E2,9.9E1,2.033E3,1.7E1,2.58E2,7.61E2,4.31E2,9E0,3.2E1,4.7E1,1.5E1,2.3E1,7E0,1.9E1,4.05E2,1.22E2,6E0,1.12E2,1.283E3,5.4E1,6E2,1E1,3.26E3,2.13E2,3.6E1,4.8E1,5.1E1,9.99E2,1.034E3,7E0,1E1,2.53E2,5E0,1.66E2,5.95E2,3.4E2,9.1E1,3E0,6E0,1.5E1,1.7E1],"tree_param":{"num_deleted":"0","num_feature":"14","num_nodes":"63","size_leaf_vector":"1"}},{"base_weights":[-2.615086E-3,6.465924E0,-5.4549627E0,1.4758085E1,4.764092E0,-2.5691164E0,-1.4698088E1,-2.7763808E-1,1.98492E1,-1.6461493E1,5.0502553E0,-3.1776307E0,1.5355816E1,-2.2530382E1,-1.0427098E1,4.107369E0,-3.4946434E1,1.8997782E1,2.579349E1,-2.3713615E1,-3.3809967E0,4.247288E0,1.4049628E1,-1.5381312E1,-2.640577E0,4.2909798E1,3.1742303E0,-5.4492598E0,-2.9123854E1,-3.1791275E1,-8.889541E0,2.0971289E0,-4.0065875E0,3.1095462E0,-1.1998756E1,4.4828334E0,8.268875E0,-7.6409984E0,4.6101146E0,-6.108381E0,1.2413288E0,1.7350553E0,2.9041904E-1,3.1663191E0,9.836568E0,-1.7437963E1,-2.5341403E0,-1.8639375E0,-2.802824E-1,1.8321253E1,6.8116274E0,-1.4412972E0,1.113851E1,-3.1778195E0,5.4135303E0,7.280025E-1,-9.602992E0,-4.1513343E0,-1.1837686E1,9.908127E0,-2.9806178E0],"categories":[],"categories_nodes":[],"categories_segments":[],"categories_sizes":[],"default_left":[0,0,0,0,0,0,0,0,0,0,0,0,0,0,0,0,0,0,0,0,0,0,0,0,0,0,0,0,0,0,0,0,0,0,0,0,0,0,0,0,0,0,0,0,0,0,0,0,0,0,0,0,0,0,0,0,0,0,0,0,0],"id":3,"left_children":[1,3,5,7,9,11,13,15,17,19,21,23,25,27,29,31,33,35,-1,37,39,41,43,45,47,49,51,53,55,57,59,-1,-1,-1,-1,-1,-1,-1,-1,-1,-1,-1,-1,-1,-1,-1,-1,-1,-1,-1,-1,-1,-1,-1,-1,-1,-1,-1,-1,-1,-1],"loss_changes":[3.47538E5,6.353186E4,1.425894E5,5.8718266E4,2.2805914E4,4.450808E4,4.2315562E4,2.9788006E4,3.0628438E4,4.6628916E3,2.6619453E4,2.5801938E4,4.4841047E4,5.0296797E4,2.6817523E4,8.853547E3,5.4480996E3,1.9280969E4,0E0,2.5878926E3,2.5099912E3,1.707704E4,1.9434E4,4.8711906E4,2.3024305E4,1.3657602E4,2.5643436E4,1.54173125E4,2.9489594E4,7.0253594E3,3.4127684E4,0E0,0E0,0E0,0E0,0E0,0E0,0E0,0E0,0E0,0E0,0E0,0E0,0E0,0E0,0E0,0E0,0E0,0E0,0E0,0E0,0E0,0E0,0E0,0E0,0E0,0E0,0E0,0E0,0E0,0E0],"parents":[2147483647,0,0,1,1,2,2,3,3,4,4,5,5,6,6,7,7,8,8,9,9,10,10,11,11,12,12,13,13,14,14,15,15,16,16,17,17,19,19,20,20,21,21,22,22,23,23,24,24,25,25,26,26,27,27,28,28,29,29,30,30],"right_children":[2,4,6,8,10,12,14,16,18,20,22,24,26,28,30,32,34,36,-1,38,40,42,44,46,48,50,52,54,56,58,60,-1,-1,-1,-1,-1,-1,-1,-1,-1,-1,-1,-1,-1,-1,-1,-1,-1,-1,-1,-1,-1,-1,-1,-1,-1,-1,-1,-1,-1,-1],"split_conditions":[0E0,-7.7965655E0,6.0094266E0,1.261274E2,-1.081092E1,3.4955307E2,1E1,7.5504837E0,-5.0322113E0,-5.12546E0,2.7567847E2,-1.9780987E1,3.675713E2,9.6841E0,5.7628355E0,-3.740075E0,-9.729828E1,1.2870142E0,2.579349E1,2.6985342E-2,1E1,1.5E1,5.491261E0,-2.162184E1,1.3333469E2,1.8758622E0,1.2E1,7.4900665E0,6E0,1.711729E2,3.5E1,2.0971289E0,-4.0065875E0,3.1095462E0,-1.1998756E1,4.4828334E0,8.268875E0,-7.6409984E0,4.6101146E0,-6.108381E0,1.2413288E0,1.7350553E0,2.9041904E-1,3.1663191E0,9.836568E0,-1.7437963E1,-2.5341403E0,-1.8639375E0,-2.802824E-1,1.8321253E1,6.8116274E0,-1.4412972E0,1.113851E1,-3.1778195E0,5.4135303E0,7.280025E-1,-9.602992E0,-4.1513343E0,-1.1837686E1,9.908127E0,-2.9806178E0],"split_indices":[2,10,10,0,7,0,1,6,11,12,0,8,0,9,7,4,2,6,0,4,1,1,6,3,0,12,8,4,1,0,5,0,0,0,0,0,0,0,0,0,0,0,0,0,0,0,0,0,0,0,0,0,0,0,0,0,0,0,0,0,0],"split_type":[0,0,0,0,0,0,0,0,0,0,0,0,0,0,0,0,0,0,0,0,0,0,0,0,0,0,0,0,0,0,0,0,0,0,0,0,0,0,0,0,0,0,0,0,0,0,0,0,0,0,0,0,0,0,0,0,0,0,0,0,0],"sum_hessian":[9.852E3,4.506E3,5.346E3,7.66E2,3.74E3,4.075E3,1.271E3,1.94E2,5.72E2,4.9E1,3.691E3,3.942E3,1.33E2,4.47E2,8.24E2,1.73E2,2.1E1,5.66E2,6E0,3.1E1,1.8E1,3.39E3,3.01E2,1.65E2,3.777E3,4E1,9.3E1,1.25E2,3.22E2,5.4E1,7.7E2,1.49E2,2.4E1,2E0,1.9E1,3.86E2,1.8E2,3E1,1E0,5E0,1.3E1,2.308E3,1.082E3,2.55E2,4.6E1,2.2E1,1.43E2,1.22E3,2.557E3,2E1,2E1,7.6E1,1.7E1,1.03E2,2.2E1,2.7E1,2.95E2,1.7E1,3.7E1,1.8E1,7.52E2],"tree_param":{"num_deleted":"0","num_feature":"14","num_nodes":"61","size_leaf_vector":"1"}},{"base_weights":[1.405974E-3,2.5815005E0,-7.3692837E0,6.355371E0,1.4440739E-1,-6.082516E0,-1.9476837E1,1.2544776E0,8.737932E0,-1.2406945E0,3.9585886E0,-1.5224975E1,-4.247069E0,-2.6862738E1,4.7994747E0,4.411537E0,-9.602089E0,1.9092093E1,7.0358276E0,-1.17419195E1,-5.676615E-1,-6.0936146E0,4.9545245E0,-1.3814659E1,-4.6975113E1,-1.5518727E1,-3.04042E0,-4.761022E1,-1.770009E1,-4.1081223E0,1.7589743E1,-2.7611282E0,1.6180706E0,-1.2429665E1,-1.3708298E0,5.973391E0,-1.854602E1,2.4919692E-1,2.6931987E0,-1.1626777E1,-2.4836333E0,-6.744574E0,-1.0078802E-1,2.1726801E0,-3.9738128E0,1.3510965E0,8.217269E0,-4.5115557E0,3.7665093E0,-4.6452165E0,-1.9296404E1,-2.311778E0,-8.419418E0,-1.604181E0,1.0072299E0,-1.6868923E1,6.5971847E0,-1.1630906E0,-8.257021E0,2.8006907E0,-3.1976488E0,7.6766744E0,4.243733E-1],"categories":[],"categories_nodes":[],"categories_segments":[],"categories_sizes":[],"default_left":[0,0,0,0,0,0,0,0,0,0,0,0,0,0,0,0,0,0,0,0,0,0,0,0,0,0,0,0,0,0,0,0,0,0,0,0,0,0,0,0,0,0,0,0,0,0,0,0,0,0,0,0,0,0,0,0,0,0,0,0,0,0,0],"id":4,"left_children":[1,3,5,7,9,11,13,15,17,19,21,23,25,27,29,31,33,35,37,39,41,43,45,47,49,51,53,55,57,59,61,-1,-1,-1,-1,-1,-1,-1,-1,-1,-1,-1,-1,-1,-1,-1,-1,-1,-1,-1,-1,-1,-1,-1,-1,-1,-1,-1,-1,-1,-1,-1,-1],"loss_changes":[1.873943E5,6.712998E4,3.968742E4,3.4795773E4,2.344043E4,3.871508E4,4.405803E4,3.1335277E4,3.426747E4,2.2998604E4,1.1863609E4,1.663525E4,2.614821E4,3.4896438E4,6.6802324E3,9.516061E3,3.2809836E4,1.9459047E4,2.0207984E4,1.8015598E4,1.5529791E4,1.0302012E4,1.0761324E4,1.2162016E4,7.7440664E3,1.8015344E4,2.5713174E4,3.5432312E4,1.7817414E4,3.181821E3,3.0691128E3,0E0,0E0,0E0,0E0,0E0,0E0,0E0,0E0,0E0,0E0,0E0,0E0,0E0,0E0,0E0,0E0,0E0,0E0,0E0,0E0,0E0,0E0,0E0,0E0,0E0,0E0,0E0,0E0,0E0,0E0,0E0,0E0],"parents":[2147483647,0,0,1,1,2,2,3,3,4,4,5,5,6,6,7,7,8,8,9,9,10,10,11,11,12,12,13,13,14,14,15,15,16,16,17,17,18,18,19,19,20,20,21,21,22,22,23,23,24,24,25,25,26,26,27,27,28,28,29,29,30,30],"right_children":[2,4,6,8,10,12,14,16,18,20,22,24,26,28,30,32,34,36,38,40,42,44,46,48,50,52,54,56,58,60,62,-1,-1,-1,-1,-1,-1,-1,-1,-1,-1,-1,-1,-1,-1,-1,-1,-1,-1,-1,-1,-1,-1,-1,-1,-1,-1,-1,-1,-1,-1,-1,-1],"split_conditions":[3.60364E0,-1.80182E0,8.468554E1,1.3874014E2,7.20728E0,1.0991102E2,3.1171487E2,3.5714285E0,-1.2757349E1,-5.40546E0,2E0,8.405856E0,2.69818E0,8E0,3.4054398E2,2E0,5.882353E0,1.441456E1,6E0,-2.70273E1,-9.0091E0,1.7297472E2,5E0,1.621638E1,7E0,2.1081294E2,2.4504752E2,1.6645384E1,1.696638E1,1.0255767E1,1.1E1,-2.7611282E0,1.6180706E0,-1.2429665E1,-1.3708298E0,5.973391E0,-1.854602E1,2.4919692E-1,2.6931987E0,-1.1626777E1,-2.4836333E0,-6.744574E0,-1.0078802E-1,2.1726801E0,-3.9738128E0,1.3510965E0,8.217269E0,-4.5115557E0,3.7665093E0,-4.6452165E0,-1.9296404E1,-2.311778E0,-8.419418E0,-1.604181E0,1.0072299E0,-1.6868923E1,6.5971847E0,-1.1630906E0,-8.257021E0,2.8006907E0,-3.1976488E0,7.6766744E0,4.243733E-1],"split_indices":[2,2,3,0,3,0,0,5,9,8,1,4,8,1,0,1,5,3,1,3,13,0,12,2,1,0,0,6,9,12,1,0,0,0,0,0,0,0,0,0,0,0,0,0,0,0,0,0,0,0,0,0,0,0,0,0,0,0,0,0,0,0,0],"split_type":[0,0,0,0,0,0,0,0,0,0,0,0,0,0,0,0,0,0,0,0,0,0,0,0,0,0,0,0,0,0,0,0,0,0,0,0,0,0,0,0,0,0,0,0,0,0,0,0,0,0,0,0,0,0,0,0,0,0,0,0,0,0,0],"sum_hessian":[9.852E3,7.298E3,2.554E3,2.863E3,4.435E3,2.31E3,2.44E2,9.12E2,1.951E3,3.254E3,1.181E3,3.85E2,1.925E3,1.87E2,5.7E1,7.07E2,2.05E2,2.74E2,1.677E3,1.95E2,3.059E3,1.06E2,1.075E3,3.7E2,1.5E1,1.85E2,1.74E3,5.6E1,1.31E2,3.4E1,2.3E1,4.7E1,6.6E2,2.7E1,1.78E2,2.72E2,2E0,4E2,1.277E3,2.1E1,1.74E2,3.1E1,3.028E3,3.7E1,6.9E1,1.055E3,2E1,3.54E2,1.6E1,6E0,9E0,1.15E2,7E1,1.279E3,4.61E2,5E1,6E0,5.5E1,7.6E1,1.1E1,2.3E1,1.5E1,8E0],"tree_param":{"num_deleted":"0","num_feature":"14","num_nodes":"63","size_leaf_vector":"1"}},{"base_weights":[-7.720292E-3,2.455835E0,-4.2115273E0,-3.7170892E0,3.342748E0,-2.4968596E0,-8.307482E0,-4.7394985E-1,-1.1932855E1,7.973073E0,2.0268233E0,-3.862779E0,7.4647813E0,1.5073705E1,-9.70585E0,-2.4123898E1,3.9961636E-1,-4.6366642E1,-7.698795E0,-5.1519647E0,9.406567E0,3.305974E0,-4.4778374E-1,-6.7706094E0,-1.7966611E0,1.2892926E1,4.2514747E-1,-8.946665E0,2.7009169E1,-1.1147912E1,1.5641161E1,-1.094128E0,-2.1388578E1,2.3279242E-1,-4.8862624E0,-6.941174E0,-1.5847313E1,1.024152E0,-3.296859E0,-3.6940622E-1,-7.349226E0,2.134471E0,5.7071366E0,-7.178944E0,1.0385455E0,-5.6093824E-1,1.1271417E0,-2.506971E0,1.9662057E-1,8.804116E0,-6.5296227E-1,1.4178203E0,5.964015E0,8.253412E-1,-8.7472315E0,-1.2148924E1,2.9162428E0,-1.3644996E0,1.0808056E1,-2.7595334E0,-8.030168E0,9.1180105E0,4.100998E-1],"categories":[],"categories_nodes":[],"categories_segments":[],"categories_sizes":[],"default_left":[0,0,0,0,0,0,0,0,0,0,0,0,0,0,0,0,0,0,0,0,0,0,0,0,0,0,0,0,0,0,0,0,0,0,0,0,0,0,0,0,0,0,0,0,0,0,0,0,0,0,0,0,0,0,0,0,0,0,0,0,0,0,0],"id":5,"left_children":[1,3,5,7,9,11,13,15,17,19,21,23,25,27,29,31,33,35,37,39,41,43,45,47,49,51,53,55,57,59,61,-1,-1,-1,-1,-1,-1,-1,-1,-1,-1,-1,-1,-1,-1,-1,-1,-1,-1,-1,-1,-1,-1,-1,-1,-1,-1,-1,-1,-1,-1,-1,-1],"loss_changes":[1.0205108E5,3.402765E4,2.5550742E4,2.0803988E4,3.3087977E4,3.4971086E4,3.5261266E4,1.1599785E4,3.1863668E4,2.2663664E4,1.3397436E4,1.3559727E4,1.1840287E4,1.7729992E4,3.7238062E4,1.9058355E4,3.4165889E3,2.3780078E3,7.278126E3,8.995508E3,2.3755398E4,1.1925078E4,8.635361E3,1.1052641E4,1.5704279E4,9.892041E3,9.438212E3,1.2761692E4,1.1831461E4,2.8985156E4,1.1540096E4,0E0,0E0,0E0,0E0,0E0,0E0,0E0,0E0,0E0,0E0,0E0,0E0,0E0,0E0,0E0,0E0,0E0,0E0,0E0,0E0,0E0,0E0,0E0,0E0,0E0,0E0,0E0,0E0,0E0,0E0,0E0,0E0],"parents":[2147483647,0,0,1,1,2,2,3,3,4,4,5,5,6,6,7,7,8,8,9,9,10,10,11,11,12,12,13,13,14,14,15,15,16,16,17,17,18,18,19,19,20,20,21,21,22,22,23,23,24,24,25,25,26,26,27,27,28,28,29,29,30,30],"right_children":[2,4,6,8,10,12,14,16,18,20,22,24,26,28,30,32,34,36,38,40,42,44,46,48,50,52,54,56,58,60,62,-1,-1,-1,-1,-1,-1,-1,-1,-1,-1,-1,-1,-1,-1,-1,-1,-1,-1,-1,-1,-1,-1,-1,-1,-1,-1,-1,-1,-1,-1,-1,-1],"split_conditions":[1.80182E0,8.288372E1,7.6680627E0,3.5714285E0,-5.544746E0,5.7960954E0,4.7058823E1,-1.80182E1,-3.243276E1,-2.4557375E1,1.5E1,9.0091E0,1.4E1,-7.9794884E0,2.882912E1,-1.6382667E0,1.80182E1,-1.0639318E1,6E0,5.7142857E1,2.5740285E0,-1.321638E1,1.818758E-1,2.1982204E2,-3.432038E0,1.80182E2,2.0689713E1,1.1E1,4.14636E0,1.982002E1,-8.923299E0,-1.094128E0,-2.1388578E1,2.3279242E-1,-4.8862624E0,-6.941174E0,-1.5847313E1,1.024152E0,-3.296859E0,-3.6940622E-1,-7.349226E0,2.134471E0,5.7071366E0,-7.178944E0,1.0385455E0,-5.6093824E-1,1.1271417E0,-2.506971E0,1.9662057E-1,8.804116E0,-6.5296227E-1,1.4178203E0,5.964015E0,8.253412E-1,-8.7472315E0,-1.2148924E1,2.9162428E0,-1.3644996E0,1.0808056E1,-2.7595334E0,-8.030168E0,9.1180105E0,4.100998E-1],"split_indices":[2,0,11,5,10,4,5,8,3,8,1,3,1,6,2,7,8,6,1,5,6,7,4,0,6,0,8,1,13,13,6,0,0,0,0,0,0,0,0,0,0,0,0,0,0,0,0,0,0,0,0,0,0,0,0,0,0,0,0,0,0,0,0],"split_type":[0,0,0,0,0,0,0,0,0,0,0,0,0,0,0,0,0,0,0,0,0,0,0,0,0,0,0,0,0,0,0,0,0,0,0,0,0,0,0,0,0,0,0,0,0,0,0,0,0,0,0,0,0,0,0,0,0,0,0,0,0,0,0],"sum_hessian":[9.852E3,6.212E3,3.64E3,7.8E2,5.432E3,2.567E3,1.073E3,5.6E2,2.2E2,1.201E3,4.231E3,2.258E3,3.09E2,6E1,1.013E3,1.9E1,5.41E2,2.3E1,1.97E2,1.18E2,1.083E3,2.789E3,1.442E3,9.37E2,1.321E3,1.74E2,1.35E2,2E1,4E1,9.59E2,5.4E1,1.4E1,5E0,5.3E2,1.1E1,6E0,1.7E1,4.5E1,1.52E2,9.9E1,1.9E1,8.76E2,2.07E2,1.5E1,2.774E3,1.078E3,3.64E2,7.72E2,1.65E2,1.5E1,1.306E3,8.1E1,9.3E1,1.26E2,9E0,7E0,1.3E1,9E0,3.1E1,8.54E2,1.05E2,2.6E1,2.8E1],"tree_param":{"num_deleted":"0","num_feature":"14","num_nodes":"63","size_leaf_vector":"1"}},{"base_weights":[-1.0823754E-2,1.2720773E0,-4.6825604E0,6.833907E-1,6.866071E0,-5.993541E0,5.9261374E0,1.9486885E0,-1.5385001E0,-2.2577587E1,8.192781E0,-4.9700184E0,-1.6319946E1,1.2585151E1,4.0845054E-1,-5.9590297E0,2.5186253E0,-1.38780775E1,-9.3667984E-1,-8.445101E0,-1.0943813E1,2.1479858E1,6.113461E0,-8.422495E0,-1.840487E0,-4.7887054E1,-1.2499503E1,3.9779239E0,3.3280766E1,1.1496074E1,-6.7545524E0,-7.0845664E-1,-5.4594455E0,5.155736E-2,1.3909948E0,-4.912213E0,-6.72696E-1,3.80836E0,-3.723353E-1,-3.9114885E0,1.8143215E0,4.9061537E0,9.77461E0,2.9504412E-1,2.9962807E0,-2.959258E0,4.6312075E0,-5.13756E0,-2.890183E-1,8.107447E-1,-1.6313896E1,-8.8785785E-1,-7.314286E0,3.6537914E0,-4.906709E-1,1.2556597E1,6.7878504E0,9.518552E0,1.1218475E0,-3.320371E0,3.1917304E-1],"categories":[],"categories_nodes":[],"categories_segments":[],"categories_sizes":[],"default_left":[0,0,0,0,0,0,0,0,0,0,0,0,0,0,0,0,0,0,0,0,0,0,0,0,0,0,0,0,0,0,0,0,0,0,0,0,0,0,0,0,0,0,0,0,0,0,0,0,0,0,0,0,0,0,0,0,0,0,0,0,0],"id":6,"left_children":[1,3,5,7,9,11,13,15,17,19,21,23,25,27,29,31,33,35,37,-1,39,41,43,45,47,49,51,53,55,57,59,-1,-1,-1,-1,-1,-1,-1,-1,-1,-1,-1,-1,-1,-1,-1,-1,-1,-1,-1,-1,-1,-1,-1,-1,-1,-1,-1,-1,-1,-1],"loss_changes":[5.905869E4,2.5454336E4,2.9561762E4,1.9671227E4,2.89355E4,1.9894883E4,8.592569E3,2.0106766E4,1.8842143E4,1.7665547E3,1.9346492E4,1.8579273E4,1.9903496E4,1.874959E4,1.0322918E4,1.3166124E4,2.0671547E4,3.390291E3,1.0066707E4,0E0,5.0591394E2,4.8735977E3,1.2133355E4,2.829041E4,1.2102624E4,6.0591914E3,1.7270203E4,3.5188384E3,1.885082E3,7.885011E3,2.6759524E3,0E0,0E0,0E0,0E0,0E0,0E0,0E0,0E0,0E0,0E0,0E0,0E0,0E0,0E0,0E0,0E0,0E0,0E0,0E0,0E0,0E0,0E0,0E0,0E0,0E0,0E0,0E0,0E0,0E0,0E0],"parents":[2147483647,0,0,1,1,2,2,3,3,4,4,5,5,6,6,7,7,8,8,9,9,10,10,11,11,12,12,13,13,14,14,15,15,16,16,17,17,18,18,20,20,21,21,22,22,23,23,24,24,25,25,26,26,27,27,28,28,29,29,30,30],"right_children":[2,4,6,8,10,12,14,16,18,20,22,24,26,28,30,32,34,36,38,-1,40,42,44,46,48,50,52,54,56,58,60,-1,-1,-1,-1,-1,-1,-1,-1,-1,-1,-1,-1,-1,-1,-1,-1,-1,-1,-1,-1,-1,-1,-1,-1,-1,-1,-1,-1,-1,-1],"split_conditions":[3.85364E0,2.774803E2,3.0090393E2,1.5E1,-4.776864E1,8.468554E1,1.1E1,6.30637E1,-1.021638E1,3.2612943E2,-1.316456E1,1.6302181E0,1.0255767E1,3.4594943E2,3.243276E2,1E1,7E0,-1.5366612E-1,-9.41546E0,-8.445101E0,3.531567E2,-2.70273E1,1.1154124E0,2.342366E1,7.0588234E1,1.081092E1,1.87682E1,5.4642534E0,1.261274E1,5.0626717E0,1.155274E1,-7.0845664E-1,-5.4594455E0,5.155736E-2,1.3909948E0,-4.912213E0,-6.72696E-1,3.80836E0,-3.723353E-1,-3.9114885E0,1.8143215E0,4.9061537E0,9.77461E0,2.9504412E-1,2.9962807E0,-2.959258E0,4.6312075E0,-5.13756E0,-2.890183E-1,8.107447E-1,-1.6313896E1,-8.8785785E-1,-7.314286E0,3.6537914E0,-4.906709E-1,1.2556597E1,6.7878504E0,9.518552E0,1.1218475E0,-3.320371E0,3.1917304E-1],"split_indices":[10,0,0,1,8,3,1,0,13,0,9,6,12,0,0,1,1,4,12,0,0,3,6,2,5,2,9,12,2,9,12,0,0,0,0,0,0,0,0,0,0,0,0,0,0,0,0,0,0,0,0,0,0,0,0,0,0,0,0,0,0],"split_type":[0,0,0,0,0,0,0,0,0,0,0,0,0,0,0,0,0,0,0,0,0,0,0,0,0,0,0,0,0,0,0,0,0,0,0,0,0,0,0,0,0,0,0,0,0,0,0,0,0,0,0,0,0,0,0,0,0,0,0,0,0],"sum_hessian":[9.852E3,7.73E3,2.122E3,6.995E3,7.35E2,1.889E3,2.33E2,4.457E3,2.538E3,3.1E1,7.04E2,1.72E3,1.69E2,1.05E2,1.28E2,2.99E2,4.158E3,1.17E2,2.421E3,2E1,1.1E1,9.4E1,6.1E2,8.17E2,9.03E2,1.7E1,1.52E2,7.5E1,3E1,5E1,7.8E1,2.32E2,6.7E1,1.973E3,2.185E3,9.6E1,2.1E1,5.2E1,2.369E3,1E1,1E0,6.6E1,2.8E1,2.63E2,3.47E2,7.71E2,4.6E1,4.8E1,8.55E2,2E0,1.5E1,8.5E1,6.7E1,3E1,4.5E1,1.5E1,1.5E1,1.3E1,3.7E1,5E1,2.8E1],"tree_param":{"num_deleted":"0","num_feature":"14","num_nodes":"61","size_leaf_vector":"1"}},{"base_weights":[-7.247567E-3,1.9719672E0,-1.6755314E0,1.8935155E0,1.5640424E1,-1.9816735E0,6.466385E0,8.867975E-1,4.393261E0,-1.4970984E0,-8.392134E0,1.6409254E1,6.1977845E-2,-4.7004023E0,1.3684785E0,-1.953964E1,4.7849255E0,-1.0594321E1,-1.2291541E0,1.0316363E1,-1.1849625E1,2.9404333E1,4.5987153E0,-6.7028866E0,1.2623822E1,4.8569145E0,-1.7668495E0,1.1532857E0,3.537268E-2,-6.450063E0,-3.3164558E0,2.8262532E-1,2.229698E0,4.363575E0,-4.2830915E0,-2.666051E0,-2.8641695E-1,-9.887626E0,6.414377E0,6.081593E0,-4.214033E0,5.584129E0,1.2518757E1,4.311068E0,-3.4702237E0,4.3341005E-1,-3.8129666E0,9.308259E0,1.527776E0],"categories":[],"categories_nodes":[],"categories_segments":[],"categories_sizes":[],"default_left":[0,0,0,0,0,0,0,0,0,0,0,0,0,0,0,0,0,0,0,0,0,0,0,0,0,0,0,0,0,0,0,0,0,0,0,0,0,0,0,0,0,0,0,0,0,0,0,0,0],"id":7,"left_children":[1,3,5,7,-1,9,11,13,15,17,19,21,23,25,27,29,31,33,35,37,39,41,43,45,47,-1,-1,-1,-1,-1,-1,-1,-1,-1,-1,-1,-1,-1,-1,-1,-1,-1,-1,-1,-1,-1,-1,-1,-1],"loss_changes":[3.2536846E4,1.763794E4,1.3340656E4,1.1323044E4,0E0,1.5997557E4,1.2352551E4,8.64534E3,1.2204287E4,1.167015E4,2.353802E4,1.1529174E4,1.0197139E4,6.4296396E3,9.151822E3,1.1165381E2,1.2933742E4,1.2891156E4,9.778224E3,2.7998266E4,2.1881016E4,4.0109844E3,6.6428936E3,3.8358818E3,5.663302E3,0E0,0E0,0E0,0E0,0E0,0E0,0E0,0E0,0E0,0E0,0E0,0E0,0E0,0E0,0E0,0E0,0E0,0E0,0E0,0E0,0E0,0E0,0E0,0E0],"parents":[2147483647,0,0,1,1,2,2,3,3,5,5,6,6,7,7,8,8,9,9,10,10,11,11,12,12,13,13,14,14,15,15,16,16,17,17,18,18,19,19,20,20,21,21,22,22,23,23,24,24],"right_children":[2,4,6,8,-1,10,12,14,16,18,20,22,24,26,28,30,32,34,36,38,40,42,44,46,48,-1,-1,-1,-1,-1,-1,-1,-1,-1,-1,-1,-1,-1,-1,-1,-1,-1,-1,-1,-1,-1,-1,-1,-1],"split_conditions":[0E0,5.7277827E0,3.441476E2,2.1261476E2,1.5640424E1,1.3900274E1,3.675713E2,-1.441456E1,-5.590891E1,-1.7715133E0,-6.4350715E0,1.1E1,1.2E1,-6.126188E1,-5.12546E0,3.2612943E2,7E0,2E1,-8.494294E0,1.470728E1,1.982002E1,3.585622E2,5.5785155E0,6.2634697E0,4.50455E1,4.8569145E0,-1.7668495E0,1.1532857E0,3.537268E-2,-6.450063E0,-3.3164558E0,2.8262532E-1,2.229698E0,4.363575E0,-4.2830915E0,-2.666051E0,-2.8641695E-1,-9.887626E0,6.414377E0,6.081593E0,-4.214033E0,5.584129E0,1.2518757E1,4.311068E0,-3.4702237E0,4.3341005E-1,-3.8129666E0,9.308259E0,1.527776E0],"split_indices":[2,11,0,0,0,10,0,8,8,13,6,1,8,3,12,0,1,1,6,11,3,0,10,6,3,0,0,0,0,0,0,0,0,0,0,0,0,0,0,0,0,0,0,0,0,0,0,0,0],"split_type":[0,0,0,0,0,0,0,0,0,0,0,0,0,0,0,0,0,0,0,0,0,0,0,0,0,0,0,0,0,0,0,0,0,0,0,0,0,0,0,0,0,0,0,0,0,0,0,0,0],"sum_hessian":[9.852E3,4.506E3,5.346E3,4.5E3,6E0,5.153E3,1.93E2,3.209E3,1.291E3,4.792E3,3.61E2,7.5E1,1.18E2,2.54E2,2.955E3,2E1,1.271E3,1.36E2,4.656E3,5.6E1,3.05E2,3.5E1,4E1,7.7E1,4.1E1,1.3E1,2.41E2,9.91E2,1.964E3,1.5E1,5E0,5.19E2,7.52E2,1.7E1,1.19E2,1.6E2,4.496E3,1.1E1,4.5E1,1.9E1,2.86E2,2E1,1.5E1,2.5E1,1.5E1,3.3E1,4.4E1,1.1E1,3E1],"tree_param":{"num_deleted":"0","num_feature":"14","num_nodes":"49","size_leaf_vector":"1"}},{"base_weights":[-1.5630086E-3,6.4589703E-1,-3.0187037E0,-2.9782994E0,1.0019501E0,-7.6390157E0,-1.4167573E0,-1.5504337E1,-1.5328529E0,-4.4081736E0,1.2732366E0,-5.8182006E0,-2.3050264E1,-1.8731352E0,1.2937517E1,-6.9945836E-1,-2.7764494E1,1.5886836E0,-4.366961E0,6.1384554E0,-6.9921727E0,2.3924377E0,-5.056827E-1,2.1245079E1,-6.7772436E0,-1.2728311E1,-3.5223717E1,-1.1188738E0,-1.0298284E1,6.4961066E0,2.2193626E1,1.119487E0,-5.6870627E0,-1.0240201E1,-3.97406E-1,-1.8734768E-1,4.0305433E0,-4.222009E-1,-3.6481085E0,-5.726334E0,2.5117779E0,-6.2236714E0,-1.7950504E0,6.386371E-1,3.885965E0,-5.151034E-1,7.374092E-1,2.401635E0,1.1269104E1,-1.5340512E1,-1.8199512E0,-4.3794465E0,5.383145E0,3.677047E0,-1.1463177E1,-1.7670497E0,4.8507314E-2,4.8073096E0,-3.9902942E0,4.178751E0,-1.0172932E-1,7.105024E0,-2.297373E-2],"categories":[],"categories_nodes":[],"categories_segments":[],"categories_sizes":[],"default_left":[0,0,0,0,0,0,0,0,0,0,0,0,0,0,0,0,0,0,0,0,0,0,0,0,0,0,0,0,0,0,0,0,0,0,0,0,0,0,0,0,0,0,0,0,0,0,0,0,0,0,0,0,0,0,0,0,0,0,0,0,0,0,0],"id":8,"left_children":[1,3,5,7,9,11,13,15,17,19,21,23,25,27,29,31,33,35,37,39,41,43,45,47,49,51,53,55,57,59,61,-1,-1,-1,-1,-1,-1,-1,-1,-1,-1,-1,-1,-1,-1,-1,-1,-1,-1,-1,-1,-1,-1,-1,-1,-1,-1,-1,-1,-1,-1,-1,-1],"loss_changes":[1.9249568E4,1.0472053E4,1.2875176E4,1.3120986E4,1.0848932E4,1.243723E4,8.501193E3,1.3593842E4,5.775033E3,9.663049E3,1.4009665E4,1.0577832E4,5.4573926E3,7.9637056E3,2.2407231E3,2.9022434E3,6.859535E3,8.162281E3,7.8713013E3,4.1049355E3,3.815706E3,1.1997914E4,9.761923E3,2.724016E3,1.1953732E4,1.8104526E3,3.4465195E3,7.0457227E3,8.35415E3,1.2748859E3,5.326587E2,0E0,0E0,0E0,0E0,0E0,0E0,0E0,0E0,0E0,0E0,0E0,0E0,0E0,0E0,0E0,0E0,0E0,0E0,0E0,0E0,0E0,0E0,0E0,0E0,0E0,0E0,0E0,0E0,0E0,0E0,0E0,0E0],"parents":[2147483647,0,0,1,1,2,2,3,3,4,4,5,5,6,6,7,7,8,8,9,9,10,10,11,11,12,12,13,13,14,14,15,15,16,16,17,17,18,18,19,19,20,20,21,21,22,22,23,23,24,24,25,25,26,26,27,27,28,28,29,29,30,30],"right_children":[2,4,6,8,10,12,14,16,18,20,22,24,26,28,30,32,34,36,38,40,42,44,46,48,50,52,54,56,58,60,62,-1,-1,-1,-1,-1,-1,-1,-1,-1,-1,-1,-1,-1,-1,-1,-1,-1,-1,-1,-1,-1,-1,-1,-1,-1,-1,-1,-1,-1,-1,-1,-1],"split_conditions":[5.40546E0,7.567644E1,1.3333469E2,-8.494294E0,1E0,8.405856E0,3.0331343E1,-1.0210314E1,1E1,-2.72364E0,1.5E1,-1.5095114E0,1.80182E1,1.982002E1,1.4515208E1,3.5714285E0,-1.982002E1,1.9485661E0,2.4242424E1,-1.369818E1,-4.988487E0,3.441476E2,9.230769E1,-1.5376285E0,-1.4704745E0,7.387462E1,7.567644E1,-4.2900476E-1,1.982002E1,3.063094E1,-1.1154124E1,1.119487E0,-5.6870627E0,-1.0240201E1,-3.97406E-1,-1.8734768E-1,4.0305433E0,-4.222009E-1,-3.6481085E0,-5.726334E0,2.5117779E0,-6.2236714E0,-1.7950504E0,6.386371E-1,3.885965E0,-5.151034E-1,7.374092E-1,2.401635E0,1.1269104E1,-1.5340512E1,-1.8199512E0,-4.3794465E0,5.383145E0,3.677047E0,-1.1463177E1,-1.7670497E0,4.8507314E-2,4.8073096E0,-3.9902942E0,4.178751E0,-1.0172932E-1,7.105024E0,-2.297373E-2],"split_indices":[12,0,0,6,1,4,8,6,1,8,1,4,12,13,4,5,3,11,5,13,13,0,5,4,4,3,0,6,3,13,6,0,0,0,0,0,0,0,0,0,0,0,0,0,0,0,0,0,0,0,0,0,0,0,0,0,0,0,0,0,0,0,0],"split_type":[0,0,0,0,0,0,0,0,0,0,0,0,0,0,0,0,0,0,0,0,0,0,0,0,0,0,0,0,0,0,0,0,0,0,0,0,0,0,0,0,0,0,0,0,0,0,0,0,0,0,0,0,0,0,0,0,0,0,0,0,0,0,0],"sum_hessian":[9.852E3,8.112E3,1.74E3,7.25E2,7.387E3,4.47E2,1.293E3,7.4E1,6.51E2,3.52E2,7.035E3,4.01E2,4.6E1,1.254E3,3.9E1,3.4E1,4E1,3.1E2,3.41E2,6.9E1,2.83E2,4.318E3,2.717E3,1.3E1,3.88E2,2.6E1,2E1,1.152E3,1.02E2,2.4E1,1.5E1,2.8E1,6E0,3.2E1,8E0,2.62E2,4.8E1,2.48E2,9.3E1,5E0,6.4E1,1.8E1,2.65E2,4.214E3,1.04E2,1.929E3,7.88E2,8E0,5E0,5E0,3.83E2,2.5E1,1E0,1E0,1.9E1,2.43E2,9.09E2,1E1,9.2E1,1.1E1,1.3E1,1.4E1,1E0],"tree_param":{"num_deleted":"0","num_feature":"14","num_nodes":"63","size_leaf_vector":"1"}},{"base_weights":[-3.3202132E-3,1.2113332E0,-1.0271541E0,1.153568E0,1.1454378E1,-1.2148029E1,-9.050297E-1,5.3174245E-1,3.9484768E0,-1.5151631E1,8.518442E0,-1.0503457E1,-7.66842E-1,1.1672354E0,-2.9409885E0,2.321936E0,1.2396292E1,-1.6301313E1,2.6031113E0,-2.993555E-1,1.15076E1,4.771542E0,-1.9704979E1,5.964336E0,-9.305764E-1,-6.6318645E0,3.8384172E-1,-2.1350436E0,1.5377811E0,-3.424041E0,1.0885375E0,2.5883973E0,8.019372E0,-3.1271617E0,-6.3299007E0,-3.3762804E-1,2.0291807E-1,1.0137371E0,3.7372415E0,4.411395E-1,4.480887E0,-1.007001E1,-1.8491989E0,1.5821642E-1,4.8581295E0,-5.140387E0,-1.9069608E-1],"categories":[],"categories_nodes":[],"categories_segments":[],"categories_sizes":[],"default_left":[0,0,0,0,0,0,0,0,0,0,0,0,0,0,0,0,0,0,0,0,0,0,0,0,0,0,0,0,0,0,0,0,0,0,0,0,0,0,0,0,0,0,0,0,0,0,0],"id":9,"left_children":[1,3,5,7,-1,9,11,13,15,17,19,21,23,25,27,29,31,33,-1,35,37,39,41,43,45,-1,-1,-1,-1,-1,-1,-1,-1,-1,-1,-1,-1,-1,-1,-1,-1,-1,-1,-1,-1,-1,-1],"loss_changes":[1.2254468E4,9.580979E3,7.250926E3,7.820395E3,0E0,3.7293525E3,7.0085205E3,8.1314307E3,1.1224862E4,1.5386113E3,2.1430719E2,1.0635517E4,5.7542354E3,8.1624917E3,1.9237531E4,1.2387992E4,6.899791E3,1.1619609E3,0E0,3.179346E0,4.230713E0,9.5112054E2,8.615059E3,6.8879507E3,2.4328262E4,0E0,0E0,0E0,0E0,0E0,0E0,0E0,0E0,0E0,0E0,0E0,0E0,0E0,0E0,0E0,0E0,0E0,0E0,0E0,0E0,0E0,0E0],"parents":[2147483647,0,0,1,1,2,2,3,3,5,5,6,6,7,7,8,8,9,9,10,10,11,11,12,12,13,13,14,14,15,15,16,16,17,17,19,19,20,20,21,21,22,22,23,23,24,24],"right_children":[2,4,6,8,-1,10,12,14,16,18,20,22,24,26,28,30,32,34,-1,36,38,40,42,44,46,-1,-1,-1,-1,-1,-1,-1,-1,-1,-1,-1,-1,-1,-1,-1,-1,-1,-1,-1,-1,-1,-1],"split_conditions":[0E0,5.7277827E0,-7.60274E0,1.9734219E0,1.1454378E1,2.882912E2,-8.055555E0,3.5714285E0,3.0270575E2,2.3E1,3.0450757E2,9.91001E1,-9.781308E0,-1.2252376E2,1.9639838E2,-1.621638E1,1.0896721E1,5.311111E-1,2.6031113E0,3.0270575E2,3.063094E2,7.972973E1,1.261274E1,1.3E1,-8.494294E0,-6.6318645E0,3.8384172E-1,-2.1350436E0,1.5377811E0,-3.424041E0,1.0885375E0,2.5883973E0,8.019372E0,-3.1271617E0,-6.3299007E0,-3.3762804E-1,2.0291807E-1,1.0137371E0,3.7372415E0,4.411395E-1,4.480887E0,-1.007001E1,-1.8491989E0,1.5821642E-1,4.8581295E0,-5.140387E0,-1.9069608E-1],"split_indices":[2,11,13,6,0,0,7,5,0,1,0,0,6,3,0,13,6,12,0,0,0,5,3,1,6,0,0,0,0,0,0,0,0,0,0,0,0,0,0,0,0,0,0,0,0,0,0],"split_type":[0,0,0,0,0,0,0,0,0,0,0,0,0,0,0,0,0,0,0,0,0,0,0,0,0,0,0,0,0,0,0,0,0,0,0,0,0,0,0,0,0,0,0,0,0,0,0],"sum_hessian":[9.852E3,4.506E3,5.346E3,4.5E3,6E0,5.7E1,5.289E3,3.682E3,8.18E2,5E1,7E0,7.4E1,5.215E3,3.113E3,5.69E2,6.87E2,1.31E2,4.8E1,2E0,2E0,5E0,2.8E1,4.6E1,1.23E2,5.092E3,1.4E1,3.099E3,3.75E2,1.94E2,5.9E1,6.28E2,1.05E2,2.6E1,2.3E1,2.5E1,1E0,1E0,1E0,4E0,2.2E1,6E0,2.2E1,2.4E1,8.1E1,4.2E1,9E1,5.002E3],"tree_param":{"num_deleted":"0","num_feature":"14","num_nodes":"47","size_leaf_vector":"1"}},{"base_weights":[-1.9859937E-3,3.4880173E-1,-2.2878575E0,2.852834E-1,1.8987076E1,9.37263E0,-2.9830015E0,3.1553385E-1,-1.2800258E1,9.617994E0,9.2169695E0,-6.781152E0,2.5709686E1,-7.6336656E0,-1.2703589E0,4.6793342E-1,-7.3008585E0,-4.061794E0,1.1352005E1,-1.7666174E1,-2.7938633E0,2.902568E1,-1.3178098E0,-2.0815374E1,-6.259848E0,1.9249998E1,-1.7552993E0,1.090055E-1,3.0165613E0,-1.1059405E0,-8.930943E0,3.5572846E0,4.8933822E-1,-6.2598314E0,1.6699792E0,-3.3147836E0,4.420612E-1,1.2480753E1,6.2538733E0,-1.240387E0,1.4924165E0,-9.163022E0,3.2911913E0,-1.2653228E0,-4.4439793E0,1.5326135E1,-9.529165E-2,-2.0149539E0,-5.545015E-2],"categories":[],"categories_nodes":[],"categories_segments":[],"categories_sizes":[],"default_left":[0,0,0,0,0,0,0,0,0,0,0,0,0,0,0,0,0,0,0,0,0,0,0,0,0,0,0,0,0,0,0,0,0,0,0,0,0,0,0,0,0,0,0,0,0,0,0,0,0],"id":10,"left_children":[1,3,5,7,9,11,13,15,-1,-1,17,19,21,23,25,27,29,-1,31,33,35,37,39,41,43,45,47,-1,-1,-1,-1,-1,-1,-1,-1,-1,-1,-1,-1,-1,-1,-1,-1,-1,-1,-1,-1,-1,-1],"loss_changes":[7.9014824E3,1.0108405E4,1.0654554E4,1.1077367E4,3.4084912E3,1.970333E4,9.85088E3,9.8812705E3,0E0,0E0,1.0282365E3,1.5999086E3,3.3543008E3,5.900082E3,9.049529E3,8.362485E3,1.3452584E4,0E0,6.4213135E1,8.595857E2,1.0379272E3,2.5275E3,1.0919303E2,9.920757E3,5.2300166E3,1.3098744E4,6.901951E3,0E0,0E0,0E0,0E0,0E0,0E0,0E0,0E0,0E0,0E0,0E0,0E0,0E0,0E0,0E0,0E0,0E0,0E0,0E0,0E0,0E0,0E0],"parents":[2147483647,0,0,1,1,2,2,3,3,4,4,5,5,6,6,7,7,10,10,11,11,12,12,13,13,14,14,15,15,16,16,18,18,19,19,20,20,21,21,22,22,23,23,24,24,25,25,26,26],"right_children":[2,4,6,8,10,12,14,16,-1,-1,18,20,22,24,26,28,30,-1,32,34,36,38,40,42,44,46,48,-1,-1,-1,-1,-1,-1,-1,-1,-1,-1,-1,-1,-1,-1,-1,-1,-1,-1,-1,-1,-1,-1],"split_conditions":[6.13546E0,1.160728E1,4.7058823E1,1.206092E1,-2.3440423E0,-7.20728E0,1.3693832E2,1.380182E1,-1.2800258E1,9.617994E0,1.80182E0,1.1E1,1.65091E1,9.0091E0,1.4234378E2,7.5884867E0,3.8607829E0,-4.061794E0,2.1E1,1.4234378E2,5.816973E0,-4.7190523E0,1.7E1,9.7466E0,7.9107614E0,3.89636E0,3.783822E1,1.090055E-1,3.0165613E0,-1.1059405E0,-8.930943E0,3.5572846E0,4.8933822E-1,-6.2598314E0,1.6699792E0,-3.3147836E0,4.420612E-1,1.2480753E1,6.2538733E0,-1.240387E0,1.4924165E0,-9.163022E0,3.2911913E0,-1.2653228E0,-4.4439793E0,1.5326135E1,-9.529165E-2,-2.0149539E0,-5.545015E-2],"split_indices":[12,11,5,9,13,6,0,8,0,0,3,1,8,3,0,13,9,0,1,0,13,6,1,7,4,8,3,0,0,0,0,0,0,0,0,0,0,0,0,0,0,0,0,0,0,0,0,0,0],"split_type":[0,0,0,0,0,0,0,0,0,0,0,0,0,0,0,0,0,0,0,0,0,0,0,0,0,0,0,0,0,0,0,0,0,0,0,0,0,0,0,0,0,0,0,0,0,0,0,0,0],"sum_hessian":[9.852E3,8.542E3,1.31E3,8.514E3,2.8E1,7.3E1,1.237E3,8.509E3,5E0,1.1E1,1.7E1,3.7E1,3.6E1,3.32E2,9.05E2,8.343E3,1.66E2,1E0,1.6E1,9E0,2.8E1,3.2E1,4E0,3E1,3.02E2,2E1,8.85E2,8.254E3,8.9E1,1.44E2,2.2E1,1.5E1,1E0,8E0,1E0,9E0,1.9E1,1.1E1,2.1E1,3E0,1E0,2.3E1,7E0,2.45E2,5.7E1,7E0,1.3E1,2.12E2,6.73E2],"tree_param":{"num_deleted":"0","num_feature":"14","num_nodes":"49","size_leaf_vector":"1"}},{"base_weights":[-1.0862377E-3,1.2936076E0,-5.0784844E-1,1.376826E0,-2.7630486E1,-2.0529705E1,-4.510815E-1,-1.3874547E0,2.286079E0,-1.3287896E1,-8.774392E0,-1.7854275E1,-1.0149242E1,-7.2953534E-1,2.9479396E0,-1.4835901E1,-9.6249804E-2,6.3958626E0,-1.0466348E-2,-3.9870696E0,-4.0012637E-1,-1.645854E1,-9.939649E-1,-5.557884E-1,-7.2254243E0,4.438332E0,-1.8750408E0,-1.3706043E0,-6.197956E0,-1.5832523E0,5.172293E-1,-1.9513484E0,2.3035138E0,-1.1641433E0,5.19441E-1,-1.0960198E-2,-6.167843E0,1.3273915E0,-2.2556183E0,-2.3109263E-1,1.0942664E0,-8.78815E0,-1.3745749E0,9.015427E-1,4.2659826E0,-1.9833144E0,2.3601425E0],"categories":[],"categories_nodes":[],"categories_segments":[],"categories_sizes":[],"default_left":[0,0,0,0,0,0,0,0,0,0,0,0,0,0,0,0,0,0,0,0,0,0,0,0,0,0,0,0,0,0,0,0,0,0,0,0,0,0,0,0,0,0,0,0,0,0,0],"id":11,"left_children":[1,3,5,7,9,11,13,15,17,-1,19,-1,21,23,25,27,29,31,33,-1,-1,35,37,39,41,43,45,-1,-1,-1,-1,-1,-1,-1,-1,-1,-1,-1,-1,-1,-1,-1,-1,-1,-1,-1,-1],"loss_changes":[6.465229E3,6.7103E3,8.0399966E3,6.952806E3,2.124873E3,7.4895273E3,6.687072E3,1.1893392E4,1.9641178E4,0E0,1.5027777E2,0E0,9.6561816E2,7.3648804E3,3.8539736E3,3.4933613E3,5.9133364E3,1.2392453E4,9.013112E3,0E0,0E0,6.7270435E2,3.161085E2,5.737638E3,9.78324E3,5.6909985E3,5.911668E3,0E0,0E0,0E0,0E0,0E0,0E0,0E0,0E0,0E0,0E0,0E0,0E0,0E0,0E0,0E0,0E0,0E0,0E0,0E0,0E0],"parents":[2147483647,0,0,1,1,2,2,3,3,4,4,5,5,6,6,7,7,8,8,10,10,12,12,13,13,14,14,15,15,16,16,17,17,18,18,21,21,22,22,23,23,24,24,25,25,26,26],"right_children":[2,4,6,8,10,12,14,16,18,-1,20,-1,22,24,26,28,30,32,34,-1,-1,36,38,40,42,44,46,-1,-1,-1,-1,-1,-1,-1,-1,-1,-1,-1,-1,-1,-1,-1,-1,-1,-1,-1,-1],"split_conditions":[-3.4545977E0,3.5585766E0,-5.590891E1,7E0,-1.80182E0,1.2E1,3.0090393E2,-3.60364E1,1.2E1,-1.3287896E1,1.5495651E2,-1.7854275E1,7.0261693E-1,8.468554E1,3.675713E2,-6.3113427E0,-5.0322113E0,7.567644E1,-5.491261E0,-3.9870696E0,-4.0012637E-1,6.126188E1,2.3166256E0,2.3E1,1.0255767E1,3.5495853E2,1.2E1,-1.3706043E0,-6.197956E0,-1.5832523E0,5.172293E-1,-1.9513484E0,2.3035138E0,-1.1641433E0,5.19441E-1,-1.0960198E-2,-6.167843E0,1.3273915E0,-2.2556183E0,-2.3109263E-1,1.0942664E0,-8.78815E0,-1.3745749E0,9.015427E-1,4.2659826E0,-1.9833144E0,2.3601425E0],"split_indices":[12,4,8,1,2,1,0,3,1,0,0,0,4,3,0,4,11,0,6,0,0,0,6,1,12,0,8,0,0,0,0,0,0,0,0,0,0,0,0,0,0,0,0,0,0,0,0],"split_type":[0,0,0,0,0,0,0,0,0,0,0,0,0,0,0,0,0,0,0,0,0,0,0,0,0,0,0,0,0,0,0,0,0,0,0,0,0,0,0,0,0,0,0,0,0,0,0],"sum_hessian":[9.852E3,2.771E3,7.081E3,2.764E3,7E0,1.9E1,7.062E3,6.84E2,2.08E3,3E0,4E0,3E0,1.6E1,6.528E3,5.34E2,5.9E1,6.25E2,7.45E2,1.335E3,2E0,2E0,9E0,7E0,6.359E3,1.69E2,4.08E2,1.26E2,2.2E1,3.7E1,1.62E2,4.63E2,6.7E1,6.78E2,4.14E2,9.21E2,2E0,7E0,4E0,3E0,6.051E3,3.08E2,1.7E1,1.52E2,3.57E2,5.1E1,8.5E1,4.1E1],"tree_param":{"num_deleted":"0","num_feature":"14","num_nodes":"47","size_leaf_vector":"1"}},{"base_weights":[-6.3747414E-3,-2.0350769E0,2.2889109E-1,-7.653432E-1,-7.498203E0,-4.542675E0,4.001369E-1,-1.0399456E0,1.5353565E1,-8.769228E0,1.0775161E1,-3.1584399E0,-1.8729462E1,2.3985372E0,-8.0549225E-2,-8.049607E-1,-9.82387E0,3.1692176E0,5.5901766E0,-3.9999208E0,-1.5305771E1,1.1473991E1,-1.2909458E0,-1.6211544E1,-1.6437633E0,-2.80864E1,-1.2490637E1,-2.4156532E0,3.356843E0,-1.1720015E0,1.0763423E0,7.8587854E-1,-6.648362E-1,-4.0322492E-1,-9.742383E0,-6.0534887E0,-9.601386E-1,-4.4537687E0,1.9917485E0,4.615784E0,-5.3668575E0,-4.6661744E0,-1.5218459E-1,-4.943835E0,-1.241309E1,-3.945214E0,-1.9040051E-1,-1.1060199E-1,-8.548864E0,7.5593066E-1,3.3154986E0,-2.8250167E-1,-3.5814197E0,3.9682427E-1,-2.4108238E0],"categories":[],"categories_nodes":[],"categories_segments":[],"categories_sizes":[],"default_left":[0,0,0,0,0,0,0,0,0,0,0,0,0,0,0,0,0,0,0,0,0,0,0,0,0,0,0,0,0,0,0,0,0,0,0,0,0,0,0,0,0,0,0,0,0,0,0,0,0,0,0,0,0,0,0],"id":12,"left_children":[1,3,5,7,9,11,13,15,17,19,21,23,25,27,29,31,-1,-1,-1,33,35,-1,37,39,41,43,45,47,49,51,53,-1,-1,-1,-1,-1,-1,-1,-1,-1,-1,-1,-1,-1,-1,-1,-1,-1,-1,-1,-1,-1,-1,-1,-1],"loss_changes":[4.703148E3,7.097456E3,7.2169043E3,3.698641E3,4.57709E3,5.950028E3,8.189336E3,6.075597E3,2.3108154E1,5.581414E3,4.358533E3,5.509297E3,1.2253418E3,7.634171E3,8.679743E3,3.9395386E3,0E0,0E0,0E0,7.972512E3,4.41816E3,0E0,1.1734863E3,1.8128262E3,3.9758835E3,8.607593E2,1.3251904E2,1.4670751E4,8.854477E3,8.759599E3,7.503355E3,0E0,0E0,0E0,0E0,0E0,0E0,0E0,0E0,0E0,0E0,0E0,0E0,0E0,0E0,0E0,0E0,0E0,0E0,0E0,0E0,0E0,0E0,0E0,0E0],"parents":[2147483647,0,0,1,1,2,2,3,3,4,4,5,5,6,6,7,7,8,8,9,9,10,10,11,11,12,12,13,13,14,14,15,15,19,19,20,20,22,22,23,23,24,24,25,25,26,26,27,27,28,28,29,29,30,30],"right_children":[2,4,6,8,10,12,14,16,18,20,22,24,26,28,30,32,-1,-1,-1,34,36,-1,38,40,42,44,46,48,50,52,54,-1,-1,-1,-1,-1,-1,-1,-1,-1,-1,-1,-1,-1,-1,-1,-1,-1,-1,-1,-1,-1,-1,-1,-1],"split_conditions":[8.10819E1,1.8758622E0,-2.6210613E1,2.25182E0,1.516456E1,4.00364E0,-4.118446E0,2.92682E0,1.9485661E0,6.44818E0,5.946006E1,-1.01007395E1,1.80182E0,1.081092E2,1.1154124E0,7E0,-9.82387E0,3.1692176E0,5.5901766E0,2.1E1,1.6E1,1.1473991E1,2.342366E1,-1.1171284E2,9E0,7.0261693E-1,1.081092E1,-2.1180695E-1,9.936974E0,6.1410165E0,1.982002E1,7.8587854E-1,-6.648362E-1,-4.0322492E-1,-9.742383E0,-6.0534887E0,-9.601386E-1,-4.4537687E0,1.9917485E0,4.615784E0,-5.3668575E0,-4.6661744E0,-1.5218459E-1,-4.943835E0,-1.241309E1,-3.945214E0,-1.9040051E-1,-1.1060199E-1,-8.548864E0,7.5593066E-1,3.3154986E0,-2.8250167E-1,-3.5814197E0,3.9682427E-1,-2.4108238E0],"split_indices":[0,12,8,10,9,9,6,9,11,8,0,4,6,0,6,1,0,0,0,1,1,0,2,2,1,4,2,4,8,4,13,0,0,0,0,0,0,0,0,0,0,0,0,0,0,0,0,0,0,0,0,0,0,0,0],"split_type":[0,0,0,0,0,0,0,0,0,0,0,0,0,0,0,0,0,0,0,0,0,0,0,0,0,0,0,0,0,0,0,0,0,0,0,0,0,0,0,0,0,0,0,0,0,0,0,0,0,0,0,0,0,0,0],"sum_hessian":[9.852E3,1.023E3,8.829E3,8.31E2,1.92E2,3.05E2,8.524E3,8.18E2,1.3E1,1.8E2,1.2E1,2.79E2,2.6E1,1.652E3,6.872E3,8.13E2,5E0,7E0,6E0,1.05E2,7.5E1,3E0,9E0,2.8E1,2.51E2,9E0,1.7E1,2.74E2,1.378E3,3.536E3,3.336E3,2.37E2,5.76E2,9.7E1,8E0,5.3E1,2.2E1,3E0,6E0,1E0,2.7E1,1.8E1,2.33E2,6E0,3E0,1.6E1,1E0,2.55E2,1.9E1,1.244E3,1.34E2,3.463E3,7.3E1,3.249E3,8.7E1],"tree_param":{"num_deleted":"0","num_feature":"14","num_nodes":"55","size_leaf_vector":"1"}},{"base_weights":[-9.193809E-3,-2.3063934E0,2.0348729E-1,1.2555975E0,-5.4763436E0,8.863056E-1,-7.9792315E-1,-1.3313119E1,2.1115122E0,-7.376825E0,3.9739144E-1,-8.7211305E-1,1.6789476E0,-8.15294E0,-5.2235305E-1,-1.978411E1,7.240208E0,3.0627072E0,-1.1251631E1,-6.7374363E0,-1.613827E1,8.566956E0,-2.136014E0,5.2961354E0,-2.3300812E0,-1.9099133E0,2.418178E0,-1.5768305E1,-4.423899E0,9.579152E0,-6.527509E-1,-6.2848096E0,-1.7100814E-1,-3.1721878E-1,2.7333624E0,1.4877222E-1,2.6590073E0,-6.5715117E0,-8.0670685E-1,-3.0314715E0,-1.4191649E0,-1.0572718E0,-5.892291E0,-2.223599E0,3.0622106E0,-1.9586445E0,7.2367036E-1,1.2176998E0,6.312319E0,-5.4626614E-1,-4.8280296E0,5.8286715E0,-8.683014E-1,8.6905044E-1,-3.5293663E-1,-2.9352112E0,-1.1186527E1,-2.9145088E0,9.216756E-1,3.6368876E0,-2.6928256E0,-3.6850098E-1,5.402985E-1],"categories":[],"categories_nodes":[],"categories_segments":[],"categories_sizes":[],"default_left":[0,0,0,0,0,0,0,0,0,0,0,0,0,0,0,0,0,0,0,0,0,0,0,0,0,0,0,0,0,0,0,0,0,0,0,0,0,0,0,0,0,0,0,0,0,0,0,0,0,0,0,0,0,0,0,0,0,0,0,0,0,0,0],"id":13,"left_children":[1,3,5,7,9,11,13,15,17,19,21,23,25,27,29,31,33,35,37,39,41,43,45,47,49,51,53,55,57,59,61,-1,-1,-1,-1,-1,-1,-1,-1,-1,-1,-1,-1,-1,-1,-1,-1,-1,-1,-1,-1,-1,-1,-1,-1,-1,-1,-1,-1,-1,-1,-1,-1],"loss_changes":[4.8143584E3,9.43514E3,6.1677314E3,4.9411245E3,4.9369443E3,7.4763945E3,7.40783E3,3.0692502E3,4.7756465E3,1.7623262E3,2.2742522E3,1.5003855E4,9.812744E3,3.6787793E3,4.650752E3,3.6867578E2,1.0278308E2,5.191904E3,2.2216208E3,2.0674932E3,9.0281006E2,7.5717065E2,1.694031E3,6.1282734E3,9.424781E3,1.3332316E4,5.278752E3,5.172802E3,3.5995261E3,2.2328584E3,4.9199834E3,0E0,0E0,0E0,0E0,0E0,0E0,0E0,0E0,0E0,0E0,0E0,0E0,0E0,0E0,0E0,0E0,0E0,0E0,0E0,0E0,0E0,0E0,0E0,0E0,0E0,0E0,0E0,0E0,0E0,0E0,0E0,0E0],"parents":[2147483647,0,0,1,1,2,2,3,3,4,4,5,5,6,6,7,7,8,8,9,9,10,10,11,11,12,12,13,13,14,14,15,15,16,16,17,17,18,18,19,19,20,20,21,21,22,22,23,23,24,24,25,25,26,26,27,27,28,28,29,29,30,30],"right_children":[2,4,6,8,10,12,14,16,18,20,22,24,26,28,30,32,34,36,38,40,42,44,46,48,50,52,54,56,58,60,62,-1,-1,-1,-1,-1,-1,-1,-1,-1,-1,-1,-1,-1,-1,-1,-1,-1,-1,-1,-1,-1,-1,-1,-1,-1,-1,-1,-1,-1,-1,-1,-1],"split_conditions":[2E0,7.318E-2,1.5E1,-5.8676543E0,6.978476E0,1.2973103E2,-1.021638E1,1.621638E2,1.9136051E0,6.758402E0,9.444444E1,5E0,4E0,2E1,-1.261274E1,-3.60364E0,1.7297472E2,-1.1943506E0,1.4285715E-1,3.60364E0,5.8858514E0,8.468554E1,2.1441658E2,3.7215657E0,1.2792922E2,1.351365E2,9.8841E0,-3.4985306E0,4.6153847E1,6.6666665E0,5.0622563E0,-6.2848096E0,-1.7100814E-1,-3.1721878E-1,2.7333624E0,1.4877222E-1,2.6590073E0,-6.5715117E0,-8.0670685E-1,-3.0314715E0,-1.4191649E0,-1.0572718E0,-5.892291E0,-2.223599E0,3.0622106E0,-1.9586445E0,7.2367036E-1,1.2176998E0,6.312319E0,-5.4626614E-1,-4.8280296E0,5.8286715E0,-8.683014E-1,8.6905044E-1,-3.5293663E-1,-2.9352112E0,-1.1186527E1,-2.9145088E0,9.216756E-1,3.6368876E0,-2.6928256E0,-3.6850098E-1,5.402985E-1],"split_indices":[1,8,1,4,11,0,13,0,4,11,5,1,1,1,12,2,0,4,11,8,9,0,0,11,0,0,9,4,5,5,6,0,0,0,0,0,0,0,0,0,0,0,0,0,0,0,0,0,0,0,0,0,0,0,0,0,0,0,0,0,0,0,0],"split_type":[0,0,0,0,0,0,0,0,0,0,0,0,0,0,0,0,0,0,0,0,0,0,0,0,0,0,0,0,0,0,0,0,0,0,0,0,0,0,0,0,0,0,0,0,0,0,0,0,0,0,0,0,0,0,0,0,0,0,0,0,0,0,0],"sum_hessian":[9.852E3,8.34E2,9.018E3,3.93E2,4.41E2,5.362E3,3.656E3,2.1E1,3.72E2,3.33E2,1.08E2,1.666E3,3.696E3,1.31E2,3.525E3,1.6E1,5E0,3.48E2,2.4E1,3.12E2,2.1E1,2.5E1,8.3E1,3.18E2,1.348E3,6.31E2,3.065E3,4.2E1,8.9E1,4.4E1,3.481E3,1.5E1,1E0,1E0,4E0,2.42E2,1.06E2,1E1,1.4E1,1.15E2,1.97E2,5E0,1.6E1,2E0,2.3E1,4.2E1,4.1E1,2.96E2,2.2E1,1.301E3,4.7E1,2.7E1,6.04E2,2.705E3,3.6E2,3.4E1,8E0,5.2E1,3.7E1,3.9E1,5E0,2.82E3,6.61E2],"tree_param":{"num_deleted":"0","num_feature":"14","num_nodes":"63","size_leaf_vector":"1"}},{"base_weights":[-9.254422E-3,-3.4947485E-2,1.2624487E1,1.4313E0,-2.4921615E-1,5.901672E0,4.737147E0,-1.1704648E1,1.7628222E0,-6.846207E0,-1.2305955E-1,2.5253384E0,-1.0977961E0,4.0519395E0,-1.7072418E1,1.5243963E0,1.680381E1,-1.0645805E1,2.731613E-1,-6.3050106E-2,-8.484325E0,-1.1929597E0,6.9895136E-1,-1.5848247E0,-5.8883767E0,5.1770175E-1,-1.4150178E1,6.602433E0,-5.4865494E0,4.2217526E0,-3.3056383E0,1.34355345E1,-3.964288E-1,-9.6805915E-2,5.4372543E-1,-3.1184375E0,2.239681E0],"categories":[],"categories_nodes":[],"categories_segments":[],"categories_sizes":[],"default_left":[0,0,0,0,0,0,0,0,0,0,0,0,0,0,0,0,0,0,0,0,0,0,0,0,0,0,0,0,0,0,0,0,0,0,0,0,0],"id":14,"left_children":[1,3,5,7,9,11,-1,13,15,17,19,-1,21,-1,23,25,27,29,31,33,35,-1,-1,-1,-1,-1,-1,-1,-1,-1,-1,-1,-1,-1,-1,-1,-1],"loss_changes":[3.19872E3,3.0899133E3,3.3249878E2,5.4816245E3,7.1407295E3,1.5013315E2,0E0,4.425739E3,4.3638447E3,4.358077E3,4.224743E3,0E0,3.8866432E1,0E0,6.7965283E2,1.1900758E4,3.8724834E3,1.123125E3,4.1049453E3,4.0723735E3,1.9059111E3,0E0,0E0,0E0,0E0,0E0,0E0,0E0,0E0,0E0,0E0,0E0,0E0,0E0,0E0,0E0,0E0],"parents":[2147483647,0,0,1,1,2,2,3,3,4,4,5,5,7,7,8,8,9,9,10,10,12,12,14,14,15,15,16,16,17,17,18,18,19,19,20,20],"right_children":[2,4,6,8,10,12,-1,14,16,18,20,-1,22,-1,24,26,28,30,32,34,36,-1,-1,-1,-1,-1,-1,-1,-1,-1,-1,-1,-1,-1,-1,-1,-1],"split_conditions":[1.4234378E2,-5.40546E0,2.3603842E2,-1.9648418E1,-5.40546E0,2.0000201E2,4.737147E0,1.6396562E2,8.1818184E1,1.6302181E0,2.3080456E1,2.5253384E0,2.1261476E2,4.0519395E0,-1.496638E1,7.227723E1,1.19818E0,-1.496638E1,-6.983333E0,2.684712E2,1.2252376E2,-1.1929597E0,6.9895136E-1,-1.5848247E0,-5.8883767E0,5.1770175E-1,-1.4150178E1,6.602433E0,-5.4865494E0,4.2217526E0,-3.3056383E0,1.34355345E1,-3.964288E-1,-9.6805915E-2,5.4372543E-1,-3.1184375E0,2.239681E0],"split_indices":[3,12,0,6,13,0,0,0,5,6,6,0,0,0,7,5,8,7,7,0,3,0,0,0,0,0,0,0,0,0,0,0,0,0,0,0,0],"split_type":[0,0,0,0,0,0,0,0,0,0,0,0,0,0,0,0,0,0,0,0,0,0,0,0,0,0,0,0,0,0,0,0,0,0,0,0,0],"sum_hessian":[9.852E3,9.833E3,1.9E1,1.253E3,8.58E3,7E0,1.2E1,3E1,1.223E3,1.6E2,8.42E3,5E0,2E0,5E0,2.5E1,1.205E3,1.8E1,1.04E2,5.6E1,8.361E3,5.9E1,1E0,1E0,5E0,2E1,1.201E3,4E0,1.6E1,2E0,1E0,1.03E2,1E0,5.5E1,7.345E3,1.016E3,5.3E1,6E0],"tree_param":{"num_deleted":"0","num_feature":"14","num_nodes":"37","size_leaf_vector":"1"}},{"base_weights":[-6.036153E-3,-1.976556E0,1.2399664E-1,-7.7762327E0,-5.697712E-1,7.11133E-2,5.9600587E0,-3.3028197E0,-1.9334133E1,1.2705992E0,-8.077162E0,2.585053E-1,-2.5021768E0,-4.783931E0,8.799933E0,-2.383138E1,-1.8009907E-2,-3.211456E1,-5.416406E0,7.783239E-1,1.8429478E1,-1.57904625E1,-2.387294E0,2.3685905E-1,3.716565E1,1.0848019E1,-2.8740911E0,-1.5243871E1,5.108408E0,1.37684355E1,1.9860371E0,-9.688184E0,-2.9959474E0,4.0707785E-1,-4.885525E0,-6.068504E0,-1.1027702E1,-2.784216E0,2.838838E0,3.645972E0,5.6675117E-2,1.2033699E0,1.0478739E1,1.8857148E0,-6.6587453E0,-1.5349483E1,-1.8078151E-1,8.583634E-2,-3.1513672E0,1.4177746E1,4.40508E0,-2.787348E0,-2.861153E-1,-2.6231446E0,-1.0086647E1,3.5952455E-1,1.983875E0,1.1108482E0,5.4815054E0,-5.4621315E-1,2.8202786E0],"categories":[],"categories_nodes":[],"categories_segments":[],"categories_sizes":[],"default_left":[0,0,0,0,0,0,0,0,0,0,0,0,0,0,0,0,0,0,0,0,0,0,0,0,0,0,0,0,0,0,0,0,0,0,0,0,0,0,0,0,0,0,0,0,0,0,0,0,0,0,0,0,0,0,0,0,0,0,0,0,0],"id":15,"left_children":[1,3,5,7,9,11,13,15,17,19,21,23,25,27,29,31,33,35,37,39,41,43,45,47,49,-1,51,53,55,57,59,-1,-1,-1,-1,-1,-1,-1,-1,-1,-1,-1,-1,-1,-1,-1,-1,-1,-1,-1,-1,-1,-1,-1,-1,-1,-1,-1,-1,-1,-1],"loss_changes":[2.524901E3,4.9724966E3,2.8525562E3,6.0888315E3,6.8079214E3,4.418692E3,2.5745598E3,5.8661914E3,5.69591E3,3.3306255E3,4.2194062E3,6.8146206E3,9.047695E3,1.9403905E3,2.2070757E3,1.083456E3,1.7219277E3,1.9491016E2,1.0652858E3,2.5856228E3,2.476747E3,5.9371514E3,4.9311846E3,4.5203115E3,4.406787E2,0E0,7.594535E3,7.8115283E2,5.0901154E1,1.6548052E3,8.3568835E2,0E0,0E0,0E0,0E0,0E0,0E0,0E0,0E0,0E0,0E0,0E0,0E0,0E0,0E0,0E0,0E0,0E0,0E0,0E0,0E0,0E0,0E0,0E0,0E0,0E0,0E0,0E0,0E0,0E0,0E0],"parents":[2147483647,0,0,1,1,2,2,3,3,4,4,5,5,6,6,7,7,8,8,9,9,10,10,11,11,12,12,13,13,14,14,15,15,16,16,17,17,18,18,19,19,20,20,21,21,22,22,23,23,24,24,26,26,27,27,28,28,29,29,30,30],"right_children":[2,4,6,8,10,12,14,16,18,20,22,24,26,28,30,32,34,36,38,40,42,44,46,48,50,-1,52,54,56,58,60,-1,-1,-1,-1,-1,-1,-1,-1,-1,-1,-1,-1,-1,-1,-1,-1,-1,-1,-1,-1,-1,-1,-1,-1,-1,-1,-1,-1,-1,-1],"split_conditions":[6.846916E1,-1.982002E1,3.0331343E1,3.5714285E0,7.727273E1,1.380182E1,1.261274E1,-1.081092E1,1.1E1,5.8858514E0,5.40546E1,2.162184E1,-4.50455E1,-4.7190523E0,3.964004E1,5.765824E1,1.6E1,-9.781308E0,-3.60364E0,-2.942921E1,5.3846153E1,1.19818E0,-3.60364E0,1.3900274E1,1.982002E2,1.0848019E1,5.73046E0,-7.20728E0,-3.7752419E0,9.91001E1,7.027098E1,-9.688184E0,-2.9959474E0,4.0707785E-1,-4.885525E0,-6.068504E0,-1.1027702E1,-2.784216E0,2.838838E0,3.645972E0,5.6675117E-2,1.2033699E0,1.0478739E1,1.8857148E0,-6.6587453E0,-1.5349483E1,-1.8078151E-1,8.583634E-2,-3.1513672E0,1.4177746E1,4.40508E0,-2.787348E0,-2.861153E-1,-2.6231446E0,-1.0086647E1,3.5952455E-1,1.983875E0,1.1108482E0,5.4815054E0,-5.4621315E-1,2.8202786E0],"split_indices":[0,3,8,5,5,8,3,8,1,9,0,11,3,6,3,0,1,6,2,8,5,8,2,10,0,0,10,3,6,0,3,0,0,0,0,0,0,0,0,0,0,0,0,0,0,0,0,0,0,0,0,0,0,0,0,0,0,0,0,0,0],"split_type":[0,0,0,0,0,0,0,0,0,0,0,0,0,0,0,0,0,0,0,0,0,0,0,0,0,0,0,0,0,0,0,0,0,0,0,0,0,0,0,0,0,0,0,0,0,0,0,0,0,0,0,0,0,0,0,0,0,0,0,0,0],"sum_hessian":[9.852E3,6.09E2,9.243E3,1.18E2,4.91E2,9.161E3,8.2E1,8.6E1,3.2E1,3.95E2,9.6E1,8.54E3,6.21E2,1.7E1,6.5E1,1.1E1,7.5E1,1.6E1,1.6E1,3.85E2,1E1,4E1,5.6E1,8.536E3,4E0,5E0,6.16E2,8E0,9E0,3.7E1,2.8E1,6E0,5E0,7E1,5E0,6E0,1E1,1.3E1,3E0,1.8E1,3.67E2,6E0,4E0,9E0,3.1E1,1E0,5.5E1,8.498E3,3.8E1,2E0,2E0,1.41E2,4.75E2,7E0,1E0,3E0,6E0,1.2E1,2.5E1,1.9E1,9E0],"tree_param":{"num_deleted":"0","num_feature":"14","num_nodes":"61","size_leaf_vector":"1"}},{"base_weights":[-5.9841466E-3,-1.6879898E0,1.4974052E-1,8.737689E-1,-4.1028414E0,5.7983387E-1,-4.8103347E-1,1.8652692E-1,2.3422672E1,7.932975E-1,-6.203822E0,4.1456223E-1,6.482626E0,-1.1077468E1,-3.8148606E-1,-1.312632E1,9.3154895E-1,7.6436105E0,1.20951325E-1,3.707103E0,-9.042957E0,-2.1776962E1,-4.652263E0,8.5891765E-1,-1.3930293E0,1.11294E1,-1.1841424E0,-7.4077115E0,-1.1024616E1,-1.5174565E-1,-3.9702206E0,-4.527003E0,1.1057445E0,-2.2411087E0,5.2115405E-1,4.3060657E-1,3.8507743E0,-3.2986128E0,1.7978278E-1,-8.27693E0,-3.663545E0,-1.8645796E0,3.1249397E-2,1.856337E-1,2.56041E0,-1.9022378E0,9.094068E-2,-3.3151398E0,4.2012243E0,7.837908E0,-1.3121772E0,2.1960738E0,-3.3705695E0,-7.2656095E-2,6.535397E0,-3.611862E0,-3.3195245E-1],"categories":[],"categories_nodes":[],"categories_segments":[],"categories_sizes":[],"default_left":[0,0,0,0,0,0,0,0,0,0,0,0,0,0,0,0,0,0,0,0,0,0,0,0,0,0,0,0,0,0,0,0,0,0,0,0,0,0,0,0,0,0,0,0,0,0,0,0,0,0,0,0,0,0,0,0,0],"id":16,"left_children":[1,3,5,7,9,11,13,15,17,19,21,23,25,27,29,31,33,-1,-1,35,37,39,41,43,45,47,49,51,-1,53,55,-1,-1,-1,-1,-1,-1,-1,-1,-1,-1,-1,-1,-1,-1,-1,-1,-1,-1,-1,-1,-1,-1,-1,-1,-1,-1],"loss_changes":[2.5810469E3,5.169117E3,2.4470588E3,6.287232E3,4.428199E3,5.229263E3,3.853352E3,3.9299817E3,5.5767334E2,3.7594448E3,7.1716426E3,4.192363E3,5.214536E3,2.9308223E3,2.9873037E3,7.4890894E2,2.551293E3,0E0,0E0,2.0761497E3,5.713589E2,1.1642861E3,2.0450806E3,7.7161016E3,8.645911E3,5.956914E3,4.9926885E3,1.8297623E3,0E0,6.764618E3,5.0242686E3,0E0,0E0,0E0,0E0,0E0,0E0,0E0,0E0,0E0,0E0,0E0,0E0,0E0,0E0,0E0,0E0,0E0,0E0,0E0,0E0,0E0,0E0,0E0,0E0,0E0,0E0],"parents":[2147483647,0,0,1,1,2,2,3,3,4,4,5,5,6,6,7,7,8,8,9,9,10,10,11,11,12,12,13,13,14,14,15,15,16,16,19,19,20,20,21,21,22,22,23,23,24,24,25,25,26,26,27,27,29,29,30,30],"right_children":[2,4,6,8,10,12,14,16,18,20,22,24,26,28,30,32,34,-1,-1,36,38,40,42,44,46,48,50,52,-1,54,56,-1,-1,-1,-1,-1,-1,-1,-1,-1,-1,-1,-1,-1,-1,-1,-1,-1,-1,-1,-1,-1,-1,-1,-1,-1,-1],"split_conditions":[2E0,2.957143E-1,1.5E1,1.05E0,1.7297472E2,3.441476E2,-1.6862835E1,-3.783822E1,1.6396562E2,3.3815095E0,1.891911E2,2.522548E2,3.9459857E2,2.0000201E2,1.50091E1,-1.80182E0,-6.59454E0,7.6436105E0,1.20951325E-1,1.982002E1,7.77864E0,3.4673755E0,3.063094E1,2.4504752E2,2.6486755E2,-4.396121E1,1.621638E1,-4.776864E1,-1.1024616E1,1.470728E1,-2.5859412E-15,-4.527003E0,1.1057445E0,-2.2411087E0,5.2115405E-1,4.3060657E-1,3.8507743E0,-3.2986128E0,1.7978278E-1,-8.27693E0,-3.663545E0,-1.8645796E0,3.1249397E-2,1.856337E-1,2.56041E0,-1.9022378E0,9.094068E-2,-3.3151398E0,4.2012243E0,7.837908E0,-1.3121772E0,2.1960738E0,-3.3705695E0,-7.2656095E-2,6.535397E0,-3.611862E0,-3.3195245E-1],"split_indices":[1,10,1,9,0,0,12,3,0,4,0,0,0,0,8,9,13,0,0,3,9,11,3,0,0,8,3,8,0,8,6,0,0,0,0,0,0,0,0,0,0,0,0,0,0,0,0,0,0,0,0,0,0,0,0,0,0],"split_type":[0,0,0,0,0,0,0,0,0,0,0,0,0,0,0,0,0,0,0,0,0,0,0,0,0,0,0,0,0,0,0,0,0,0,0,0,0,0,0,0,0,0,0,0,0,0,0,0,0,0,0,0,0,0,0,0,0],"sum_hessian":[9.852E3,8.34E2,9.018E3,4.05E2,4.29E2,5.362E3,3.656E3,3.94E2,1.1E1,1.29E2,3E2,5.217E3,1.45E2,3.3E1,3.623E3,2E1,3.74E2,1E1,1E0,1E2,2.9E1,2.6E1,2.74E2,4.188E3,1.029E3,9E1,5.5E1,3E1,3E0,3.406E3,2.17E2,1.8E1,2E0,3.2E1,3.42E2,8.1E1,1.9E1,2.4E1,5E0,1.5E1,1.1E1,2.06E2,6.8E1,4.062E3,1.26E2,2.62E2,7.67E2,1E1,8E1,5E0,5E1,6E0,2.4E1,3.393E3,1.3E1,5.6E1,1.61E2],"tree_param":{"num_deleted":"0","num_feature":"14","num_nodes":"57","size_leaf_vector":"1"}},{"base_weights":[-5.338078E-3,2.4217012E0,-1.0055567E-1,1.0767384E1,6.1674837E-2,-6.519008E0,-7.999775E-2,1.6591162E1,3.587452E0,-1.0082741E1,1.3539685E0,-6.619695E0,-3.3416145E-2,-6.908991E0,1.7844866E1,-2.2522168E0,1.6427752E1,1.0273396E0,-1.4957878E1,-2.2788332E0,5.9226837E0,-1.3118089E1,-4.1970587E0,-9.414343E0,-4.4097146E-3,-3.4279296E0,3.1888363E-1,7.454189E0,3.6932068E0,3.867645E0,-2.4592059E0,6.7942758E0,9.571411E-1,-1.2564859E0,1.8215228E0,-5.049576E0,3.9406512E0,3.1926532E0,-1.2935104E0,4.0321E0,1.587028E-1,-2.1169164E0,2.2689328E0,1.8345814E0,-3.237353E0,-9.838314E0,7.748899E-4],"categories":[],"categories_nodes":[],"categories_segments":[],"categories_sizes":[],"default_left":[0,0,0,0,0,0,0,0,0,0,0,0,0,0,0,0,0,0,0,0,0,0,0,0,0,0,0,0,0,0,0,0,0,0,0,0,0,0,0,0,0,0,0,0,0,0,0],"id":17,"left_children":[1,3,5,7,9,-1,11,13,15,17,19,21,23,25,27,29,31,33,35,37,39,-1,41,43,45,-1,-1,-1,-1,-1,-1,-1,-1,-1,-1,-1,-1,-1,-1,-1,-1,-1,-1,-1,-1,-1,-1],"loss_changes":[2.2772407E3,7.326259E3,4.2145E3,3.369255E3,3.828535E3,0E0,2.8858396E3,1.4490908E3,2.8863567E3,1.8027512E3,4.312181E3,5.839603E3,2.5599429E3,1.20183914E2,1.3604785E3,2.5366353E3,9.157478E2,3.148371E2,1.4320029E3,3.854558E3,4.655882E3,0E0,2.2054448E3,6.8606006E2,2.1508228E3,0E0,0E0,0E0,0E0,0E0,0E0,0E0,0E0,0E0,0E0,0E0,0E0,0E0,0E0,0E0,0E0,0E0,0E0,0E0,0E0,0E0,0E0],"parents":[2147483647,0,0,1,1,2,2,3,3,4,4,6,6,7,7,8,8,9,9,10,10,11,11,12,12,13,13,14,14,15,15,16,16,17,17,18,18,19,19,20,20,22,22,23,23,24,24],"right_children":[2,4,6,8,10,-1,12,14,16,18,20,22,24,26,28,30,32,34,36,38,40,-1,42,44,46,-1,-1,-1,-1,-1,-1,-1,-1,-1,-1,-1,-1,-1,-1,-1,-1,-1,-1,-1,-1,-1,-1],"split_conditions":[-1.2757349E1,1.1E1,-1.6862835E1,-9.06077E0,-1.6646864E1,-6.519008E0,-4.776864E1,3E0,-1.261274E1,1.2E1,2.3063297E2,1.2E1,-9.0091E1,8.828918E1,9E0,-3.063094E1,-1.261274E1,2.2342567E2,1.8E1,-4.776864E1,-2.6598296E0,-1.3118089E1,8.571429E1,9E0,-1.2668063E1,-3.4279296E0,3.1888363E-1,7.454189E0,3.6932068E0,3.867645E0,-2.4592059E0,6.7942758E0,9.571411E-1,-1.2564859E0,1.8215228E0,-5.049576E0,3.9406512E0,3.1926532E0,-1.2935104E0,4.0321E0,1.587028E-1,-2.1169164E0,2.2689328E0,1.8345814E0,-3.237353E0,-9.838314E0,7.748899E-4],"split_indices":[9,1,12,4,4,0,8,1,12,1,0,1,3,0,1,2,2,0,1,8,6,0,5,1,10,0,0,0,0,0,0,0,0,0,0,0,0,0,0,0,0,0,0,0,0,0,0],"split_type":[0,0,0,0,0,0,0,0,0,0,0,0,0,0,0,0,0,0,0,0,0,0,0,0,0,0,0,0,0,0,0,0,0,0,0,0,0,0,0,0,0,0,0,0,0,0,0],"sum_hessian":[9.852E3,3.71E2,9.481E3,8.1E1,2.9E2,8E0,9.473E3,4.4E1,3.7E1,3.2E1,2.58E2,6.6E1,9.407E3,2E0,4.2E1,2.6E1,1.1E1,1E1,2.2E1,1.44E2,1.14E2,3E0,6.3E1,2.8E1,9.379E3,1E0,1E0,1.7E1,2.5E1,7E0,1.9E1,7E0,4E0,5E0,5E0,2.1E1,1E0,1.9E1,1.25E2,4.7E1,6.7E1,5.1E1,1.2E1,2E0,2.6E1,1E0,9.378E3],"tree_param":{"num_deleted":"0","num_feature":"14","num_nodes":"47","size_leaf_vector":"1"}},{"base_weights":[-4.5467485E-3,-9.856698E-2,2.096883E0,1.4086603E-1,-1.6501514E0,1.635191E0,3.3834995E1,4.896835E-1,-1.8549104E0,-3.4187167E0,1.5228307E0,2.1342607E0,-1.697904E1,1.176539E1,1.0380198E0,2.2464155E-1,4.0338817E0,-3.4954724E0,1.0775687E0,-1.997685E0,-1.0904956E1,3.1111565E0,-5.2729645E0,4.929713E0,1.5452197E0,-1.9996069E1,-2.2682729E0,-1.9661419E0,9.249906E-2,-8.859992E-1,1.9824451E0,1.9389316E0,-1.3552014E0,6.0044856E0,3.639105E-2,5.6430864E-1,-1.1621026E0,-3.5476325E0,9.509172E0,1.1780314E0,-2.9572978E0,-6.020976E0,-7.08888E-1,3.2594804E-2,1.8685522E0,-6.567814E0,-7.234393E-1,-8.360482E-1,-1.8467471E-1],"categories":[],"categories_nodes":[],"categories_segments":[],"categories_sizes":[],"default_left":[0,0,0,0,0,0,0,0,0,0,0,0,0,0,0,0,0,0,0,0,0,0,0,0,0,0,0,0,0,0,0,0,0,0,0,0,0,0,0,0,0,0,0,0,0,0,0,0,0],"id":18,"left_children":[1,3,5,7,9,11,13,15,17,19,21,23,25,-1,-1,27,29,31,33,35,37,39,41,-1,43,45,47,-1,-1,-1,-1,-1,-1,-1,-1,-1,-1,-1,-1,-1,-1,-1,-1,-1,-1,-1,-1,-1,-1],"loss_changes":[1.9469319E3,3.5042253E3,6.1283374E3,5.6899414E3,7.0814663E3,3.9100835E3,8.4534766E2,6.5342305E3,5.853839E3,8.595143E3,4.8952637E3,3.4024336E3,4.4285474E2,0E0,0E0,3.6745867E3,8.725203E3,7.9667295E3,7.911275E3,4.9698115E3,5.4335273E3,3.9206736E3,3.655667E3,0E0,2.636649E3,2.4737207E2,8.5550594E-1,0E0,0E0,0E0,0E0,0E0,0E0,0E0,0E0,0E0,0E0,0E0,0E0,0E0,0E0,0E0,0E0,0E0,0E0,0E0,0E0,0E0,0E0],"parents":[2147483647,0,0,1,1,2,2,3,3,4,4,5,5,6,6,7,7,8,8,9,9,10,10,11,11,12,12,15,15,16,16,17,17,18,18,19,19,20,20,21,21,22,22,24,24,25,25,26,26],"right_children":[2,4,6,8,10,12,14,16,18,20,22,24,26,-1,-1,28,30,32,34,36,38,40,42,-1,44,46,48,-1,-1,-1,-1,-1,-1,-1,-1,-1,-1,-1,-1,-1,-1,-1,-1,-1,-1,-1,-1,-1,-1],"split_conditions":[2.3E1,2E1,7.95728E0,9.0091E0,6.44818E0,1.0896721E1,1.80182E1,4.25047E0,1.081092E1,2.294349E0,1.261274E1,-7.987097E0,9.936974E0,1.176539E1,1.0380198E0,-1.6816986E1,7E0,-5.40546E0,1.081092E1,-4.36274E0,1.081092E1,1.4757764E1,1.3626973E1,4.929713E0,7.80182E0,6.666734E1,2.2702933E2,-1.9661419E0,9.249906E-2,-8.859992E-1,1.9824451E0,1.9389316E0,-1.3552014E0,6.0044856E0,3.639105E-2,5.6430864E-1,-1.1621026E0,-3.5476325E0,9.509172E0,1.1780314E0,-2.9572978E0,-6.020976E0,-7.08888E-1,3.2594804E-2,1.8685522E0,-6.567814E0,-7.234393E-1,-8.360482E-1,-1.8467471E-1],"split_indices":[1,1,9,8,8,6,2,4,12,7,13,4,8,0,0,6,1,6,13,8,13,6,8,0,8,3,0,0,0,0,0,0,0,0,0,0,0,0,0,0,0,0,0,0,0,0,0,0,0],"split_type":[0,0,0,0,0,0,0,0,0,0,0,0,0,0,0,0,0,0,0,0,0,0,0,0,0,0,0,0,0,0,0,0,0,0,0,0,0,0,0,0,0,0,0,0,0,0,0,0,0],"sum_hessian":[9.852E3,9.431E3,4.21E2,8.171E3,1.26E3,4.16E2,5E0,6.956E3,1.215E3,8.09E2,4.51E2,4.06E2,1E1,4E0,1E0,6.473E3,4.83E2,7.79E2,4.36E2,6.81E2,1.28E2,3.66E2,8.5E1,1.5E1,3.91E2,8E0,2E0,7.8E1,6.395E3,1.3E2,3.53E2,7.2E1,7.07E2,2E1,4.16E2,2.22E2,4.59E2,1.26E2,2E0,3.45E2,2.1E1,1.3E1,7.2E1,3E2,9.1E1,7E0,1E0,1E0,1E0],"tree_param":{"num_deleted":"0","num_feature":"14","num_nodes":"49","size_leaf_vector":"1"}},{"base_weights":[-1.759287E-3,-2.6206856E0,6.194451E-2,5.039563E-1,-1.1109856E1,-2.472582E0,1.5337294E-1,1.0345295E1,-5.021925E-1,-4.84767E0,-2.1083923E1,-1.3050216E0,-7.912271E0,7.2610626E0,1.09462686E-1,1.9515288E0,5.548536E0,-1.9022981E0,4.25656E0,1.8764408E0,-1.6179617E1,-4.511754E1,-1.2384679E1,-2.6727598E0,9.63486E0,-2.7021553E1,-4.3849025E0,2.0633343E1,3.1939507E-2,-1.0963051E1,1.3831365E-1,-2.2283845E0,1.7077545E0,-2.549934E-1,-2.1679897E0,2.485712E0,7.819899E-1,-2.3404055E0,1.365651E0,-5.748967E0,6.4276433E-1,-1.4838555E1,-3.5093973E0,-5.9067116E0,8.8493896E-1,-3.9430273E-1,-3.1041522E0,4.8780146E0,-2.3677509E-1,3.0215583E0,-9.875164E0,-1.8884785E0,4.333896E0,7.471013E0,2.7436976E0,-2.237216E0,4.50244E0,-4.179457E-1,-8.027427E0,1.3234427E0,2.4276488E-2],"categories":[],"categories_nodes":[],"categories_segments":[],"categories_sizes":[],"default_left":[0,0,0,0,0,0,0,0,0,0,0,0,0,0,0,0,0,0,0,0,0,0,0,0,0,0,0,0,0,0,0,0,0,0,0,0,0,0,0,0,0,0,0,0,0,0,0,0,0,0,0,0,0,0,0,0,0,0,0,0,0],"id":19,"left_children":[1,3,5,7,9,11,13,15,17,19,21,23,25,27,29,31,-1,33,35,37,39,41,43,45,47,49,51,53,55,57,59,-1,-1,-1,-1,-1,-1,-1,-1,-1,-1,-1,-1,-1,-1,-1,-1,-1,-1,-1,-1,-1,-1,-1,-1,-1,-1,-1,-1,-1,-1],"loss_changes":[1.643993E3,6.2125938E3,2.2296008E3,1.7083137E3,3.8327378E3,2.1173147E3,2.89737E3,1.0584298E3,1.0541499E3,3.0782507E3,4.4590166E3,4.170473E3,3.8584363E3,5.5095234E3,2.9500652E3,3.580801E2,0E0,6.7741174E2,2.1772296E2,7.08787E2,8.6105005E2,2.9250488E2,2.18624E3,2.5613894E3,2.153746E3,2.299749E3,1.9253125E3,7.532988E2,4.374062E3,3.590488E3,2.2576182E3,0E0,0E0,0E0,0E0,0E0,0E0,0E0,0E0,0E0,0E0,0E0,0E0,0E0,0E0,0E0,0E0,0E0,0E0,0E0,0E0,0E0,0E0,0E0,0E0,0E0,0E0,0E0,0E0,0E0,0E0],"parents":[2147483647,0,0,1,1,2,2,3,3,4,4,5,5,6,6,7,7,8,8,9,9,10,10,11,11,12,12,13,13,14,14,15,15,17,17,18,18,19,19,20,20,21,21,22,22,23,23,24,24,25,25,26,26,27,27,28,28,29,29,30,30],"right_children":[2,4,6,8,10,12,14,16,18,20,22,24,26,28,30,32,-1,34,36,38,40,42,44,46,48,50,52,54,56,58,60,-1,-1,-1,-1,-1,-1,-1,-1,-1,-1,-1,-1,-1,-1,-1,-1,-1,-1,-1,-1,-1,-1,-1,-1,-1,-1,-1,-1,-1,-1],"split_conditions":[5.045096E1,0E0,-2.6210613E1,-2.162184E1,1E1,2.4145977E0,-2.074684E1,-4.3044786E0,4.2805555E-1,2.85182E0,1.1E1,8.571429E1,1.2E1,1.2E1,-1.6862835E1,-3.243276E1,5.548536E0,-8.7514275E-1,-3.60364E0,-8.1385726E-1,8E0,8.5E1,2.72682E0,-6.2171245E-1,6.262445E-2,7.387462E1,2.1E1,-8.288372E1,-6.7561045E0,-2.8314314E0,-1.261274E1,-2.2283845E0,1.7077545E0,-2.549934E-1,-2.1679897E0,2.485712E0,7.819899E-1,-2.3404055E0,1.365651E0,-5.748967E0,6.4276433E-1,-1.4838555E1,-3.5093973E0,-5.9067116E0,8.8493896E-1,-3.9430273E-1,-3.1041522E0,4.8780146E0,-2.3677509E-1,3.0215583E0,-9.875164E0,-1.8884785E0,4.333896E0,7.471013E0,2.7436976E0,-2.237216E0,4.50244E0,-4.179457E-1,-8.027427E0,1.3234427E0,2.4276488E-2],"split_indices":[0,3,8,8,1,10,9,4,10,9,1,5,1,1,12,3,0,4,6,4,1,5,9,4,12,0,1,3,4,6,2,0,0,0,0,0,0,0,0,0,0,0,0,0,0,0,0,0,0,0,0,0,0,0,0,0,0,0,0,0,0],"split_type":[0,0,0,0,0,0,0,0,0,0,0,0,0,0,0,0,0,0,0,0,0,0,0,0,0,0,0,0,0,0,0,0,0,0,0,0,0,0,0,0,0,0,0,0,0,0,0,0,0,0,0,0,0,0,0,0,0,0,0,0,0],"sum_hessian":[9.852E3,2.33E2,9.619E3,1.71E2,6.2E1,3.34E2,9.285E3,1.5E1,1.56E2,3.9E1,2.3E1,2.76E2,5.8E1,5.6E1,9.229E3,8E0,7E0,1.21E2,3.5E1,2.5E1,1.4E1,5E0,1.8E1,2.46E2,3E1,8E0,5E1,1.9E1,3.7E1,2.3E1,9.206E3,2E0,6E0,1.02E2,1.9E1,9E0,2.6E1,5E0,2E1,1.2E1,2E0,4E0,1E0,1.2E1,6E0,2.1E2,3.6E1,1.8E1,1.2E1,1E0,7E0,4.6E1,4E0,1.3E1,6E0,2.5E1,1.2E1,1.5E1,8E0,1.21E2,9.085E3],"tree_param":{"num_deleted":"0","num_feature":"14","num_nodes":"61","size_leaf_vector":"1"}},{"base_weights":[-3.409764E-3,-2.7278268E-1,5.65362E-1,-4.018324E-1,2.7957873E0,7.504981E-1,-6.4089723E0,-9.4281025E-2,-2.0013058E0,2.4092987E0,2.7894974E1,6.2510407E-1,1.607874E1,-3.1334349E1,-4.028885E0,-1.1462338E-1,3.643133E1,-3.672101E0,2.8183308E0,3.767141E0,-1.8684146E0,1.05722065E1,8.786751E-1,2.821373E-1,2.594653E0,4.1686077E0,2.8633995E1,5.5788804E-2,-1.0985619E1,-9.247449E0,2.348502E0,-1.5174731E-2,-4.7145085E0,3.2937016E0,1.3100398E1,-1.6396734E0,-4.1432017E-1,3.5676496E0,-2.764652E-1,7.684687E-1,6.822745E0,-1.4003425E0,6.7330635E-1,2.09898E-1,-1.0148393E0,1.2764808E0,-7.722309E-1,2.16158E0,-2.8102694E0,9.628812E0,2.2647562E0,1.895438E0,-3.9287293E0,4.503805E0,3.3781385E-1],"categories":[],"categories_nodes":[],"categories_segments":[],"categories_sizes":[],"default_left":[0,0,0,0,0,0,0,0,0,0,0,0,0,0,0,0,0,0,0,0,0,0,0,0,0,0,0,0,0,0,0,0,0,0,0,0,0,0,0,0,0,0,0,0,0,0,0,0,0,0,0,0,0,0,0],"id":20,"left_children":[1,3,5,7,9,11,13,15,17,19,21,23,25,27,29,31,33,35,37,39,41,-1,-1,43,45,47,49,-1,-1,51,53,-1,-1,-1,-1,-1,-1,-1,-1,-1,-1,-1,-1,-1,-1,-1,-1,-1,-1,-1,-1,-1,-1,-1,-1],"loss_changes":[1.5097493E3,2.6491628E3,4.0940437E3,3.156955E3,2.551943E3,5.921456E3,4.738372E3,4.004579E3,8.344816E3,1.5578977E3,6.3035693E2,2.0676177E3,3.619005E3,1.1727671E3,2.5510586E3,5.3761714E3,7.313867E1,3.152208E3,9.071622E3,4.585628E3,7.588381E2,0E0,0E0,3.994641E3,3.9069976E3,6.4296216E2,6.336592E2,0E0,0E0,2.5985925E3,5.249441E2,0E0,0E0,0E0,0E0,0E0,0E0,0E0,0E0,0E0,0E0,0E0,0E0,0E0,0E0,0E0,0E0,0E0,0E0,0E0,0E0,0E0,0E0,0E0,0E0],"parents":[2147483647,0,0,1,1,2,2,3,3,4,4,5,5,6,6,7,7,8,8,9,9,10,10,11,11,12,12,13,13,14,14,15,15,16,16,17,17,18,18,19,19,20,20,23,23,24,24,25,25,26,26,29,29,30,30],"right_children":[2,4,6,8,10,12,14,16,18,20,22,24,26,28,30,32,34,36,38,40,42,-1,-1,44,46,48,50,-1,-1,52,54,-1,-1,-1,-1,-1,-1,-1,-1,-1,-1,-1,-1,-1,-1,-1,-1,-1,-1,-1,-1,-1,-1,-1,-1],"split_conditions":[1.80182E0,2.3E1,1.87682E1,5.988909E0,3.5585766E0,1.8015255E1,1.80182E1,2.237184E1,1.8738928E2,8.1818184E1,1.80182E1,3.0090393E2,9.266502E0,1.4955106E2,1.6044779E1,1.155274E1,1.5856017E2,-1.3728153E0,-5.40546E0,1.9E0,4.14636E0,1.05722065E1,8.786751E-1,1.1926332E1,3.675713E2,2.7207483E2,2.3080456E1,5.5788804E-2,-1.0985619E1,9.5652176E1,8.468554E1,-1.5174731E-2,-4.7145085E0,3.2937016E0,1.3100398E1,-1.6396734E0,-4.1432017E-1,3.5676496E0,-2.764652E-1,7.684687E-1,6.822745E0,-1.4003425E0,6.7330635E-1,2.09898E-1,-1.0148393E0,1.2764808E0,-7.722309E-1,2.16158E0,-2.8102694E0,9.628812E0,2.2647562E0,1.895438E0,-3.9287293E0,4.503805E0,3.3781385E-1],"split_indices":[6,1,9,8,4,7,12,9,0,5,2,0,6,0,6,12,0,6,6,9,13,0,0,6,0,0,6,0,0,5,3,0,0,0,0,0,0,0,0,0,0,0,0,0,0,0,0,0,0,0,0,0,0,0,0],"split_type":[0,0,0,0,0,0,0,0,0,0,0,0,0,0,0,0,0,0,0,0,0,0,0,0,0,0,0,0,0,0,0,0,0,0,0,0,0,0,0,0,0,0,0,0,0,0,0,0,0,0,0,0,0,0,0],"sum_hessian":[9.852E3,6.686E3,3.166E3,6.417E3,2.69E2,3.085E3,8.1E1,5.383E3,1.034E3,2.66E2,3E0,3.061E3,2.4E1,6E0,7.5E1,5.381E3,2E0,7.68E2,2.66E2,2.02E2,6.4E1,2E0,1E0,2.608E3,4.53E2,1.3E1,1.1E1,1E0,5E0,4.1E1,3.4E1,5.36E3,2.1E1,1E0,1E0,4.3E2,3.38E2,7.7E1,1.89E2,1.91E2,1.1E1,3.8E1,2.6E1,2.342E3,2.66E2,3.43E2,1.1E2,1.1E1,2E0,9E0,2E0,8E0,3.3E1,2E0,3.2E1],"tree_param":{"num_deleted":"0","num_feature":"14","num_nodes":"55","size_leaf_vector":"1"}},{"base_weights":[1.0679241E-3,-1.1564627E0,1.0823468E-1,6.774473E-1,-2.7885985E0,-1.08356535E-1,8.4459203E-1,1.2575499E0,-6.667208E0,-6.7187734E0,-1.3030714E0,-1.8348745E-1,5.9077444E0,2.4074006E0,-1.1909888E0,-4.931023E-1,5.7324495E0,-4.444417E0,-1.5993207E0,-2.0573575E0,-1.1121454E1,1.9812117E0,-2.7914026E0,-1.5627998E-1,-8.068334E0,2.2623371E1,-9.277133E-1,2.9352422E0,-7.1505184E0,-1.448661E1,-9.158032E-1,-5.6751436E-1,1.420657E0,2.8190637E0,-5.941693E-1,6.7384887E-1,-1.8364962E0,-6.374441E0,5.237642E-1,-5.297621E0,-2.202717E0,1.3705709E0,-1.2883463E0,-1.686148E0,4.0290254E-1,-5.7785917E-2,4.357042E0,8.81764E0,2.1972663E0,-2.1420965E0,2.761929E0,5.2851324E0,7.9826766E-1,-3.459834E0,-1.069685E0,-5.445425E0,2.9663672E0,-3.2945454E-1,5.020447E0],"categories":[],"categories_nodes":[],"categories_segments":[],"categories_sizes":[],"default_left":[0,0,0,0,0,0,0,0,0,0,0,0,0,0,0,0,0,0,0,0,0,0,0,0,0,0,0,0,0,0,0,0,0,0,0,0,0,0,0,0,0,0,0,0,0,0,0,0,0,0,0,0,0,0,0,0,0,0,0],"id":21,"left_children":[1,3,5,7,9,11,13,15,17,19,21,23,25,27,29,31,33,-1,35,37,39,41,43,45,-1,47,49,51,53,55,57,-1,-1,-1,-1,-1,-1,-1,-1,-1,-1,-1,-1,-1,-1,-1,-1,-1,-1,-1,-1,-1,-1,-1,-1,-1,-1,-1,-1],"loss_changes":[1.222378E3,2.5012031E3,1.4385186E3,1.6870822E3,2.5718096E3,3.1514905E3,6.524374E3,2.8700679E3,1.1737363E3,2.4603691E3,1.5794988E3,4.9993853E3,9.847259E3,5.873266E3,3.246691E3,1.9395426E3,2.9297815E3,0E0,3.4417087E2,4.4163228E3,1.4020415E3,1.6596051E3,2.6041992E3,3.6724563E3,0E0,2.3736328E3,3.9692231E3,4.3838926E3,9.1718677E2,1.7873801E3,2.8318672E3,0E0,0E0,0E0,0E0,0E0,0E0,0E0,0E0,0E0,0E0,0E0,0E0,0E0,0E0,0E0,0E0,0E0,0E0,0E0,0E0,0E0,0E0,0E0,0E0,0E0,0E0,0E0,0E0],"parents":[2147483647,0,0,1,1,2,2,3,3,4,4,5,5,6,6,7,7,8,8,9,9,10,10,11,11,12,12,13,13,14,14,15,15,16,16,18,18,19,19,20,20,21,21,22,22,23,23,25,25,26,26,27,27,28,28,29,29,30,30],"right_children":[2,4,6,8,10,12,14,16,18,20,22,24,26,28,30,32,34,-1,36,38,40,42,44,46,-1,48,50,52,54,56,58,-1,-1,-1,-1,-1,-1,-1,-1,-1,-1,-1,-1,-1,-1,-1,-1,-1,-1,-1,-1,-1,-1,-1,-1,-1,-1,-1,-1],"split_conditions":[2E0,7.318E-2,1.80182E1,1.6788446E0,2.1750686E0,1.00241E1,7.132757E0,-1.1943506E0,1.4285715E-1,-1.80182E0,1.6756926E2,1.0319849E1,1.168592E1,3.675713E2,1.80182E0,-1.7715133E0,2.3243478E2,-4.444417E0,2.583948E0,1.441456E2,-3.1698138E-1,3.145639E0,3.689441E0,1.160728E1,-8.068334E0,2.9878929E0,-6.6066732E0,-2.3166256E0,9.454E-2,2.522548E2,2.3E1,-5.6751436E-1,1.420657E0,2.8190637E0,-5.941693E-1,6.7384887E-1,-1.8364962E0,-6.374441E0,5.237642E-1,-5.297621E0,-2.202717E0,1.3705709E0,-1.2883463E0,-1.686148E0,4.0290254E-1,-5.7785917E-2,4.357042E0,8.81764E0,2.1972663E0,-2.1420965E0,2.761929E0,5.2851324E0,7.9826766E-1,-3.459834E0,-1.069685E0,-5.445425E0,2.9663672E0,-3.2945454E-1,5.020447E0],"split_indices":[1,8,3,4,11,9,9,4,11,3,0,10,9,0,13,13,0,0,4,0,4,4,6,11,0,4,6,6,7,0,1,0,0,0,0,0,0,0,0,0,0,0,0,0,0,0,0,0,0,0,0,0,0,0,0,0,0,0,0],"split_type":[0,0,0,0,0,0,0,0,0,0,0,0,0,0,0,0,0,0,0,0,0,0,0,0,0,0,0,0,0,0,0,0,0,0,0,0,0,0,0,0,0,0,0,0,0,0,0,0,0,0,0,0,0,0,0,0,0,0,0],"sum_hessian":[9.852E3,8.34E2,9.018E3,3.93E2,4.41E2,6.969E3,2.049E3,3.65E2,2.8E1,1.2E2,3.21E2,6.884E3,8.5E1,1.159E3,8.9E2,2.63E2,1.02E2,1E1,1.8E1,5.9E1,6.1E1,1E2,2.21E2,6.878E3,6E0,2.4E1,6.1E1,1.099E3,6E1,1.7E1,8.73E2,2.08E2,5.5E1,6.9E1,3.3E1,1E1,8E0,9E0,5E1,2.1E1,4E1,7.1E1,2.9E1,1.31E2,9E1,6.862E3,1.6E1,1.6E1,8E0,3.8E1,2.3E1,1.9E1,1.08E3,2.6E1,3.4E1,1.5E1,2E0,8.65E2,8E0],"tree_param":{"num_deleted":"0","num_feature":"14","num_nodes":"59","size_leaf_vector":"1"}},{"base_weights":[1.9425902E-4,-1.8656379E-2,6.1731434E0,3.9259255E-2,-2.6702762E0,1.1375749E1,-5.852446E-1,-4.69212E-2,4.0151963E0,2.793296E0,-6.334827E0,4.5294504E0,2.1780717E0,-2.6184025E0,7.125071E-1,1.0226597E-2,-7.358065E0,-2.050742E0,7.8652754E0,1.12352E1,-1.3302658E0,-6.9824843E0,-4.6738257E0,6.7634815E-1,3.9613375E-1,-1.6342698E-2,1.3783654E0,-6.9555764E0,-7.525761E-1,1.4887403E0,-2.756404E0,3.4269378E0,3.8590875E-1,7.9160646E-2,7.1622396E0,7.514188E-1,-2.622598E0,1.1316144E0,-2.146697E0,2.9905754E-1,-9.317757E-1],"categories":[],"categories_nodes":[],"categories_segments":[],"categories_sizes":[],"default_left":[0,0,0,0,0,0,0,0,0,0,0,0,0,0,0,0,0,0,0,0,0,0,0,0,0,0,0,0,0,0,0,0,0,0,0,0,0,0,0,0,0],"id":22,"left_children":[1,3,5,7,9,11,13,15,17,19,21,-1,-1,-1,23,25,27,29,31,33,35,-1,37,-1,39,-1,-1,-1,-1,-1,-1,-1,-1,-1,-1,-1,-1,-1,-1,-1,-1],"loss_changes":[1.1466499E3,1.508779E3,1.0614944E3,3.2947495E3,4.222218E3,1.5081763E2,1.5416078E2,3.9325571E3,4.7804155E3,2.9738562E3,3.4365488E3,0E0,0E0,0E0,5.448884E0,2.770645E3,5.5448506E3,4.0500098E3,2.9111538E3,3.8763455E3,1.6704846E3,0E0,2.4584946E3,0E0,2.8341396E1,0E0,0E0,0E0,0E0,0E0,0E0,0E0,0E0,0E0,0E0,0E0,0E0,0E0,0E0,0E0,0E0],"parents":[2147483647,0,0,1,1,2,2,3,3,4,4,5,5,6,6,7,7,8,8,9,9,10,10,14,14,15,15,16,16,17,17,18,18,19,19,20,20,22,22,24,24],"right_children":[2,4,6,8,10,12,14,16,18,20,22,-1,-1,-1,24,26,28,30,32,34,36,-1,38,-1,40,-1,-1,-1,-1,-1,-1,-1,-1,-1,-1,-1,-1,-1,-1,-1,-1],"split_conditions":[1.3333469E2,1.3301318E1,2.522548E1,1.3639406E1,1.566456E1,1.6248592E1,1.8738928E2,1.206092E1,1.4594742E2,2.70273E2,1.470728E1,4.5294504E0,2.1780717E0,-2.6184025E0,2.522548E1,1.00241E1,-2.3166256E0,8.405856E0,1.982002E1,1.3854457E1,1.8447205E1,-6.9824843E0,1E2,6.7634815E-1,1.5E1,-1.6342698E-2,1.3783654E0,-6.9555764E0,-7.525761E-1,1.4887403E0,-2.756404E0,3.4269378E0,3.8590875E-1,7.9160646E-2,7.1622396E0,7.514188E-1,-2.622598E0,1.1316144E0,-2.146697E0,2.9905754E-1,-9.317757E-1],"split_indices":[3,4,11,11,9,11,0,9,0,0,11,0,0,0,2,9,6,4,13,4,6,0,5,0,1,0,0,0,0,0,0,0,0,0,0,0,0,0,0,0,0],"split_type":[0,0,0,0,0,0,0,0,0,0,0,0,0,0,0,0,0,0,0,0,0,0,0,0,0,0,0,0,0,0,0,0,0,0,0,0,0,0,0,0,0],"sum_hessian":[9.852E3,9.823E3,2.9E1,9.614E3,2.09E2,1.6E1,1.3E1,9.411E3,2.03E2,8.4E1,1.25E2,7E0,9E0,1E0,1.2E1,9.339E3,7.2E1,7.9E1,1.24E2,2.7E1,5.7E1,1E1,1.15E2,1E0,1.1E1,9.21E3,1.29E2,1.6E1,5.6E1,4E1,3.9E1,8E1,4.4E1,1.5E1,1.2E1,3.8E1,1.9E1,2.6E1,8.9E1,1E1,1E0],"tree_param":{"num_deleted":"0","num_feature":"14","num_nodes":"41","size_leaf_vector":"1"}},{"base_weights":[-9.710532E-5,1.5422624E-1,-7.4987733E-1,4.038073E-1,-1.238689E0,-1.8624161E0,1.0552672E0,1.397298E-1,2.99048E0,3.1354263E-2,-3.7973473E0,-1.2295363E0,-9.449516E0,8.08005E-2,5.20807E0,1.9703044E-1,-1.0106343E1,-1.7037796E0,4.1514015E0,-2.479378E0,1.6245471E0,-1.1866931E-2,-8.534305E0,5.7276487E0,-1.9453635E0,-3.9908326E0,-1.1451243E1,7.7879703E-1,-5.969999E0,9.830001E0,-5.675557E0,7.6535153E-3,1.013587E0,-3.881426E0,2.8415205E0,-1.8573408E0,4.343938E-1,-4.8745437E0,1.3271383E0,-2.4663818E0,-1.9460961E-1,2.9078548E0,-2.5488656E-2,-2.8856747E0,4.1022646E-1,-4.2798433E0,6.272004E-1,4.1945095E0,1.3997675E-1,-4.8153776E-1,-5.694874E0,-3.2278843E0,6.130755E-1,-2.1933708E0,-4.6877556E0,9.600822E-2,3.6690779E0,-7.2812295E0,-6.778896E-1,1.2986561E0,5.5602E0,-3.0617955E0,-3.9431873E-1],"categories":[],"categories_nodes":[],"categories_segments":[],"categories_sizes":[],"default_left":[0,0,0,0,0,0,0,0,0,0,0,0,0,0,0,0,0,0,0,0,0,0,0,0,0,0,0,0,0,0,0,0,0,0,0,0,0,0,0,0,0,0,0,0,0,0,0,0,0,0,0,0,0,0,0,0,0,0,0,0,0,0,0],"id":23,"left_children":[1,3,5,7,9,11,13,15,17,19,21,23,25,27,29,31,33,35,37,39,41,43,45,47,49,51,53,55,57,59,61,-1,-1,-1,-1,-1,-1,-1,-1,-1,-1,-1,-1,-1,-1,-1,-1,-1,-1,-1,-1,-1,-1,-1,-1,-1,-1,-1,-1,-1,-1,-1,-1],"loss_changes":[1.1401924E3,2.8414575E3,3.379915E3,4.734024E3,4.0361304E3,4.986974E3,2.597604E3,3.6948914E3,3.5057607E3,3.328095E3,7.387741E3,4.802039E3,8.2844434E2,2.20506E3,6.1928027E3,3.4138298E3,2.0629495E3,1.8192769E3,2.9336172E3,3.3899026E3,7.021378E3,3.060858E3,1.1174641E4,3.9017302E3,5.0301504E3,9.614382E2,8.8816455E2,2.454763E3,3.611895E3,4.0376191E3,7.176283E2,0E0,0E0,0E0,0E0,0E0,0E0,0E0,0E0,0E0,0E0,0E0,0E0,0E0,0E0,0E0,0E0,0E0,0E0,0E0,0E0,0E0,0E0,0E0,0E0,0E0,0E0,0E0,0E0,0E0,0E0,0E0,0E0],"parents":[2147483647,0,0,1,1,2,2,3,3,4,4,5,5,6,6,7,7,8,8,9,9,10,10,11,11,12,12,13,13,14,14,15,15,16,16,17,17,18,18,19,19,20,20,21,21,22,22,23,23,24,24,25,25,26,26,27,27,28,28,29,29,30,30],"right_children":[2,4,6,8,10,12,14,16,18,20,22,24,26,28,30,32,34,36,38,40,42,44,46,48,50,52,54,56,58,60,62,-1,-1,-1,-1,-1,-1,-1,-1,-1,-1,-1,-1,-1,-1,-1,-1,-1,-1,-1,-1,-1,-1,-1,-1,-1,-1,-1,-1,-1,-1,-1,-1],"split_conditions":[2E1,8.793946E0,5.5066667E0,3.6513743E0,1.5E1,3.063094E1,2.9009302E2,5.73046E0,2E0,1.5495651E2,1.6576744E2,-2.2155937E1,2.1261476E2,1.441456E1,1.4757764E1,5.0626535E0,1.4515208E1,6.34296E0,4.864914E1,-3.689441E0,8.6206894E1,-2.7456305E0,8.70728E0,1.711729E2,8.20728E0,1.3084867E0,5.148057E0,1.206092E1,1.470728E1,1.1926332E1,1.380182E1,7.6535153E-3,1.013587E0,-3.881426E0,2.8415205E0,-1.8573408E0,4.343938E-1,-4.8745437E0,1.3271383E0,-2.4663818E0,-1.9460961E-1,2.9078548E0,-2.5488656E-2,-2.8856747E0,4.1022646E-1,-4.2798433E0,6.272004E-1,4.1945095E0,1.3997675E-1,-4.8153776E-1,-5.694874E0,-3.2278843E0,6.130755E-1,-2.1933708E0,-4.6877556E0,9.600822E-2,3.6690779E0,-7.2812295E0,-6.778896E-1,1.2986561E0,5.5602E0,-3.0617955E0,-3.9431873E-1],"split_indices":[1,8,8,7,1,3,0,10,1,0,0,8,0,12,6,11,4,9,0,6,5,6,11,0,11,12,6,9,8,6,8,0,0,0,0,0,0,0,0,0,0,0,0,0,0,0,0,0,0,0,0,0,0,0,0,0,0,0,0,0,0,0,0],"split_type":[0,0,0,0,0,0,0,0,0,0,0,0,0,0,0,0,0,0,0,0,0,0,0,0,0,0,0,0,0,0,0,0,0,0,0,0,0,0,0,0,0,0,0,0,0,0,0,0,0,0,0,0,0,0,0,0,0,0,0,0,0,0,0],"sum_hessian":[9.852E3,8.171E3,1.681E3,6.93E3,1.241E3,1.04E3,6.41E2,6.289E3,6.41E2,8.3E2,4.11E2,9.61E2,7.9E1,5.2E2,1.21E2,6.255E3,3.4E1,1.27E2,5.14E2,3.22E2,5.08E2,2.29E2,1.82E2,8.9E1,8.72E2,2.2E1,5.7E1,4.67E2,5.3E1,8.5E1,3.6E1,5.936E3,3.19E2,3E1,4E0,5.2E1,7.5E1,6E0,5.08E2,7.7E1,2.45E2,8.8E1,4.2E2,2.8E1,2.01E2,1.18E2,6.4E1,3.4E1,5.5E1,8.56E2,1.6E1,1E1,1.2E1,3E1,2.7E1,4.5E2,1.7E1,8E0,4.5E1,5.3E1,3.2E1,1.7E1,1.9E1],"tree_param":{"num_deleted":"0","num_feature":"14","num_nodes":"63","size_leaf_vector":"1"}},{"base_weights":[-2.40479E-3,7.0862633E-1,-1.9079578E-1,2.2145022E-1,5.714947E0,-1.3390565E1,-9.8643996E-2,2.1404219E0,-4.895963E-1,8.959352E0,-5.0565867E0,-1.0613356E1,-3.052135E1,-2.3126936E0,-9.640167E-3,5.9880924E0,-4.3168694E-1,-2.625669E0,6.71289E-1,-2.8210526E0,9.7036E0,-1.0546847E1,5.895023E0,-5.734717E0,-1.775787E1,-1.5851481E0,-1.015409E1,-1.3613352E0,-2.4952572E1,6.2080526E0,-6.954606E-2,-1.8831591E-1,2.3434093E0,-4.1576653E0,4.4000897E-1,3.7065556E0,-8.614248E-1,8.8133E-1,-2.8095126E-1,1.2711364E0,3.911151E0,-3.9613247E0,1.4551088E0,1.1610904E0,2.4861166E0,-2.3420863E0,1.1566167E0,-5.667738E0,3.9970982E-1,2.3305112E-1,-3.1300604E0,-2.2107081E0,-9.846965E0,8.555256E0,1.2257574E0,-4.0867605E0,-1.4599687E-3],"categories":[],"categories_nodes":[],"categories_segments":[],"categories_sizes":[],"default_left":[0,0,0,0,0,0,0,0,0,0,0,0,0,0,0,0,0,0,0,0,0,0,0,0,0,0,0,0,0,0,0,0,0,0,0,0,0,0,0,0,0,0,0,0,0,0,0,0,0,0,0,0,0,0,0,0,0],"id":24,"left_children":[1,3,5,7,9,11,13,15,17,19,21,23,25,27,29,31,33,35,37,-1,39,41,43,45,47,-1,-1,49,51,53,55,-1,-1,-1,-1,-1,-1,-1,-1,-1,-1,-1,-1,-1,-1,-1,-1,-1,-1,-1,-1,-1,-1,-1,-1,-1,-1],"loss_changes":[1.3199628E3,5.032747E3,9.474297E3,2.5689956E3,6.440643E3,2.2451592E3,1.5246223E3,5.0399688E3,3.4089194E3,2.0182295E3,2.6476433E3,1.5712275E3,4.086709E2,6.406084E3,2.771284E3,2.4656382E3,7.8202563E3,1.8173201E3,3.2495796E3,0E0,2.4230713E3,1.2507007E3,4.0574585E1,6.262881E2,4.367036E2,0E0,0E0,5.594708E3,1.4188501E3,3.244979E3,6.459603E3,0E0,0E0,0E0,0E0,0E0,0E0,0E0,0E0,0E0,0E0,0E0,0E0,0E0,0E0,0E0,0E0,0E0,0E0,0E0,0E0,0E0,0E0,0E0,0E0,0E0,0E0],"parents":[2147483647,0,0,1,1,2,2,3,3,4,4,5,5,6,6,7,7,8,8,9,9,10,10,11,11,12,12,13,13,14,14,15,15,16,16,17,17,18,18,20,20,21,21,22,22,23,23,24,24,27,27,28,28,29,29,30,30],"right_children":[2,4,6,8,10,12,14,16,18,20,22,24,26,28,30,32,34,36,38,-1,40,42,44,46,48,-1,-1,50,52,54,56,-1,-1,-1,-1,-1,-1,-1,-1,-1,-1,-1,-1,-1,-1,-1,-1,-1,-1,-1,-1,-1,-1,-1,-1,-1,-1],"split_conditions":[-4.53046E0,-4.787534E0,-4.45728E0,1.1E1,2.3603842E2,-3.4545977E0,-2.70273E1,-8.1341E0,-5.491261E0,-7.20728E1,-3.7621374E0,2.4144388E2,8.828918E1,-3.9468439E0,-9.3523035E0,1.0450556E2,-7.338267E0,-2.162184E1,-4.0533037E0,-2.8210526E0,-5.08046E0,3.4955307E2,2E1,1E1,-1.261274E1,-1.5851481E0,-1.015409E1,-3.5474145E0,-3.60364E0,-4.444581E0,-8.665896E0,-1.8831591E-1,2.3434093E0,-4.1576653E0,4.4000897E-1,3.7065556E0,-8.614248E-1,8.8133E-1,-2.8095126E-1,1.2711364E0,3.911151E0,-3.9613247E0,1.4551088E0,1.1610904E0,2.4861166E0,-2.3420863E0,1.1566167E0,-5.667738E0,3.9970982E-1,2.3305112E-1,-3.1300604E0,-2.2107081E0,-9.846965E0,8.555256E0,1.2257574E0,-4.0867605E0,-1.4599687E-3],"split_indices":[9,9,9,1,0,12,3,9,6,3,11,0,0,6,6,0,12,7,4,0,10,0,1,1,3,0,0,4,2,4,6,0,0,0,0,0,0,0,0,0,0,0,0,0,0,0,0,0,0,0,0,0,0,0,0,0,0],"split_type":[0,0,0,0,0,0,0,0,0,0,0,0,0,0,0,0,0,0,0,0,0,0,0,0,0,0,0,0,0,0,0,0,0,0,0,0,0,0,0,0,0,0,0,0,0,0,0,0,0,0,0,0,0,0,0,0,0],"sum_hessian":[9.852E3,2.063E3,7.789E3,1.881E3,1.82E2,5.3E1,7.736E3,5.08E2,1.373E3,1.4E2,4.2E1,4.7E1,6E0,2.98E2,7.438E3,2.03E2,3.05E2,4.83E2,8.9E2,5E0,1.35E2,2.8E1,1.4E1,2.9E1,1.8E1,1E0,5E0,2.87E2,1.1E1,7E1,7.368E3,4.4E1,1.59E2,3.7E1,2.68E2,7E0,4.76E2,3.69E2,5.21E2,5.2E1,8.3E1,2.4E1,4E0,9E0,5E0,2.4E1,5E0,1.7E1,1E0,2.33E2,5.4E1,4E0,7E0,5E0,6.5E1,3.4E1,7.334E3],"tree_param":{"num_deleted":"0","num_feature":"14","num_nodes":"57","size_leaf_vector":"1"}},{"base_weights":[-3.923335E-3,-3.7197514E0,3.956828E-2,-4.6536107E0,4.1595955E0,1.3550938E1,1.3158528E-2,-9.7584206E-1,-7.753824E0,4.7703404E0,1.7425977E0,-6.1938944E0,3.493855E-2,3.5402565E0,-5.8141947E0,2.332871E0,-8.939731E0,-3.1270797E0,-8.523971E0,9.980781E-1,-1.0249468E-1,5.855841E-1,6.7254457E0,-4.4764967E0,-6.4584124E-1,5.600154E0,-1.0502131E0,-2.0962512E0,-5.7142706E0,-9.548997E-2,-2.461505E0,9.821692E-2,1.7765732E0,-1.4518086E0,-1.2758778E-2],"categories":[],"categories_nodes":[],"categories_segments":[],"categories_sizes":[],"default_left":[0,0,0,0,0,0,0,0,0,0,0,0,0,0,0,0,0,0,0,0,0,0,0,0,0,0,0,0,0,0,0,0,0,0,0],"id":25,"left_children":[1,3,5,7,-1,9,11,13,15,-1,-1,17,19,21,23,25,27,29,-1,31,33,-1,-1,-1,-1,-1,-1,-1,-1,-1,-1,-1,-1,-1,-1],"loss_changes":[1.5924646E3,1.9366298E3,3.4753643E3,1.2352368E3,0E0,2.5335767E2,1.3145312E3,1.134958E3,7.266062E2,0E0,0E0,2.2279978E3,1.2826097E3,7.658074E2,8.01526E2,7.3236096E2,9.127427E2,4.395353E2,0E0,3.9939136E3,2.408523E3,0E0,0E0,0E0,0E0,0E0,0E0,0E0,0E0,0E0,0E0,0E0,0E0,0E0,0E0],"parents":[2147483647,0,0,1,1,2,2,3,3,5,5,6,6,7,7,8,8,11,11,12,12,13,13,14,14,15,15,16,16,17,17,19,19,20,20],"right_children":[2,4,6,8,-1,10,12,14,16,-1,-1,18,20,22,24,26,28,30,-1,32,34,-1,-1,-1,-1,-1,-1,-1,-1,-1,-1,-1,-1,-1,-1],"split_conditions":[-1.942366E1,3.7297675E2,-1.982002E1,-2.7429216E1,4.1595955E0,2.8288574E2,-1.80182E1,1.1926332E1,-3.3462372E0,4.7703404E0,1.7425977E0,-7.20728E0,-6.33228E0,5.4545456E1,8.828918E1,1.4234378E2,1.7E1,-1.9780987E1,-8.523971E0,-6.6750684E0,-9.0091E0,5.855841E-1,6.7254457E0,-4.4764967E0,-6.4584124E-1,5.600154E0,-1.0502131E0,-2.0962512E0,-5.7142706E0,-9.548997E-2,-2.461505E0,9.821692E-2,1.7765732E0,-1.4518086E0,-1.2758778E-2],"split_indices":[12,0,2,7,0,0,13,6,6,0,0,8,9,5,0,0,1,8,0,9,7,0,0,0,0,0,0,0,0,0,0,0,0,0,0],"split_type":[0,0,0,0,0,0,0,0,0,0,0,0,0,0,0,0,0,0,0,0,0,0,0,0,0,0,0,0,0,0,0,0,0,0,0],"sum_hessian":[9.852E3,1.13E2,9.739E3,1.08E2,5E0,1.8E1,9.721E3,5E1,5.8E1,1.3E1,5E0,3.3E1,9.688E3,2.6E1,2.4E1,6E0,5.2E1,3E1,3E0,1.209E3,8.479E3,2.5E1,1E0,6E0,1.8E1,1E0,5E0,4.5E1,7E0,2E1,1E1,1.065E3,1.44E2,1.05E2,8.374E3],"tree_param":{"num_deleted":"0","num_feature":"14","num_nodes":"35","size_leaf_vector":"1"}},{"base_weights":[-2.8549177E-3,5.874363E-1,-1.550614E-1,-1.1681424E0,1.2516646E0,-1.9649448E-1,7.72505E0,2.7133664E-1,-5.0923023E0,1.7790285E0,-2.40959E0,-1.6063754E-1,-9.170584E0,1.0131142E1,-5.4089875E0,-1.0948031E0,1.2169808E1,-1.4656431E1,-1.2011824E0,7.9469883E-1,4.836737E0,-9.959894E0,-2.580588E-1,-3.751822E0,-9.803427E-2,-1.8517992E1,7.499862E-1,8.103648E0,7.1454916E0,-4.179365E0,-5.0002384E-1,-1.1463213E-1,-3.8355558E0,2.3366725E0,9.888483E0,-2.425257E0,-1.0660924E1,2.3769834E0,-1.4085572E0,3.4597474E-1,-3.6844738E0,-4.6934077E-1,2.4414468E0,-3.901651E0,1.2686794E0,-8.4819824E-1,1.2371976E0,-3.5110077E-1,-3.772774E0,4.7284454E-1,-9.393276E-2,-6.500126E0,-1.0961827E0,-9.5229155E-1,8.4669846E-1,3.650317E0,1.1405855E0],"categories":[],"categories_nodes":[],"categories_segments":[],"categories_sizes":[],"default_left":[0,0,0,0,0,0,0,0,0,0,0,0,0,0,0,0,0,0,0,0,0,0,0,0,0,0,0,0,0,0,0,0,0,0,0,0,0,0,0,0,0,0,0,0,0,0,0,0,0,0,0,0,0,0,0,0,0],"id":26,"left_children":[1,3,5,7,9,11,13,15,17,19,21,23,25,27,29,31,33,35,37,39,41,43,45,47,49,51,53,55,-1,-1,-1,-1,-1,-1,-1,-1,-1,-1,-1,-1,-1,-1,-1,-1,-1,-1,-1,-1,-1,-1,-1,-1,-1,-1,-1,-1,-1],"loss_changes":[8.8534515E2,2.3569946E3,2.5592983E3,3.1364358E3,2.8348591E3,2.5065063E3,1.350469E3,6.6290986E3,5.527456E3,3.8547117E3,3.002702E3,1.7451338E3,2.8885684E3,7.782571E2,2.0002585E2,3.0445132E3,3.5689102E3,5.613533E3,3.4484614E3,4.5667E3,6.606248E3,1.8267573E3,1.6441664E3,3.0149243E3,2.7485835E3,6.697622E2,1.390785E2,5.131763E2,0E0,0E0,0E0,0E0,0E0,0E0,0E0,0E0,0E0,0E0,0E0,0E0,0E0,0E0,0E0,0E0,0E0,0E0,0E0,0E0,0E0,0E0,0E0,0E0,0E0,0E0,0E0,0E0,0E0],"parents":[2147483647,0,0,1,1,2,2,3,3,4,4,5,5,6,6,7,7,8,8,9,9,10,10,11,11,12,12,13,13,14,14,15,15,16,16,17,17,18,18,19,19,20,20,21,21,22,22,23,23,24,24,25,25,26,26,27,27],"right_children":[2,4,6,8,10,12,14,16,18,20,22,24,26,28,30,32,34,36,38,40,42,44,46,48,50,52,54,56,-1,-1,-1,-1,-1,-1,-1,-1,-1,-1,-1,-1,-1,-1,-1,-1,-1,-1,-1,-1,-1,-1,-1,-1,-1,-1,-1,-1,-1],"split_conditions":[-4.0326447E0,1.081092E2,3.0331343E1,3.5714285E0,2.5946207E2,2.542548E1,3.60364E1,4E-1,5.311111E-1,6.262445E-2,2.6666937E2,4.50455E1,2.5946207E2,3.243276E1,1.1171284E2,-5.1428574E-1,8.288372E1,0E0,2.80182E0,2.39636E0,1.5495651E2,3.4673755E0,1.4E1,0E0,9.189282E1,1.171183E2,2.8468756E2,4.564004E1,7.1454916E0,-4.179365E0,-5.0002384E-1,-1.1463213E-1,-3.8355558E0,2.3366725E0,9.888483E0,-2.425257E0,-1.0660924E1,2.3769834E0,-1.4085572E0,3.4597474E-1,-3.6844738E0,-4.6934077E-1,2.4414468E0,-3.901651E0,1.2686794E0,-8.4819824E-1,1.2371976E0,-3.5110077E-1,-3.772774E0,4.7284454E-1,-9.393276E-2,-6.500126E0,-1.0961827E0,-9.5229155E-1,8.4669846E-1,3.650317E0,1.1405855E0],"split_indices":[6,0,8,5,0,10,3,9,12,12,0,0,0,3,0,10,0,11,10,13,0,11,1,3,0,3,0,8,0,0,0,0,0,0,0,0,0,0,0,0,0,0,0,0,0,0,0,0,0,0,0,0,0,0,0,0,0],"split_type":[0,0,0,0,0,0,0,0,0,0,0,0,0,0,0,0,0,0,0,0,0,0,0,0,0,0,0,0,0,0,0,0,0,0,0,0,0,0,0,0,0,0,0,0,0,0,0,0,0,0,0,0,0,0,0,0,0],"sum_hessian":[9.852E3,2.019E3,7.833E3,5.54E2,1.465E3,7.793E3,4E1,4.06E2,1.48E2,1.281E3,1.84E2,7.763E3,3E1,3.4E1,6E0,3.65E2,4.1E1,4.2E1,1.06E2,9.7E2,3.11E2,4E1,1.44E2,1.32E2,7.631E3,1.5E1,1.5E1,3.1E1,3E0,1E0,5E0,3.45E2,2E1,3.5E1,6E0,3.3E1,9E0,2.9E1,7.7E1,9.45E2,2.5E1,1.06E2,2.05E2,3.3E1,7E0,9.1E1,5.3E1,1.03E2,2.9E1,8.68E2,6.763E3,1.2E1,3E0,5E0,1E1,1.5E1,1.6E1],"tree_param":{"num_deleted":"0","num_feature":"14","num_nodes":"57","size_leaf_vector":"1"}},{"base_weights":[-3.179922E-3,-5.184967E-2,1.6309394E0,8.4100455E-2,-7.472036E-1,6.403719E0,-9.438395E-1,-1.0450825E-2,4.468209E0,-3.0848923E0,6.136609E-1,-3.7810254E0,8.997168E0,-6.119448E0,1.4491664E0,6.275142E-1,-4.8096716E-1,-1.79368E0,7.587319E0,1.6385309E0,-4.092691E0,5.096021E0,-3.550619E-1,2.442332E0,-7.0671563E0,1.0560195E1,-1.2040201E1,2.8186567E0,-7.118385E0,7.749152E0,-2.059852E0,2.2660452E-1,-2.436268E0,-1.3539383E0,-4.755325E-2,1.3576826E0,-1.3110373E0,7.3316565E0,1.6029563E0,2.2730148E0,-2.8228354E-1,-3.0296376E0,-1.027542E0,1.124862E0,8.121799E0,-4.7457168E-1,1.1406856E0,-2.4768163E-1,9.081372E-1,-3.3935397E0,-7.409101E-1,3.788002E0,-7.8324926E-1,-4.794658E0,1.1504638E0,-4.53781E0,-1.7564839E0,1.141255E-1,3.3907192E0,9.357297E-1,-2.2323582E0],"categories":[],"categories_nodes":[],"categories_segments":[],"categories_sizes":[],"default_left":[0,0,0,0,0,0,0,0,0,0,0,0,0,0,0,0,0,0,0,0,0,0,0,0,0,0,0,0,0,0,0,0,0,0,0,0,0,0,0,0,0,0,0,0,0,0,0,0,0,0,0,0,0,0,0,0,0,0,0,0,0],"id":27,"left_children":[1,3,5,7,9,11,13,15,17,19,21,23,25,27,29,31,33,35,37,39,41,43,45,47,49,51,53,-1,55,57,59,-1,-1,-1,-1,-1,-1,-1,-1,-1,-1,-1,-1,-1,-1,-1,-1,-1,-1,-1,-1,-1,-1,-1,-1,-1,-1,-1,-1,-1,-1],"loss_changes":[7.837151E2,9.0465356E2,3.5083665E3,3.3183037E3,4.9805923E3,2.67538E3,2.3125269E3,2.3527576E3,3.3144363E3,2.7486147E3,4.3005522E3,4.4672644E2,2.757705E3,9.812905E2,2.845628E3,3.7268696E3,5.864468E3,9.478114E2,4.142746E3,1.5695046E3,1.8698652E3,5.1065312E3,4.162853E3,1.778772E1,2.4526703E2,2.074289E3,4.3676642E2,0E0,4.7799927E2,1.2001145E3,2.3363953E3,0E0,0E0,0E0,0E0,0E0,0E0,0E0,0E0,0E0,0E0,0E0,0E0,0E0,0E0,0E0,0E0,0E0,0E0,0E0,0E0,0E0,0E0,0E0,0E0,0E0,0E0,0E0,0E0,0E0,0E0],"parents":[2147483647,0,0,1,1,2,2,3,3,4,4,5,5,6,6,7,7,8,8,9,9,10,10,11,11,12,12,13,13,14,14,15,15,16,16,17,17,18,18,19,19,20,20,21,21,22,22,23,23,24,24,25,25,26,26,28,28,29,29,30,30],"right_children":[2,4,6,8,10,12,14,16,18,20,22,24,26,28,30,32,34,36,38,40,42,44,46,48,50,52,54,-1,56,58,60,-1,-1,-1,-1,-1,-1,-1,-1,-1,-1,-1,-1,-1,-1,-1,-1,-1,-1,-1,-1,-1,-1,-1,-1,-1,-1,-1,-1,-1,-1],"split_conditions":[3.4594943E2,2.5045297E2,-2.60364E0,2.4504752E2,2.7272728E1,-2.70273E1,2.0833333E-1,3.5714285E0,3.5714285E0,-1.366456E1,6.153846E1,3.4955307E2,3.05182E0,-4.8048534E0,1.1E1,2.4144388E2,1.7142857E1,-6.9498773E0,-2.4086573E0,1.2E1,-5.8676543E0,5.591398E1,1.8E1,2E0,-4.144186E1,4.50455E1,3.8198584E2,2.8186567E0,-4.0266666E0,3.585622E2,6.4142847E0,2.2660452E-1,-2.436268E0,-1.3539383E0,-4.755325E-2,1.3576826E0,-1.3110373E0,7.3316565E0,1.6029563E0,2.2730148E0,-2.8228354E-1,-3.0296376E0,-1.027542E0,1.124862E0,8.121799E0,-4.7457168E-1,1.1406856E0,-2.4768163E-1,9.081372E-1,-3.3935397E0,-7.409101E-1,3.788002E0,-7.8324926E-1,-4.794658E0,1.1504638E0,-4.53781E0,-1.7564839E0,1.141255E-1,3.3907192E0,9.357297E-1,-2.2323582E0],"split_indices":[0,0,11,0,5,3,10,5,5,9,5,0,7,6,1,0,5,6,4,1,4,5,1,1,3,3,0,0,12,0,4,0,0,0,0,0,0,0,0,0,0,0,0,0,0,0,0,0,0,0,0,0,0,0,0,0,0,0,0,0,0],"split_type":[0,0,0,0,0,0,0,0,0,0,0,0,0,0,0,0,0,0,0,0,0,0,0,0,0,0,0,0,0,0,0,0,0,0,0,0,0,0,0,0,0,0,0,0,0,0,0,0,0,0,0,0,0,0,0,0,0,0,0,0,0],"sum_hessian":[9.852E3,9.568E3,2.84E2,8.004E3,1.564E3,9.9E1,1.85E2,7.836E3,1.68E2,5.75E2,9.89E2,2E1,7.9E1,5.8E1,1.27E2,3.326E3,4.51E3,5.6E1,1.12E2,1.01E2,4.74E2,1.75E2,8.14E2,7E0,1.3E1,7.4E1,5E0,3E0,5.5E1,4.5E1,8.2E1,3.279E3,4.7E1,3.33E2,4.177E3,1.6E1,4E1,1.2E1,1E2,3E1,7.1E1,4.6E1,4.28E2,1.66E2,9E0,6.29E2,1.85E2,1E0,6E0,6E0,7E0,6.4E1,1E1,4E0,1E0,6E0,4.9E1,1.5E1,3E1,4.2E1,4E1],"tree_param":{"num_deleted":"0","num_feature":"14","num_nodes":"61","size_leaf_vector":"1"}},{"base_weights":[-1.4306182E-3,-1.0393553E0,6.706089E-2,-7.6540184E-1,-1.9248312E1,1.0412383E0,-1.8081537E-2,-1.0336173E0,1.9278795E1,-6.91481E0,-1.2483114E1,-1.5119814E0,2.8127434E0,-1.8866268E0,1.07381545E-1,-6.06264E-1,-9.353469E0,8.444721E0,-4.8880234E0,-3.2030766E0,-1.3524914E0,-6.0004175E-1,-1.3816306E1,3.094195E0,-8.570592E0,6.8553987E0,-3.1528044E0,-7.5578684E-1,3.0276677E-1,-6.184644E-1,5.3577876E-1,-4.527253E0,-1.661863E0,-1.8826573E0,-3.1695318E-1,8.781036E-2,-2.0348933E0,-8.538837E-1,-8.438026E0,4.4826636E-1,3.4747636E0,4.2097026E-1,5.2385E0,6.4932936E-1,-1.8580171E0,-3.4546158E0,-1.3641348E-1,2.2078843E-1,-1.01982094E-1],"categories":[],"categories_nodes":[],"categories_segments":[],"categories_sizes":[],"default_left":[0,0,0,0,0,0,0,0,0,0,0,0,0,0,0,0,0,0,0,0,0,0,0,0,0,0,0,0,0,0,0,0,0,0,0,0,0,0,0,0,0,0,0,0,0,0,0,0,0],"id":28,"left_children":[1,3,5,7,9,11,13,15,17,19,-1,21,23,25,27,29,31,-1,33,-1,-1,35,37,39,-1,41,43,45,47,-1,-1,-1,-1,-1,-1,-1,-1,-1,-1,-1,-1,-1,-1,-1,-1,-1,-1,-1,-1],"loss_changes":[7.005099E2,3.028195E3,7.667515E2,3.2563767E3,2.1944956E3,3.3648728E3,1.9933558E3,2.109861E3,1.8525239E3,1.523999E1,0E0,3.4140542E3,3.965791E3,5.943505E3,1.3440349E3,1.9775903E3,5.5097925E2,0E0,9.318527E0,0E0,0E0,1.5751205E3,3.2166497E3,5.9040693E3,0E0,3.9077412E3,7.5798E3,4.759993E3,1.8094056E3,0E0,0E0,0E0,0E0,0E0,0E0,0E0,0E0,0E0,0E0,0E0,0E0,0E0,0E0,0E0,0E0,0E0,0E0,0E0,0E0],"parents":[2147483647,0,0,1,1,2,2,3,3,4,4,5,5,6,6,7,7,8,8,9,9,11,11,12,12,13,13,14,14,15,15,16,16,18,18,21,21,22,22,23,23,25,25,26,26,27,27,28,28],"right_children":[2,4,6,8,10,12,14,16,18,20,-1,22,24,26,28,30,32,-1,34,-1,-1,36,38,40,-1,42,44,46,48,-1,-1,-1,-1,-1,-1,-1,-1,-1,-1,-1,-1,-1,-1,-1,-1,-1,-1,-1,-1],"split_conditions":[6.846916E1,4.756677E0,9.189282E1,9.2341E0,8E0,1.3E1,1.0450556E2,1.9E1,6.30637E1,6.486552E1,-1.2483114E1,2.7456305E0,1.80182E1,-7.293081E0,4E0,1.5005555E0,1.80182E0,8.444721E0,2E0,-3.2030766E0,-1.3524914E0,8.1563225E0,1E1,4.803487E0,-8.570592E0,-3.5714285E0,1.1E1,-5.8676543E0,1.6E1,-6.184644E-1,5.3577876E-1,-4.527253E0,-1.661863E0,-1.8826573E0,-3.1695318E-1,8.781036E-2,-2.0348933E0,-8.538837E-1,-8.438026E0,4.4826636E-1,3.4747636E0,4.2097026E-1,5.2385E0,6.4932936E-1,-1.8580171E0,-3.4546158E0,-1.3641348E-1,2.2078843E-1,-1.01982094E-1],"split_indices":[0,4,0,10,1,1,0,1,0,0,0,6,2,6,1,11,12,0,1,0,0,12,1,11,0,11,1,4,1,0,0,0,0,0,0,0,0,0,0,0,0,0,0,0,0,0,0,0,0],"split_type":[0,0,0,0,0,0,0,0,0,0,0,0,0,0,0,0,0,0,0,0,0,0,0,0,0,0,0,0,0,0,0,0,0,0,0,0,0,0,0,0,0,0,0,0,0,0,0,0,0],"sum_hessian":[9.852E3,6.09E2,9.243E3,6.01E2,8E0,7.42E2,8.501E3,5.94E2,7E0,6E0,2E0,3.04E2,4.38E2,5.34E2,7.967E3,5.66E2,2.8E1,5E0,2E0,1E0,5E0,2.84E2,2E1,4.35E2,3E0,6.7E1,4.67E2,1.47E3,6.497E3,3.52E2,2.14E2,1E1,1.8E1,1E0,1E0,2.49E2,3.5E1,1.2E1,8E0,3.67E2,6.8E1,4.5E1,2.2E1,1.7E2,2.97E2,3.9E1,1.431E3,3.881E3,2.616E3],"tree_param":{"num_deleted":"0","num_feature":"14","num_nodes":"49","size_leaf_vector":"1"}},{"base_weights":[-4.2463546E-3,-6.6782445E-2,1.3934898E0,5.6605723E-2,-1.3256434E0,3.7495568E0,-6.6641587E-1,-1.7763493E0,1.22456215E-1,-3.7526035E0,6.882923E-1,2.8468066E-1,9.145667E0,-1.0059906E0,5.5294433E0,4.143324E0,-3.5780995E0,8.2164345E0,1.0189833E-1,-5.1834736E0,8.140892E-1,1.5950372E0,-4.5756164E0,1.0679739E1,-1.8794868E0,1.310589E1,4.5101304E0,3.4678028E0,-2.2204E0,2.7047493E0,-1.8616595E0,-2.0940368E0,-1.9231896E-1,2.9231515E0,8.321858E-1,2.1771269E-1,-4.865134E-2,9.574718E-2,-2.4464507E0,1.3077121E0,-2.8234696E0,-1.6898648E-1,2.906713E0,-3.1896362E0,-4.3436843E-1,1.7234627E0,3.5588489E0,-1.0629127E0,3.2261407E0,-1.4231927E0,4.3919797E0,1.2582774E-1,4.242282E0,2.5777218E-1,3.6491835E0,-2.7374116E-1,-2.4926105E0],"categories":[],"categories_nodes":[],"categories_segments":[],"categories_sizes":[],"default_left":[0,0,0,0,0,0,0,0,0,0,0,0,0,0,0,0,0,0,0,0,0,0,0,0,0,0,0,0,0,0,0,0,0,0,0,0,0,0,0,0,0,0,0,0,0,0,0,0,0,0,0,0,0,0,0,0,0],"id":29,"left_children":[1,3,5,7,9,11,13,15,17,19,21,23,25,27,-1,29,31,33,35,37,39,41,43,45,47,49,51,53,55,-1,-1,-1,-1,-1,-1,-1,-1,-1,-1,-1,-1,-1,-1,-1,-1,-1,-1,-1,-1,-1,-1,-1,-1,-1,-1,-1,-1],"loss_changes":[8.6133356E2,1.465134E3,2.050581E3,1.0371598E3,4.1180615E3,3.6806763E3,1.4841882E3,3.1932258E3,1.3792439E3,2.5003389E3,2.2076616E3,2.7421667E3,1.354439E3,1.2192628E3,0E0,3.5856892E3,2.283662E3,1.4754126E2,1.3630881E3,4.7605425E3,3.375974E3,6.888441E3,1.2727336E3,5.4455566E1,2.1607346E3,1.1921313E3,1.4517502E3,1.0784006E3,1.393919E3,0E0,0E0,0E0,0E0,0E0,0E0,0E0,0E0,0E0,0E0,0E0,0E0,0E0,0E0,0E0,0E0,0E0,0E0,0E0,0E0,0E0,0E0,0E0,0E0,0E0,0E0,0E0,0E0],"parents":[2147483647,0,0,1,1,2,2,3,3,4,4,5,5,6,6,7,7,8,8,9,9,10,10,11,11,12,12,13,13,15,15,16,16,17,17,18,18,19,19,20,20,21,21,22,22,23,23,24,24,25,25,26,26,27,27,28,28],"right_children":[2,4,6,8,10,12,14,16,18,20,22,24,26,28,-1,30,32,34,36,38,40,42,44,46,48,50,52,54,56,-1,-1,-1,-1,-1,-1,-1,-1,-1,-1,-1,-1,-1,-1,-1,-1,-1,-1,-1,-1,-1,-1,-1,-1,-1,-1,-1,-1],"split_conditions":[2.3E1,2.1E1,8.580095E-2,-5.40546E1,2.0000201E2,-1.6535211E0,7.387462E1,1E1,-1.6816986E1,2.162184E1,1.081092E1,-7.772491E0,-1.80182E0,1.3153287E2,5.5294433E0,-7.0125666E0,2.0180383E2,2.5045297E2,-2.3911057E0,-1.7715133E0,1.441456E1,2.5309865E0,9.6841E0,1.9459656E2,-4.0353715E-1,-4.787534E0,1.081092E1,1.2252376E2,5.8344646E0,2.7047493E0,-1.8616595E0,-2.0940368E0,-1.9231896E-1,2.9231515E0,8.321858E-1,2.1771269E-1,-4.865134E-2,9.574718E-2,-2.4464507E0,1.3077121E0,-2.8234696E0,-1.6898648E-1,2.906713E0,-3.1896362E0,-4.3436843E-1,1.7234627E0,3.5588489E0,-1.0629127E0,3.2261407E0,-1.4231927E0,4.3919797E0,1.2582774E-1,4.242282E0,2.5777218E-1,3.6491835E0,-2.7374116E-1,-2.4926105E0],"split_indices":[1,1,6,3,0,4,3,1,6,3,2,4,3,0,0,8,0,0,10,13,8,9,9,0,9,9,3,0,6,0,0,0,0,0,0,0,0,0,0,0,0,0,0,0,0,0,0,0,0,0,0,0,0,0,0,0,0],"split_type":[0,0,0,0,0,0,0,0,0,0,0,0,0,0,0,0,0,0,0,0,0,0,0,0,0,0,0,0,0,0,0,0,0,0,0,0,0,0,0,0,0,0,0,0,0,0,0,0,0,0,0,0,0,0,0,0,0],"sum_hessian":[9.852E3,9.431E3,4.21E2,8.59E3,8.41E2,1.96E2,2.25E2,2.97E2,8.293E3,3.81E2,4.6E2,1.2E2,7.6E1,2.22E2,3E0,6.9E1,2.28E2,2E1,8.273E3,2.9E2,9.1E1,3.93E2,6.7E1,2E1,1E2,4E1,3.6E1,4.7E1,1.75E2,4.7E1,2.2E1,1.05E2,1.23E2,1.5E1,5E0,2.46E3,5.813E3,1.02E2,1.88E2,6.8E1,2.3E1,3.11E2,8.2E1,2.2E1,4.5E1,5E0,1.5E1,8.9E1,1.1E1,3E0,3.7E1,2.6E1,1E1,3.7E1,1E1,1.45E2,3E1],"tree_param":{"num_deleted":"0","num_feature":"14","num_nodes":"57","size_leaf_vector":"1"}},{"base_weights":[-1.025578E-3,-1.2599257E0,6.0619634E-2,-9.826362E-1,-3.2625275E1,1.1692425E0,-4.8241124E-2,2.7010021E0,-2.5191953E0,-2.7334695E0,-1.12277975E1,7.8875966E0,7.8796715E-1,-2.7285597E0,3.0445835E-2,4.1643877E0,-1.02442875E1,-2.5975028E-1,-4.848058E0,8.9385146E-1,1.2516988E1,-6.245106E-1,2.7335694E0,9.751955E0,-3.0073318E0,-7.1519356E0,6.516901E-2,1.8086019E-1,2.040443E0,-4.0989866E0,5.1571095E-1,-3.1017315E0,2.6759595E-1,-2.0700388E0,7.0645624E-1,1.9219074E0,-6.429537E-1,5.2842717E0,1.0960461E-1,2.8648058E-1,-2.0454097E0,3.040468E0,5.4256326E-1,-2.9322376E0,-4.0044436E-1,-2.942733E0,-4.549598E-1,-8.959798E-2,1.4466316E-1],"categories":[],"categories_nodes":[],"categories_segments":[],"categories_sizes":[],"default_left":[0,0,0,0,0,0,0,0,0,0,0,0,0,0,0,0,0,0,0,0,0,0,0,0,0,0,0,0,0,0,0,0,0,0,0,0,0,0,0,0,0,0,0,0,0,0,0,0,0],"id":30,"left_children":[1,3,5,7,9,11,13,15,17,-1,-1,19,21,23,25,27,29,31,33,35,37,39,41,-1,